%YAML:1.0
my_svm: !!opencv-ml-svm
   svm_type: C_SVC
   kernel: { type:RBF, gamma:1. }
   C: 1.
   term_criteria: { epsilon:2.2204460492503131e-016, iterations:2000 }
   var_all: 1764
   var_count: 1764
   class_count: 2
   class_labels: !!opencv-matrix
      rows: 1
      cols: 2
      dt: i
      data: [ -1, 1 ]
   sv_total: 104
   support_vectors:
      - [ 3.37155275e-002, 2.62377281e-002, 2.56488249e-002,
          4.66386452e-002, 1.71533778e-001, 1.85198739e-001,
          2.69807428e-001, 1.72911108e-001, 6.25738427e-002,
          5.80734387e-002, 5.70689104e-002, 6.85168505e-002,
          7.39303827e-002, 2.24672139e-001, 2.69807428e-001,
          2.69807428e-001, 2.69807428e-001, 1.53633565e-001,
          8.81928876e-002, 5.20773865e-002, 7.28227422e-002,
          5.03951423e-002, 6.43793941e-002, 1.30253792e-001,
          2.69807428e-001, 2.59387881e-001, 1.54794574e-001,
          8.00521672e-002, 6.24004863e-002, 5.24344705e-002,
          6.04976676e-002, 1.57649815e-001, 2.69807428e-001,
          2.69807428e-001, 2.69807428e-001, 2.22751886e-001,
          5.75385690e-002, 4.75242212e-002, 6.15955368e-002,
          7.71558955e-002, 1.28821313e-001, 1.52835906e-001,
          2.33199701e-001, 2.33199701e-001, 1.77968919e-001,
          9.26798806e-002, 2.10213423e-001, 1.53611764e-001,
          1.13404043e-001, 1.64312303e-001, 1.25814110e-001,
          2.04140350e-001, 2.33199701e-001, 1.46089748e-001,
          7.31893927e-002, 9.84089375e-002, 1.28291309e-001,
          1.24002457e-001, 2.08159626e-001, 2.33199701e-001,
          2.33199701e-001, 1.77189380e-001, 2.10470647e-001,
          1.01765849e-001, 1.00488156e-001, 1.48938119e-001,
          1.75037086e-001, 2.33199701e-001, 2.33199701e-001,
          1.66700497e-001, 2.06042945e-001, 1.59856439e-001,
          1.32214442e-001, 2.72975683e-001, 2.72975683e-001,
          1.43038064e-001, 9.64200720e-002, 9.00278464e-002,
          5.27355596e-002, 8.74087214e-002, 6.67501613e-002,
          1.68820232e-001, 2.72975683e-001, 2.72975683e-001,
          2.26592377e-001, 8.94059613e-002, 5.67026325e-002,
          5.55131957e-002, 6.14810325e-002, 6.67521283e-002,
          1.26338229e-001, 1.27559260e-001, 1.02532208e-001,
          1.41211167e-001, 1.29406288e-001, 1.51705533e-001,
          1.58482105e-001, 2.31704891e-001, 1.38481081e-001,
          1.83464512e-001, 2.72975683e-001, 2.70819694e-001,
          1.60419166e-001, 6.00352027e-002, 8.28668848e-002,
          1.76557481e-001, 2.14571282e-001, 1.76790804e-001,
          9.23493803e-002, 2.66579092e-001, 2.66579092e-001,
          1.72129914e-001, 1.18817329e-001, 1.09911270e-001,
          1.00737974e-001, 6.84274733e-002, 6.13011979e-002,
          8.54047239e-002, 1.27448931e-001, 1.31140620e-001,
          1.05994195e-001, 1.79278851e-001, 2.04072282e-001,
          1.77356780e-001, 1.68139368e-001, 1.10604674e-001,
          1.31189659e-001, 2.66579092e-001, 2.66579092e-001,
          1.35827005e-001, 1.42310143e-001, 1.47000134e-001,
          1.25410452e-001, 8.46611187e-002, 8.66413042e-002,
          1.31144285e-001, 2.66579092e-001, 2.66579092e-001,
          1.54493183e-001, 2.48977453e-001, 1.87234789e-001,
          1.63054928e-001, 9.38123465e-002, 9.41594392e-002,
          1.81264311e-001, 2.27069378e-001, 1.71536341e-001,
          6.05311804e-002, 1.47465214e-001, 1.53117105e-001,
          1.48711234e-001, 1.79062217e-001, 1.03198506e-001,
          2.77258784e-001, 2.77258784e-001, 1.35419294e-001,
          3.80183682e-002, 1.47156239e-001, 1.26059085e-001,
          1.47962838e-001, 1.51641503e-001, 8.99430364e-002,
          2.58953691e-001, 2.77258784e-001, 2.77258784e-001,
          7.71328732e-002, 1.20736830e-001, 9.49005783e-002,
          9.45103765e-002, 8.63428265e-002, 6.03352375e-002,
          2.77258784e-001, 2.77258784e-001, 2.21946955e-001,
          3.22475471e-002, 6.37356415e-002, 1.06122881e-001,
          7.95994923e-002, 8.40417743e-002, 5.02072573e-002,
          2.84760684e-001, 2.84760684e-001, 1.18259020e-001,
          5.77321537e-002, 2.00717553e-001, 1.45523593e-001,
          1.80383563e-001, 1.25884980e-001, 1.63140506e-001,
          2.84760684e-001, 2.84760684e-001, 1.36175647e-001,
          1.88075796e-001, 1.70364439e-001, 1.96687758e-001,
          1.53106615e-001, 5.41435108e-002, 2.15588957e-001,
          2.84760684e-001, 2.84760684e-001, 5.52181676e-002,
          5.32098636e-002, 1.12567574e-001, 1.40909731e-001,
          1.07791916e-001, 7.49768913e-002, 9.68462303e-002,
          2.50412703e-001, 1.09743193e-001, 4.82227504e-002,
          4.58841957e-002, 4.07871753e-002, 5.40151969e-002,
          6.72193393e-002, 4.36542109e-002, 8.45452547e-002,
          2.80333519e-001, 2.80333519e-001, 1.60856128e-001,
          1.92651749e-001, 1.79037049e-001, 2.42890865e-001,
          2.39224330e-001, 1.02121733e-001, 2.80333519e-001,
          2.80333519e-001, 1.41801268e-001, 1.08430296e-001,
          8.14056993e-002, 1.75284922e-001, 2.80333519e-001,
          2.80333519e-001, 2.00225741e-001, 2.80333519e-001,
          2.08977863e-001, 7.95832872e-002, 8.25851187e-002,
          4.68295030e-002, 3.80714945e-002, 4.62964624e-002,
          6.23270124e-002, 5.19231707e-002, 7.60621578e-002,
          7.28854910e-002, 4.94999699e-002, 1.09935179e-001,
          4.50340956e-002, 7.46523812e-002, 4.57657911e-002,
          5.96202351e-002, 5.50686941e-002, 7.05584362e-002,
          1.12754583e-001, 6.76783323e-002, 1.09509602e-001,
          1.13795392e-001, 6.71453252e-002, 7.50035718e-002,
          2.68327206e-001, 1.85298756e-001, 1.56083480e-001,
          6.91296384e-002, 6.81133866e-002, 5.48522063e-002,
          5.95516451e-002, 1.38352305e-001, 2.10758418e-001,
          2.68327206e-001, 1.94615752e-001, 1.26504570e-001,
          1.20239004e-001, 6.46016300e-002, 5.12238629e-002,
          9.33711976e-002, 9.56559852e-002, 9.48588550e-002,
          2.68327206e-001, 2.68327206e-001, 2.68327206e-001,
          8.71708244e-002, 5.97421713e-002, 7.96381533e-002,
          1.32615685e-001, 2.68327206e-001, 2.68327206e-001,
          2.68327206e-001, 2.68327206e-001, 1.47054911e-001,
          7.62598887e-002, 1.21145092e-001, 1.18703976e-001,
          1.03927575e-001, 1.86344251e-001, 2.31229782e-001,
          2.31229782e-001, 1.24619752e-001, 1.14580967e-001,
          9.37749520e-002, 1.44013658e-001, 1.47708148e-001,
          1.80634633e-001, 2.31229782e-001, 2.31229782e-001,
          1.31531119e-001, 1.87111288e-001, 1.63183048e-001,
          6.12292327e-002, 6.14430532e-002, 1.01613522e-001,
          1.57757357e-001, 2.31229782e-001, 2.31229782e-001,
          2.31229782e-001, 1.44010276e-001, 6.48937523e-002,
          1.42948627e-001, 2.31229782e-001, 1.93478867e-001,
          1.63875222e-001, 2.02127799e-001, 2.03504100e-001,
          1.31633639e-001, 1.45566627e-001, 1.58328786e-001,
          4.91148904e-002, 5.74582517e-002, 5.51430807e-002,
          1.00029640e-001, 1.26070529e-001, 1.40130937e-001,
          2.14561984e-001, 2.48376727e-001, 1.51773036e-001,
          6.89691305e-002, 9.63790566e-002, 9.76467654e-002,
          7.46442378e-002, 6.46381229e-002, 9.24378335e-002,
          2.48376727e-001, 2.48376727e-001, 1.55089796e-001,
          1.94861189e-001, 2.48376727e-001, 2.03396305e-001,
          1.28963456e-001, 1.16493247e-001, 9.46862921e-002,
          1.86301649e-001, 2.41131827e-001, 1.68647483e-001,
          1.27513587e-001, 2.30430976e-001, 2.48376727e-001,
          1.50432318e-001, 1.05877869e-001, 1.28164887e-001,
          2.48376727e-001, 2.48376727e-001, 1.30238146e-001,
          8.04123729e-002, 1.27091661e-001, 2.62902826e-001,
          1.71740457e-001, 1.54287979e-001, 1.11856401e-001,
          1.17323138e-001, 1.16495669e-001, 7.24565834e-002,
          6.25351891e-002, 2.39151910e-001, 2.62902826e-001,
          2.38314927e-001, 2.11367875e-001, 1.06030181e-001,
          5.63636199e-002, 2.24483181e-002, 4.54132035e-002,
          6.46232739e-002, 7.71935284e-002, 1.98264331e-001,
          1.84683397e-001, 1.74674213e-001, 2.26488054e-001,
          2.62902826e-001, 1.48781836e-001, 6.29260689e-002,
          7.37407729e-002, 4.50951271e-002, 1.86733440e-001,
          2.12180287e-001, 2.31826559e-001, 2.59862840e-001,
          2.62902826e-001, 1.26843482e-001, 6.43981844e-002,
          1.24896824e-001, 2.87686527e-001, 2.87686527e-001,
          1.41237259e-001, 1.33509934e-001, 9.13666785e-002,
          9.30410698e-002, 3.88365202e-002, 4.87331040e-002,
          6.75425157e-002, 1.55647337e-001, 1.20029218e-001,
          3.48205268e-002, 1.40710220e-001, 2.50015736e-001,
          1.25511929e-001, 3.59696001e-002, 1.73898619e-002,
          2.54324794e-001, 9.64589193e-002, 1.23022661e-001,
          1.62867695e-001, 1.84630007e-001, 1.53244361e-001,
          2.87686527e-001, 2.01619253e-001, 2.71568596e-001,
          2.87686527e-001, 1.89108402e-001, 8.17049891e-002,
          5.96828163e-002, 1.61237299e-001, 1.40386432e-001,
          5.21457084e-002, 5.90517484e-002, 2.49434218e-001,
          1.69887748e-002, 4.43350151e-002, 6.30189851e-002,
          1.26468644e-001, 2.54812807e-001, 2.54812807e-001,
          1.30407199e-001, 1.99952703e-002, 1.26594184e-002,
          4.98747490e-002, 8.65665227e-002, 1.22652762e-001,
          2.01870322e-001, 1.90971553e-001, 1.52666435e-001,
          4.99645360e-002, 1.41657349e-002, 1.48063768e-002,
          2.54812807e-001, 2.54812807e-001, 2.52876371e-001,
          1.90072700e-001, 2.54812807e-001, 2.54812807e-001,
          4.09516729e-002, 4.87061124e-003, 1.07503250e-001,
          2.36927092e-001, 2.54812807e-001, 2.54812807e-001,
          2.47095078e-001, 2.53170580e-001, 1.16596088e-001,
          1.69529524e-002, 6.34877651e-004, 3.55113894e-002,
          1.08725816e-001, 2.50724107e-001, 2.77884841e-001,
          2.57663578e-001, 1.05836019e-001, 5.48108667e-002,
          2.73103695e-002, 1.85026098e-002, 3.24994512e-002,
          1.76940367e-001, 2.48332098e-001, 2.77884841e-001,
          1.74344599e-001, 1.01448491e-001, 2.67024189e-002,
          2.17154808e-002, 1.03485165e-002, 4.52381894e-002,
          2.23299325e-001, 2.77884841e-001, 2.77884841e-001,
          2.77884841e-001, 1.42778367e-001, 4.63837385e-002,
          6.22810796e-003, 3.35602718e-003, 4.34628241e-002,
          2.37037510e-001, 2.77884841e-001, 2.77884841e-001,
          1.65685281e-001, 2.54541580e-002, 6.42002141e-003,
          1.22414425e-003, 2.81540886e-003, 5.98365478e-002,
          8.75195935e-002, 1.36025831e-001, 6.42501563e-002,
          3.81445512e-002, 5.17122038e-002, 3.15791816e-002,
          1.45336032e-001, 2.83663601e-001, 2.05219895e-001,
          1.61931857e-001, 2.12842315e-001, 1.11955442e-001,
          1.15213633e-001, 1.84832692e-001, 1.24924675e-001,
          1.76347628e-001, 2.83663601e-001, 1.52097151e-001,
          1.24282092e-001, 2.83663601e-001, 2.83663601e-001,
          8.61815363e-002, 7.40406066e-002, 8.67332704e-003,
          2.82034390e-002, 1.18491784e-001, 1.03326589e-001,
          2.83663601e-001, 2.83663601e-001, 2.83663601e-001,
          1.33091614e-001, 1.32560775e-001, 3.05147748e-002,
          4.60241139e-002, 1.29024535e-001, 1.58103764e-001,
          1.88637078e-001, 1.29999027e-001, 1.00980684e-001,
          1.59080490e-001, 2.33770296e-001, 2.19532669e-001,
          1.10492855e-001, 1.48648560e-001, 1.20539188e-001,
          2.35309988e-001, 2.48100623e-001, 1.50844559e-001,
          1.07237689e-001, 1.03357859e-001, 1.41005084e-001,
          8.69265571e-002, 1.57666788e-001, 1.51657358e-001,
          2.48100623e-001, 2.48100623e-001, 2.09698066e-001,
          1.28332794e-001, 9.79965702e-002, 8.23867023e-002,
          5.89406714e-002, 9.64963511e-002, 1.89388424e-001,
          2.48100623e-001, 2.48100623e-001, 1.73921883e-001,
          1.11020863e-001, 6.52130172e-002, 9.97781008e-002,
          1.05465144e-001, 1.71102077e-001, 2.27622345e-001,
          2.62534112e-001, 2.82794327e-001, 2.68507332e-001,
          7.14531168e-002, 4.17876206e-002, 3.39464433e-002,
          5.90155944e-002, 7.14074001e-002, 1.15570687e-001,
          1.60952330e-001, 2.82794327e-001, 2.82794327e-001,
          1.22683607e-001, 5.74148223e-002, 6.19261265e-002,
          9.92912501e-002, 9.95165184e-002, 1.12957403e-001,
          2.01044768e-001, 2.82794327e-001, 2.07060561e-001,
          8.99134576e-002, 5.67485318e-002, 8.58446807e-002,
          9.84002724e-002, 8.44785720e-002, 1.42089561e-001,
          1.80723980e-001, 2.82794327e-001, 2.80259877e-001,
          1.21272728e-001, 1.26522183e-001, 1.32595837e-001,
          8.67526084e-002, 1.09381624e-001, 1.66639134e-001,
          1.28420144e-001, 1.51657522e-001, 2.25194544e-001,
          9.57159847e-002, 6.45927265e-002, 1.46167412e-001,
          2.55987972e-001, 1.35812029e-001, 1.23442166e-001,
          2.55987972e-001, 1.07767336e-001, 6.78232461e-002,
          8.93899277e-002, 1.19285464e-001, 1.76199168e-001,
          2.55987972e-001, 2.55987972e-001, 1.65761247e-001,
          1.88747033e-001, 2.20833197e-001, 2.54351377e-001,
          9.10610557e-002, 7.50901029e-002, 7.28278011e-002,
          9.63788256e-002, 1.49204016e-001, 1.98253796e-001,
          2.55987972e-001, 1.79594919e-001, 1.26371056e-001,
          6.12217858e-002, 6.83944300e-002, 5.24153449e-002,
          2.37101883e-001, 1.63817555e-001, 1.80617049e-001,
          2.64127105e-001, 1.58981979e-001, 4.71517220e-002,
          1.58060163e-001, 1.90858856e-001, 1.12210318e-001,
          2.64127105e-001, 2.64127105e-001, 2.64127105e-001,
          2.64127105e-001, 1.58411995e-001, 6.57456741e-002,
          4.74887639e-002, 7.23137707e-002, 3.04678306e-002,
          1.59057640e-002, 8.36340114e-002, 2.64127105e-001,
          2.48254478e-001, 2.16134250e-001, 9.26701576e-002,
          1.02692932e-001, 1.71933293e-001, 1.16478026e-001,
          2.30778500e-001, 1.69876531e-001, 1.71693459e-001,
          1.79583400e-001, 8.73408988e-002, 6.68280125e-002,
          5.35239615e-002, 1.01997286e-001, 9.86623466e-002,
          7.65026659e-002, 8.39047432e-002, 2.64127105e-001,
          3.25520068e-001, 2.64577538e-001, 1.24942884e-001,
          4.89707738e-002, 5.71761094e-002, 1.54101085e-002,
          1.54090184e-003, 1.20642716e-002, 2.65458822e-001,
          3.25520068e-001, 2.90690780e-001, 1.17033370e-001,
          4.66883071e-002, 3.84393632e-002, 8.79972987e-003,
          3.87359934e-004, 1.88001909e-003, 1.31726444e-001,
          3.25520068e-001, 1.27560765e-001, 4.92956117e-002,
          3.76007184e-002, 5.42622283e-002, 5.32888733e-002,
          8.24746713e-002, 7.81983137e-002, 3.25520068e-001,
          3.25520068e-001, 1.71245739e-001, 2.82624681e-002,
          2.11234819e-002, 3.26251425e-002, 1.92397088e-002,
          3.63358110e-002, 8.60495791e-002, 3.25520068e-001,
          3.17171603e-001, 2.91702241e-001, 1.58665091e-001,
          5.42055145e-002, 1.94244031e-002, 4.89074551e-003,
          6.71272574e-004, 3.68974963e-003, 7.68110380e-002,
          2.10105419e-001, 2.79309839e-001, 1.98790208e-001,
          3.38959470e-002, 2.35143560e-003, 7.75515335e-004,
          1.47872197e-004, 9.23188869e-003, 5.75441271e-002,
          3.46495867e-001, 2.06969932e-001, 3.26013528e-002,
          3.76123339e-002, 2.24239025e-002, 1.46739995e-002,
          1.69878229e-002, 8.27181414e-002, 3.46495867e-001,
          3.46495867e-001, 2.49399230e-001, 7.43323788e-002,
          3.11558414e-002, 8.05386994e-003, 1.05499215e-002,
          1.22245960e-002, 8.81603435e-002, 3.46495867e-001,
          7.94583261e-002, 2.99986124e-001, 2.99986124e-001,
          1.64408609e-001, 1.21059231e-001, 3.19359303e-002,
          1.71695445e-002, 4.22865450e-002, 4.12037410e-002,
          1.77727789e-001, 2.99986124e-001, 2.99986124e-001,
          2.18427747e-001, 2.87486762e-001, 1.00668862e-001,
          2.07404904e-002, 2.09764559e-002, 6.11035451e-002,
          4.54540662e-002, 1.65358186e-001, 2.99986124e-001,
          1.71669915e-001, 1.26720518e-001, 1.02028400e-001,
          1.23547278e-001, 6.13179058e-002, 3.60473841e-002,
          5.03119640e-002, 8.45781565e-002, 1.33060798e-001,
          1.24790013e-001, 2.50423968e-001, 2.41889134e-001,
          1.86510190e-001, 1.10128522e-001, 2.80940663e-002,
          1.69980392e-001, 2.37797856e-001, 2.37277031e-001,
          1.65357903e-001, 1.79291606e-001, 9.64736938e-002,
          4.34783138e-002, 4.53873277e-002, 7.90095478e-002,
          2.37797856e-001, 2.37797856e-001, 2.37797856e-001,
          1.52636036e-001, 1.46753222e-001, 1.35447606e-001,
          9.86363739e-002, 1.46448612e-001, 1.60348952e-001,
          6.58981204e-002, 1.17062688e-001, 1.24460422e-001,
          1.01743117e-001, 1.90730959e-001, 1.83730677e-001,
          1.64923891e-001, 1.56984776e-001, 8.16876218e-002,
          1.93565011e-001, 2.37797856e-001, 2.37797856e-001,
          1.31942540e-001, 1.35673329e-001, 1.50352478e-001,
          1.24761932e-001, 1.92281768e-001, 2.30473131e-001,
          2.14635536e-001, 2.38101646e-001, 2.38101646e-001,
          2.06292003e-001, 1.35202572e-001, 1.83235556e-001,
          1.40364617e-001, 1.12937853e-001, 1.63687050e-001,
          1.67862639e-001, 2.07664549e-001, 2.38101646e-001,
          1.86894774e-001, 1.57992408e-001, 1.43021390e-001,
          1.06089279e-001, 1.05518781e-001, 1.88137472e-001,
          1.42119929e-001, 2.38101646e-001, 2.38101646e-001,
          2.38101646e-001, 9.99210849e-002, 1.27125338e-001,
          4.31441292e-002, 1.05683774e-001, 1.36907607e-001,
          6.33914396e-002, 2.20195353e-001, 2.38101646e-001,
          2.16930643e-001, 6.74476698e-002, 5.06624617e-002,
          3.89021337e-002, 2.87164170e-002, 6.68973923e-002,
          2.21458957e-001, 2.21458957e-001, 2.21458957e-001,
          2.21458957e-001, 2.10021734e-001, 1.55427694e-001,
          9.31733325e-002, 2.12849289e-001, 2.21458957e-001,
          2.21458957e-001, 2.21458957e-001, 2.21458957e-001,
          1.37111232e-001, 1.09687954e-001, 8.88219401e-002,
          4.92203124e-002, 1.09358028e-001, 1.61688164e-001,
          1.00468390e-001, 2.08869666e-001, 2.03826994e-001,
          2.08053097e-001, 1.40881851e-001, 1.59799710e-001,
          1.30294904e-001, 1.07199781e-001, 1.26044810e-001,
          1.58614784e-001, 1.46233201e-001, 1.97383642e-001,
          1.07270263e-001, 9.97004509e-002, 1.44843936e-001,
          1.31675929e-001, 1.14077479e-001, 1.31766096e-001,
          1.78360924e-001, 2.25384757e-001, 2.25384757e-001,
          1.10647894e-001, 1.73659563e-001, 1.75743967e-001,
          8.36986974e-002, 1.11394197e-001, 1.08364679e-001,
          9.57193375e-002, 1.42621994e-001, 1.44805372e-001,
          1.45681351e-001, 2.06775442e-001, 2.25384757e-001,
          2.25384757e-001, 2.25384757e-001, 2.25384757e-001,
          2.12259933e-001, 2.03397825e-001, 2.25384757e-001,
          9.40515026e-002, 7.67712891e-002, 9.13309678e-002,
          1.00309908e-001, 9.13744792e-002, 1.59436822e-001,
          1.52342826e-001, 1.54301226e-001, 1.87682629e-001,
          1.90262750e-001, 1.48554310e-001, 1.25472039e-001,
          1.48214296e-001, 1.84110522e-001, 1.61236823e-001,
          1.52691394e-001, 6.93980083e-002, 4.41602319e-002,
          9.88128558e-002, 1.13586843e-001, 1.32034019e-001,
          2.77982444e-001, 2.05333605e-001, 2.77982444e-001,
          2.77982444e-001, 7.89400563e-002, 4.16928753e-002,
          5.90286665e-002, 8.86983350e-002, 7.95641914e-002,
          2.77802527e-001, 2.77982444e-001, 2.77982444e-001,
          4.57031950e-002, 4.62118834e-002, 5.11868298e-002,
          1.36692390e-001, 1.04236968e-001, 9.46069732e-002,
          2.43894547e-001, 2.43246958e-001, 9.44758356e-002,
          6.43907338e-002, 2.39162520e-002, 3.57149132e-002,
          8.11049491e-002, 7.16765150e-002, 1.28835410e-001,
          2.77982444e-001, 2.77982444e-001, 1.84125498e-001,
          2.26889402e-001, 3.91705222e-002, 1.11137144e-002,
          3.85975055e-002, 4.36696075e-002, 5.42483479e-002,
          1.24816552e-001, 1.55904800e-001, 3.14314276e-001,
          3.14314276e-001, 5.27427904e-002, 1.69420913e-002,
          2.56775040e-002, 2.25400291e-002, 6.69842660e-002,
          9.62156057e-002, 2.05904126e-001, 3.14314276e-001,
          7.80059844e-002, 1.76786762e-002, 2.63165291e-002,
          4.67546619e-002, 4.33961935e-002, 1.03904963e-001,
          2.57369518e-001, 3.14314276e-001, 2.32426673e-001,
          1.02807291e-001, 1.47006698e-002, 2.85549816e-002,
          3.88192013e-002, 3.59844565e-002, 1.24011315e-001,
          2.69000679e-001, 3.14314276e-001, 3.14314276e-001,
          3.19519341e-002, 1.35515425e-002, 4.47447859e-002,
          4.62911949e-002, 5.92158325e-002, 1.89346865e-001,
          3.28493953e-001, 1.08720504e-001, 4.55171727e-002,
          2.34057177e-002, 2.99710352e-002, 5.01814373e-002,
          2.40996517e-002, 4.67864014e-002, 2.34871298e-001,
          3.28493953e-001, 2.58316547e-001, 5.13189584e-002,
          4.72131297e-002, 2.13153381e-002, 2.90030781e-002,
          3.01988441e-002, 4.41378728e-002, 2.49513522e-001,
          3.28493953e-001, 3.28493953e-001, 1.61412865e-001,
          3.61525640e-002, 1.40302982e-002, 1.40139889e-002,
          1.19293956e-002, 3.10755260e-002, 1.75344497e-001,
          3.28493953e-001, 3.28493953e-001, 1.76517919e-001,
          3.91635746e-002, 5.29521555e-002, 4.03126888e-002,
          2.11061910e-002, 4.79724780e-002, 1.68650612e-001,
          2.75803536e-001, 2.75803536e-001, 1.12657681e-001,
          1.44401252e-001, 2.75803536e-001, 2.64728278e-001,
          6.51399568e-002, 2.83801649e-002, 8.99985731e-002,
          2.21709669e-001, 2.41216108e-001, 2.57106930e-001,
          3.06015071e-002, 1.14330947e-002, 6.19374402e-003,
          5.03794104e-003, 1.28786284e-002, 9.59777758e-002,
          2.75803536e-001, 2.75803536e-001, 1.77186519e-001,
          8.76517147e-002, 1.13837875e-001, 6.63821697e-002,
          2.65264977e-002, 3.63307307e-003, 5.85393868e-002,
          2.75803536e-001, 2.75803536e-001, 2.57497907e-001,
          1.63771242e-001, 2.56474823e-001, 2.56474823e-001,
          2.11690664e-001, 3.55296619e-002, 7.81429410e-002,
          6.99046701e-002, 9.49285924e-002, 1.60570368e-001,
          8.68360922e-002, 2.18350962e-001, 2.56474823e-001,
          2.29618058e-001, 1.01591140e-001, 8.72032493e-002,
          8.15825611e-002, 4.42352891e-002, 4.39967439e-002,
          1.52539089e-001, 2.17318058e-001, 1.57147899e-001,
          7.64432251e-002, 2.30926145e-002, 1.16228193e-001,
          2.07352340e-001, 2.56474823e-001, 2.56474823e-001,
          1.48021057e-001, 1.04059823e-001, 8.52682292e-002,
          1.19005807e-001, 6.42586425e-002, 1.42125934e-001,
          2.20108479e-001, 2.50283211e-001, 2.56474823e-001,
          9.19331834e-002, 1.30391747e-001, 1.11732304e-001,
          1.78001508e-001, 1.72792107e-001, 1.79772705e-001,
          2.18292132e-001, 1.57783672e-001, 1.24870174e-001,
          1.37809992e-001, 6.04128689e-002, 1.18577614e-001,
          1.11039929e-001, 1.30755037e-001, 1.71989650e-001,
          2.30721906e-001, 1.93962157e-001, 2.26129457e-001,
          2.10147753e-001, 8.45982283e-002, 2.98977587e-002,
          1.16640240e-001, 9.86236334e-002, 1.97953135e-001,
          2.30721906e-001, 2.30721906e-001, 2.30721906e-001,
          1.92801490e-001, 7.60244280e-002, 3.52496579e-002,
          6.85305744e-002, 1.26350746e-001, 2.30721906e-001,
          2.30721906e-001, 2.02677101e-001, 2.30721906e-001,
          2.07241386e-001, 8.68938714e-002, 1.52228221e-001,
          1.17123723e-001, 1.09432563e-001, 1.28253162e-001,
          1.46673650e-001, 1.21064045e-001, 2.24993691e-001,
          2.24993691e-001, 1.61561102e-001, 1.96636960e-001,
          1.87747166e-001, 9.85392630e-002, 9.44339037e-002,
          8.68320391e-002, 1.04915112e-001, 2.24993691e-001,
          1.72289193e-001, 1.18334480e-001, 9.13836211e-002,
          1.01222225e-001, 1.32511035e-001, 2.24993691e-001,
          2.24993691e-001, 1.12313539e-001, 2.24993691e-001,
          2.24993691e-001, 1.73804656e-001, 1.82329759e-001,
          1.61308572e-001, 6.32558465e-002, 2.24993691e-001,
          2.24993691e-001, 1.28947034e-001, 2.24536419e-001,
          1.15887314e-001, 1.12108052e-001, 1.17962115e-001,
          1.30594328e-001, 8.86677653e-002, 7.81515092e-002,
          1.26034677e-001, 2.03577712e-001, 1.81059018e-001,
          1.34829909e-001, 1.39839187e-001, 1.65113106e-001,
          1.91066399e-001, 8.20081085e-002, 1.40841097e-001,
          2.22304136e-001, 2.22304136e-001, 2.04052374e-001,
          1.81102738e-001, 1.36814564e-001, 1.32236421e-001,
          1.02624118e-001, 9.25161093e-002, 1.43060654e-001,
          2.22304136e-001, 2.20137551e-001, 2.22304136e-001,
          2.00228378e-001, 2.22304136e-001, 2.22304136e-001,
          2.22304136e-001, 1.40678212e-001, 1.13969222e-001,
          1.46262467e-001, 1.78271562e-001, 1.95010304e-001,
          1.05994083e-001, 1.25613809e-001, 1.77007377e-001,
          1.98503658e-001, 9.11336988e-002, 1.34420812e-001,
          2.18007386e-001, 2.50663519e-001, 1.85340032e-001,
          5.41251414e-002, 8.66085663e-002, 1.36276975e-001,
          1.50815606e-001, 1.15194432e-001, 1.88705683e-001,
          2.50663519e-001, 2.50663519e-001, 1.95280537e-001,
          1.30409226e-001, 2.39400238e-001, 1.75023466e-001,
          1.99035898e-001, 1.34098217e-001, 1.11602046e-001,
          1.30380839e-001, 9.30397138e-002, 9.13378820e-002,
          1.18010081e-001, 1.36994436e-001, 1.38744235e-001,
          1.77167609e-001, 1.60902947e-001, 2.43609846e-001,
          2.47731477e-001, 1.30805999e-001, 9.04647559e-002,
          5.93536906e-002, 6.96870908e-002, 5.67187034e-002,
          1.12681337e-001, 9.28321108e-002, 1.35067701e-001,
          2.92200983e-001, 2.92200983e-001, 1.35867283e-001,
          4.88985218e-002, 3.70817445e-002, 2.33201366e-002,
          5.48876710e-002, 3.95841636e-002, 7.95486271e-002,
          2.42685512e-001, 2.92200983e-001, 2.15329573e-001,
          6.78596348e-002, 1.36186585e-001, 1.41706035e-001,
          2.92200983e-001, 2.00622782e-001, 1.22990303e-001,
          1.45059213e-001, 1.97264731e-001, 8.69093463e-002,
          7.91895092e-002, 1.15524717e-001, 1.34409904e-001,
          2.71190524e-001, 1.38448134e-001, 1.25014633e-001,
          1.45710289e-001, 2.92200983e-001, 2.16115117e-001,
          3.77076827e-002, 1.16225686e-002, 6.59769122e-003,
          8.82186834e-003, 9.44859255e-003, 2.43530162e-002,
          1.36007831e-001, 3.20531577e-001, 2.98200220e-001,
          7.36337379e-002, 1.37942275e-002, 3.17629334e-003,
          3.44164507e-003, 1.00941304e-003, 2.64567509e-002,
          1.21693112e-001, 3.20531577e-001, 3.20531577e-001,
          7.88786858e-002, 9.06394720e-002, 1.00567579e-001,
          1.50826618e-001, 8.69306400e-002, 2.92727370e-002,
          8.68575647e-002, 3.20531577e-001, 3.20531577e-001,
          1.18757747e-001, 6.74737245e-002, 6.35168776e-002,
          1.34649381e-001, 5.51485196e-002, 3.98163237e-002,
          1.94889382e-001, 3.20531577e-001, 3.20531577e-001,
          1.14910007e-001, 2.82514729e-002, 9.28313285e-003,
          1.11321211e-002, 3.89748788e-003, 3.83900143e-002,
          9.69301909e-002, 3.05532873e-001, 3.05532873e-001,
          1.57786116e-001, 2.14541033e-002, 5.77573199e-003,
          1.54859489e-002, 7.76101369e-003, 3.14016864e-002,
          8.26904252e-002, 2.55822986e-001, 3.05532873e-001,
          1.73621491e-001, 3.55679616e-002, 3.48718800e-002,
          5.18773235e-002, 2.34212726e-002, 1.24175385e-001,
          3.05532873e-001, 3.05532873e-001, 3.05532873e-001,
          1.88203245e-001, 3.58324200e-002, 6.20584423e-003,
          2.16273288e-003, 1.63160861e-002, 8.06775764e-002,
          1.76862761e-001, 3.05532873e-001, 3.05532873e-001,
          2.08790496e-001, 2.10253447e-002, 2.27246503e-003,
          1.05729280e-002, 1.18835708e-002, 4.19159196e-002,
          9.10253599e-002, 2.90750355e-001, 3.10170472e-001,
          1.72373608e-001, 5.03332205e-002, 1.10121127e-002,
          1.42218852e-002, 2.97475718e-002, 8.17239881e-002,
          1.34204164e-001, 2.37342671e-001, 3.10170472e-001,
          1.85512200e-001, 2.44024452e-002, 8.20406154e-003,
          5.23902103e-003, 3.72061580e-002, 4.44578715e-002,
          8.14236924e-002, 3.10170472e-001, 3.10170472e-001,
          1.58700004e-001, 3.44770923e-002, 7.90170673e-003,
          5.16202347e-003, 5.11139259e-002, 1.17120117e-001,
          2.80053586e-001, 3.10170472e-001, 3.10170472e-001,
          9.18857977e-002, 7.40157440e-002, 3.27809490e-002,
          2.78127901e-002, 3.61748673e-002, 1.82662994e-001,
          2.08146527e-001, 2.24379167e-001, 2.19143525e-001,
          6.12800457e-002, 6.34218454e-002, 5.60197756e-002,
          3.77139859e-002, 1.84196867e-002, 2.24493459e-001,
          2.38054723e-001, 1.70963228e-001, 1.37784749e-001,
          1.00289218e-001, 3.87379117e-002, 6.85249548e-003,
          5.96742239e-003, 1.86274759e-002, 1.54774249e-001,
          3.08778167e-001, 3.08778167e-001, 3.08778167e-001,
          4.45638373e-002, 1.98108312e-002, 1.41222654e-002,
          1.07902791e-002, 8.26791301e-003, 1.61395937e-001,
          3.08778167e-001, 3.08778167e-001, 3.08778167e-001,
          9.78839546e-002, 4.92536463e-002, 7.54212812e-002,
          6.87826425e-002, 4.12777141e-002, 1.34395555e-001,
          2.21589625e-001, 2.71102458e-001, 2.39161670e-001,
          1.37846872e-001, 1.18605457e-001, 1.34265944e-001,
          1.15632534e-001, 7.15120807e-002, 7.23545551e-002,
          1.35520011e-001, 2.33991101e-001, 2.09347844e-001,
          1.03533082e-001, 1.35447858e-002, 3.58626060e-002,
          3.19326818e-002, 3.18699554e-002, 1.01413757e-001,
          2.89236248e-001, 2.89236248e-001, 2.89236248e-001,
          1.75168842e-001, 8.95553976e-002, 9.57032442e-002,
          1.01332225e-001, 1.13250576e-001, 1.71267331e-001,
          2.00682074e-001, 2.89236248e-001, 2.89236248e-001,
          1.52447701e-001, 2.36809120e-001, 1.20974869e-001,
          8.18744600e-002, 9.51758251e-002, 8.15412551e-002,
          1.39971673e-001, 1.44425228e-001, 1.26517862e-001,
          2.03106031e-001, 1.89696610e-001, 1.13378197e-001,
          1.19540237e-001, 1.09354615e-001, 1.11249834e-001,
          1.41043350e-001, 1.72553167e-001, 1.21078789e-001,
          2.45218307e-001, 2.17257544e-001, 1.12111866e-001,
          9.65180770e-002, 1.14171371e-001, 1.74427673e-001,
          1.72553912e-001, 2.45218307e-001, 2.45218307e-001,
          2.45218307e-001, 2.45218307e-001, 8.49502310e-002,
          7.65817761e-002, 1.69514909e-001, 1.10649258e-001,
          1.19910210e-001, 2.45218307e-001, 2.45218307e-001,
          1.21244729e-001, 1.03240199e-001, 1.55501276e-001,
          2.33413503e-001, 2.00878352e-001, 1.28498316e-001,
          1.28507346e-001, 1.15583986e-001, 1.34723499e-001,
          1.20769955e-001, 1.14272505e-001, 2.33413503e-001,
          2.33413503e-001, 2.33413503e-001, 1.47675693e-001,
          1.02405071e-001, 1.69729024e-001, 1.53212950e-001,
          1.83544368e-001, 8.35574120e-002, 6.68457747e-002,
          9.50007886e-002, 1.50994256e-001, 2.02677667e-001,
          2.11454824e-001, 2.33413503e-001, 1.42794356e-001,
          9.74720344e-002, 4.06514443e-002, 1.24769635e-001,
          1.64860636e-001, 1.75477669e-001, 2.33413503e-001,
          2.33413503e-001, 2.33413503e-001, 1.65309265e-001,
          6.29840866e-002, 1.31681517e-001, 2.16321066e-001,
          2.26734921e-001, 1.72957703e-001, 5.98325990e-002,
          7.67931938e-002, 1.51946545e-001, 2.17336297e-001,
          7.40738213e-002, 1.67577103e-001, 2.26734921e-001,
          2.26734921e-001, 1.10662974e-001, 5.29962480e-002,
          1.73910901e-001, 2.26734921e-001, 2.26734921e-001,
          4.13872935e-002, 8.52755904e-002, 1.23206005e-001,
          2.16400474e-001, 1.48674294e-001, 1.46719486e-001,
          2.14007467e-001, 2.26734921e-001, 1.34729132e-001,
          7.41681606e-002, 2.26734921e-001, 2.26734921e-001,
          2.26734921e-001, 9.97846425e-002, 1.27300888e-001,
          1.82658195e-001, 1.59041420e-001, 9.73295420e-002,
          9.69319865e-002, 7.66381100e-002, 1.07248463e-001,
          9.09874439e-002, 2.32088361e-002, 9.13573802e-002,
          2.07359105e-001, 2.72030711e-001, 2.72030711e-001,
          1.45475328e-001, 5.91779724e-002, 2.94363052e-002,
          1.64401345e-002, 2.75791660e-002, 1.00186206e-001,
          1.73588187e-001, 2.72030711e-001, 2.72030711e-001,
          1.16676591e-001, 1.61551982e-001, 2.20397517e-001,
          1.27997547e-001, 6.18634447e-002, 6.70397952e-002,
          1.06374703e-001, 1.95335031e-001, 1.52982414e-001,
          2.42577717e-001, 1.96517855e-001, 1.95098042e-001,
          1.08867168e-001, 1.46417350e-001, 1.18701503e-001,
          1.75607637e-001, 2.72030711e-001, 2.72030711e-001,
          9.53271016e-002, 3.48195769e-002, 1.86888389e-002,
          1.14281569e-002, 2.62259468e-002, 4.30944189e-002,
          9.16639566e-002, 2.96940118e-001, 2.96940118e-001,
          1.35987774e-001, 3.17531675e-002, 1.16301980e-002,
          3.69646656e-003, 1.97222177e-002, 3.25844288e-002,
          8.75294954e-002, 2.96940118e-001, 2.96940118e-001,
          1.88543260e-001, 1.57825783e-001, 1.58462450e-001,
          1.42018482e-001, 1.08367063e-001, 7.69864321e-002,
          1.19102113e-001, 2.96940118e-001, 2.96940118e-001,
          2.08456710e-001, 1.16268657e-001, 1.03405438e-001,
          1.15522280e-001, 8.88777599e-002, 6.99423775e-002,
          9.88028869e-002, 2.96940118e-001, 2.96940118e-001,
          1.29490376e-001, 2.13715862e-002, 4.34142072e-003,
          6.32576784e-003, 7.43523566e-003, 3.68556529e-002,
          1.55827314e-001, 2.75795013e-001, 2.75795013e-001,
          1.10308267e-001, 1.94205139e-002, 8.54449067e-003,
          9.23326425e-003, 5.76032093e-003, 3.01886313e-002,
          1.79024592e-001, 2.75795013e-001, 2.75795013e-001,
          2.24815860e-001, 4.78702188e-002, 3.85393240e-002,
          6.91195577e-002, 8.18967894e-002, 1.25036463e-001,
          2.35806316e-001, 2.75795013e-001, 2.75795013e-001,
          2.28273183e-001, 7.19742924e-002, 5.25962785e-002,
          6.61921874e-002, 8.09493288e-002, 1.26369610e-001,
          2.75795013e-001, 2.75795013e-001, 2.75795013e-001,
          9.03398469e-002, 3.77824455e-002, 5.95712801e-003,
          6.04966050e-003, 1.10913124e-002, 1.73450913e-002,
          1.13252804e-001, 2.60907561e-001, 2.33989522e-001,
          7.86097124e-002, 5.57403229e-002, 1.07059311e-002,
          1.32578351e-002, 2.39049923e-002, 6.39933422e-002,
          9.05965194e-002, 2.60907561e-001, 2.53913522e-001,
          2.60907561e-001, 2.19343245e-001, 1.03882536e-001,
          4.87965643e-002, 9.74378437e-002, 6.19883761e-002,
          1.19684890e-001, 2.60907561e-001, 2.60907561e-001,
          2.60907561e-001, 2.60907561e-001, 8.69697630e-002,
          6.31316751e-002, 1.36664525e-001, 1.88153595e-001,
          2.56083906e-001, 2.60907561e-001, 2.60907561e-001,
          9.20657516e-002, 7.14488626e-002, 2.43843384e-002,
          1.44356675e-002, 1.84312817e-002, 6.34377152e-002,
          6.05693869e-002, 1.23683177e-001, 1.65115029e-001,
          1.15196012e-001, 1.48968294e-001, 4.80986424e-002,
          4.08897549e-002, 5.60709126e-002, 1.37378648e-001,
          6.81457445e-002, 7.53679723e-002, 2.17170298e-001,
          2.27908537e-001, 1.59004152e-001, 6.42485097e-002,
          4.49060276e-002, 1.26189351e-001, 2.70628184e-001,
          2.70628184e-001, 2.70628184e-001, 2.55286992e-001,
          2.07002297e-001, 2.48121291e-001, 1.78431273e-001,
          1.22408837e-001, 1.49119809e-001, 2.70628184e-001,
          2.70628184e-001, 1.91905290e-001, 2.69081593e-001 ]
      - [ 4.90068533e-002, 3.53019126e-002, 4.86998260e-002,
          5.87625653e-002, 1.50536433e-001, 2.33508199e-001,
          1.51649699e-001, 1.32247806e-001, 7.91333392e-002,
          1.63623113e-002, 4.05261405e-002, 2.62828231e-001,
          2.72986531e-001, 2.72986531e-001, 2.72986531e-001,
          2.48522207e-001, 2.70872951e-001, 9.37295258e-002,
          1.93372034e-002, 2.40683975e-003, 8.70243274e-003,
          7.68938428e-003, 4.73744757e-002, 1.27077594e-001,
          2.24377170e-001, 2.72986531e-001, 1.22731350e-001,
          3.25073041e-002, 2.58824602e-002, 7.99435824e-002,
          4.29934710e-002, 8.33528787e-002, 1.61469758e-001,
          2.72986531e-001, 2.72986531e-001, 2.72986531e-001,
          1.02389447e-001, 7.96180740e-002, 1.64640188e-001,
          2.25552484e-001, 2.13758335e-001, 8.70322436e-002,
          9.11892951e-002, 1.73180163e-001, 1.56397477e-001,
          2.94302911e-001, 1.78858206e-001, 4.03633118e-002,
          5.38442023e-002, 6.75520152e-002, 1.55520607e-002,
          9.38787963e-003, 4.08009514e-002, 2.30536610e-001,
          1.65965617e-001, 1.21970035e-001, 6.75843880e-002,
          3.19541655e-002, 3.46136317e-002, 3.47451903e-002,
          1.68054640e-001, 2.94302911e-001, 2.94302911e-001,
          2.94302911e-001, 2.94302911e-001, 6.73550889e-002,
          1.13812396e-002, 7.04904040e-003, 4.40454809e-003,
          1.74881276e-002, 2.94302911e-001, 2.94302911e-001,
          2.43885264e-001, 1.30710155e-001, 2.45352127e-002,
          8.82184599e-003, 7.89823942e-003, 1.36549827e-002,
          6.08890578e-002, 1.72763258e-001, 2.78134078e-001,
          3.35812345e-002, 1.62807014e-002, 7.81955384e-003,
          4.33957344e-003, 1.06042260e-002, 6.06456213e-002,
          1.49170488e-001, 2.19783694e-001, 1.88166529e-001,
          2.78134078e-001, 2.51403123e-001, 4.27317470e-002,
          1.25190327e-002, 6.07096925e-002, 1.41462967e-001,
          1.77325726e-001, 2.78134078e-001, 2.78134078e-001,
          7.34083131e-002, 3.03993486e-002, 3.81097919e-003,
          9.44719557e-003, 2.20635012e-001, 2.78134078e-001,
          2.78134078e-001, 2.78134078e-001, 2.40855217e-001,
          2.77001839e-002, 2.96432395e-002, 4.88947295e-002,
          1.79974027e-002, 1.16439365e-001, 1.89500630e-001,
          3.01402479e-001, 2.28148639e-001, 6.22010492e-002,
          2.38021221e-002, 2.08245702e-002, 3.65182534e-002,
          1.08480621e-002, 1.23026527e-001, 3.14782299e-002,
          4.58140150e-002, 2.02623364e-002, 1.96878482e-002,
          3.84168476e-002, 2.21188497e-002, 2.86230315e-002,
          4.71679009e-002, 4.44697469e-001, 4.44697469e-001,
          4.44697469e-001, 3.44268590e-001, 6.30279407e-002,
          3.90174463e-002, 2.14970987e-002, 2.94724014e-002,
          1.07926987e-002, 1.53322801e-001, 6.09118193e-002,
          1.32010669e-001, 5.97664677e-002, 3.91525701e-002,
          1.68460131e-001, 2.44700685e-002, 7.67167658e-002,
          7.14541273e-003, 3.03971767e-001, 2.41902843e-002,
          1.62825957e-001, 6.28259853e-002, 1.71022192e-001,
          2.23413616e-001, 2.15954352e-002, 6.46216273e-002, 0.,
          3.03971767e-001, 0., 1.42547488e-001, 1.00914434e-001,
          2.34453276e-001, 2.35924184e-001, 5.50566055e-002,
          1.24203183e-001, 0., 3.03971767e-001, 1.34325698e-002,
          2.02610061e-001, 7.76242316e-002, 2.36004516e-001,
          2.59349823e-001, 3.50085050e-002, 1.04758590e-001, 0.,
          3.03971767e-001, 0., 2.24202842e-001, 1.16362810e-001,
          2.67936230e-001, 1.75107166e-001, 2.67539620e-002,
          7.62745216e-002, 7.65817799e-003, 2.88057476e-001, 0.,
          9.07336399e-002, 5.88412844e-002, 1.80495486e-001,
          2.34532386e-001, 9.69273224e-002, 1.93356395e-001,
          4.02891003e-002, 2.88057476e-001, 0., 6.41773120e-002,
          4.12815697e-002, 2.30823666e-001, 1.82014167e-001,
          2.98639517e-002, 9.07446072e-002, 2.64528822e-002,
          2.88057476e-001, 9.64953098e-003, 1.42998725e-001,
          6.83932006e-002, 1.85940340e-001, 2.48159945e-001,
          1.99180320e-001, 2.88057476e-001, 2.88057476e-001,
          2.88057476e-001, 2.74681095e-002, 8.58169198e-002,
          5.19950166e-002, 2.00974420e-001, 6.75968155e-002,
          7.90453404e-002, 1.23875789e-001, 3.77111956e-002,
          8.38381276e-002, 0., 1.42161269e-002, 1.30860191e-002,
          6.11756444e-002, 2.88438112e-001, 2.88438112e-001,
          2.88438112e-001, 7.13077560e-002, 7.16440976e-002,
          4.62264521e-003, 4.81999703e-002, 1.19322203e-002,
          8.04186612e-002, 9.31849107e-002, 1.45600379e-001,
          2.88438112e-001, 2.88438112e-001, 1.77043334e-001,
          4.28577773e-002, 6.41342327e-002, 2.37126164e-002,
          6.51077330e-002, 2.75939077e-001, 2.88438112e-001,
          2.88438112e-001, 2.88438112e-001, 1.62366137e-001,
          9.18162465e-002, 2.36248672e-001, 6.03075251e-002,
          1.76861212e-001, 8.17070156e-002, 7.26400549e-003,
          1.19072115e-002, 6.25876337e-003, 6.48839492e-003,
          8.18069279e-002, 2.95025438e-001, 3.49007100e-001,
          2.64882475e-001, 9.23348814e-002, 1.40247997e-002,
          6.67227153e-003, 2.14897888e-003, 3.05078970e-003,
          7.07363784e-002, 3.49007100e-001, 3.49007100e-001,
          3.49007100e-001, 3.03539187e-002, 5.19998791e-003,
          2.30542012e-002, 1.24802617e-002, 2.26613041e-002,
          7.95360059e-002, 1.63661510e-001, 1.95959553e-001,
          9.84849334e-002, 8.64561200e-002, 1.34690739e-002,
          9.83914081e-003, 4.33050422e-003, 6.98109623e-003,
          4.86385971e-002, 2.02911407e-001, 3.40210587e-001,
          2.72388548e-001, 7.34383315e-002, 5.07200025e-002,
          5.06443623e-003, 1.44764825e-004, 0., 5.25090890e-003,
          1.11889467e-001, 3.64165157e-001, 3.64165157e-001,
          1.29011959e-001, 1.58097446e-001, 3.77945118e-002,
          6.64164079e-003, 1.34870337e-004, 9.11616255e-003,
          4.39998470e-002, 3.64165157e-001, 3.64165157e-001,
          5.16190827e-002, 8.53856001e-003, 1.43297148e-004,
          7.99654481e-006, 1.09240660e-004, 1.05519351e-002,
          5.90037666e-002, 2.38040119e-001, 2.29204014e-001,
          2.42681094e-002, 2.81960028e-003, 6.74473005e-004,
          1.19948170e-004, 4.50367574e-004, 4.32492681e-002,
          1.30382508e-001, 3.64165157e-001, 3.64165157e-001,
          8.38146657e-002, 5.57124838e-002, 1.30402073e-002,
          5.07983146e-003, 4.02413830e-002, 1.27843127e-001,
          1.51996776e-001, 3.01497102e-001, 3.07939470e-001,
          4.67766970e-002, 1.24869589e-002, 4.48559551e-003,
          1.47565193e-002, 1.86405212e-001, 3.07939470e-001,
          3.07939470e-001, 1.23587966e-001, 1.26546398e-001,
          1.95761472e-002, 1.29677833e-003, 2.80936249e-004,
          4.33561145e-005, 6.17701700e-003, 1.18467152e-001,
          2.99129248e-001, 2.18590945e-001, 2.32339442e-001,
          1.48402778e-002, 6.95713330e-004, 5.14287688e-003,
          1.08148204e-002, 7.13419169e-002, 3.07939470e-001,
          3.07939470e-001, 3.07939470e-001, 7.68209547e-002,
          7.45077478e-003, 1.64068141e-003, 1.04717147e-002,
          2.35058479e-002, 1.79778367e-001, 3.70615810e-001,
          3.70615810e-001, 8.58866796e-002, 1.32897217e-002,
          5.74907521e-003, 3.97036131e-003, 7.52927503e-003,
          4.94306115e-003, 3.29727754e-002, 3.46671306e-002,
          8.91484395e-002, 3.69459093e-002, 9.25165229e-003,
          3.30619724e-003, 2.99772742e-004, 1.29083386e-002,
          2.02896427e-002, 1.01204365e-001, 3.69966626e-001,
          3.70615810e-001, 3.70615810e-001, 1.62866339e-002,
          6.17015641e-003, 4.48520109e-003, 7.11811800e-003,
          6.64603943e-003, 5.01395129e-002, 1.70594469e-001,
          3.70615810e-001, 2.78038651e-001, 7.67459394e-003,
          1.16876401e-001, 5.38269877e-002, 1.26087770e-001,
          2.38579605e-002, 1.81964874e-001, 6.81472868e-002,
          1.59166157e-001, 5.38835488e-002, 1.16218537e-001,
          1.18970998e-001, 2.32536197e-002, 7.16212541e-002,
          4.16800287e-003, 2.34013781e-001, 0., 9.08777416e-002,
          3.03698163e-002, 1.18970998e-001, 1.45164683e-001,
          9.23571885e-002, 1.38119549e-001, 3.73292156e-002,
          4.14327383e-001, 4.14327383e-001, 4.14327383e-001,
          2.62061030e-001, 1.17687099e-001, 1.46198228e-001,
          3.74553688e-002, 9.75783616e-002, 1.12302396e-002,
          2.54513323e-001, 4.16076509e-003, 1.30204737e-001,
          4.84329537e-002, 1.45872667e-001, 1.12452902e-001,
          3.86984982e-002, 1.32085487e-001, 4.03423905e-002,
          2.66057044e-001, 2.00180933e-002, 6.55165315e-002,
          1.86240301e-002, 1.12233222e-001, 1.64830804e-001,
          2.21417904e-001, 2.75441885e-001, 2.72077113e-001,
          2.75441885e-001, 1.32180050e-001, 9.14874598e-002,
          2.31748633e-002, 1.00860156e-001, 1.35882422e-001,
          6.17709346e-002, 1.83087975e-001, 6.93940222e-002,
          2.75441885e-001, 3.22588794e-002, 1.13907248e-001,
          4.07977328e-002, 1.34725377e-001, 1.10423423e-001,
          1.90090150e-001, 2.75441885e-001, 2.28599429e-001,
          2.75441885e-001, 2.58249909e-001, 1.90468594e-001,
          6.69538081e-002, 8.37095007e-002, 7.45613351e-002,
          9.85166728e-002, 2.02364668e-001, 2.37340048e-001,
          1.83151066e-001, 1.56311303e-001, 1.70848519e-001,
          7.96734840e-002, 4.91529405e-002, 1.16715625e-001,
          1.50367856e-001, 2.48891547e-001, 2.24113792e-001,
          1.71806678e-001, 2.22346306e-001, 2.48891547e-001,
          2.48891547e-001, 1.97287723e-001, 3.87363024e-002,
          8.02047774e-002, 1.03039876e-001, 6.64979145e-002,
          1.14037149e-001, 1.69590041e-001, 1.69872344e-001,
          1.09965906e-001, 4.42349017e-002, 1.29686549e-001,
          1.35728851e-001, 1.27221704e-001, 8.76692459e-002,
          9.40460265e-002, 1.93429112e-001, 2.48891547e-001,
          2.48891547e-001, 2.48891547e-001, 3.57122272e-002,
          2.45322455e-002, 5.86296618e-002, 6.81960136e-002,
          1.83629259e-001, 2.58806199e-001, 2.58806199e-001,
          2.58806199e-001, 1.15841076e-001, 2.37979606e-001,
          4.17100117e-002, 4.06021848e-002, 5.14362529e-002,
          1.07367203e-001, 1.00314938e-001, 2.58806199e-001,
          2.58806199e-001, 2.58806199e-001, 5.96978888e-002,
          4.91209514e-002, 1.29821390e-001, 1.90322489e-001,
          2.58806199e-001, 1.73700660e-001, 1.79137290e-001,
          8.00336599e-002, 5.05335182e-002, 1.78616121e-001,
          7.39304125e-002, 1.03482090e-001, 1.36421725e-001,
          2.58806199e-001, 1.21034130e-001, 2.02822387e-001,
          1.84491783e-001, 1.82807773e-001, 2.06890047e-001,
          3.20062973e-002, 6.23382209e-003, 7.23044062e-003,
          3.47945988e-002, 7.76550546e-002, 2.19298199e-001,
          2.88187027e-001, 2.88187027e-001, 1.15439273e-001,
          7.55253294e-003, 6.37206540e-004, 2.48107011e-004,
          1.51452580e-002, 2.03741759e-001, 2.88187027e-001,
          2.88187027e-001, 2.88187027e-001, 1.12788633e-001,
          6.92981631e-002, 4.68417928e-002, 5.33638336e-002,
          1.52924955e-001, 9.93951559e-002, 1.20145097e-001,
          1.78881466e-001, 1.77001163e-001, 1.16493195e-001,
          3.55943963e-002, 3.52238417e-002, 2.16033962e-002,
          9.52563360e-002, 1.38268262e-001, 2.88187027e-001,
          2.88187027e-001, 2.88187027e-001, 1.56594813e-002,
          6.16429170e-005, 5.30666293e-005, 0., 2.01103091e-003,
          1.04533069e-001, 3.91733259e-001, 2.63202876e-001,
          7.94766843e-002, 3.30508710e-003, 0., 1.64085091e-003,
          4.23923193e-004, 2.28597708e-002, 2.42820263e-001,
          3.91733259e-001, 3.91733259e-001, 5.53246811e-002,
          2.34787967e-002, 3.54651734e-003, 4.40524053e-003,
          1.01880881e-003, 1.81913096e-002, 4.42406535e-002,
          1.85539395e-001, 1.54539928e-001, 6.75399378e-002,
          6.68362528e-003, 2.11116322e-003, 2.45951838e-003,
          6.16249442e-003, 2.50607394e-002, 6.76556006e-002,
          3.91733259e-001, 3.91733259e-001, 9.18931067e-002,
          2.66577816e-004, 3.61509374e-005, 8.99773266e-004,
          4.75342094e-004, 9.15681105e-003, 1.02426566e-001,
          3.32672089e-001, 3.32672089e-001, 1.15353791e-002,
          1.65053178e-003, 1.22158625e-003, 6.99568482e-004,
          5.47086180e-004, 1.49490489e-002, 1.66767761e-001,
          3.32672089e-001, 3.21905226e-001, 1.80185086e-003,
          4.16117196e-004, 6.36661498e-005, 9.49866662e-004,
          3.57127190e-003, 9.61682852e-003, 6.51283786e-002,
          3.32672089e-001, 2.79612333e-001, 1.83128472e-002,
          3.78306955e-004, 1.49581392e-004, 4.60696814e-004,
          1.60067354e-003, 1.87348071e-002, 3.32672089e-001,
          3.32672089e-001, 3.27192634e-001, 1.00332440e-003,
          9.00090486e-003, 5.36378613e-003, 6.01926120e-003,
          1.03371788e-003, 3.79929803e-002, 2.19595686e-001,
          4.77798551e-001, 1.79813504e-001, 7.72423157e-003,
          1.27059249e-002, 4.69658663e-003, 1.34547884e-002,
          3.75277479e-003, 2.01111324e-002, 1.90150011e-002,
          4.05306071e-002, 7.68620381e-003, 1.28625594e-002,
          4.53202240e-003, 2.91892746e-003, 4.35783109e-003,
          2.82411417e-003, 9.59465727e-002, 4.77798551e-001,
          4.77798551e-001, 2.44203448e-001, 5.66818425e-003,
          1.75494719e-002, 8.47405940e-003, 1.38569893e-002,
          5.33538172e-003, 7.00976253e-002, 3.15831512e-001,
          2.22800076e-001, 2.63377167e-002, 2.46946663e-002,
          1.27794743e-001, 5.23945950e-002, 1.58580944e-001,
          5.29691353e-002, 2.62780935e-001, 3.92914414e-002,
          1.21482730e-001, 7.82726780e-002, 1.34417251e-001,
          1.05957732e-001, 7.46527985e-002, 1.72770455e-001,
          1.02229647e-001, 2.62780935e-001, 2.04265863e-001,
          1.69007629e-001, 1.57281294e-001, 1.21922351e-001,
          2.16661200e-001, 6.91549182e-002, 1.51678249e-001,
          4.91467752e-002, 2.62780935e-001, 6.69247061e-002,
          2.13321790e-001, 1.88449368e-001, 2.62780935e-001,
          2.62780935e-001, 2.94285156e-002, 9.11618546e-002,
          4.61583436e-002, 2.62780935e-001, 1.44062966e-001,
          2.03108951e-001, 1.53363287e-001, 2.62780935e-001,
          6.56727850e-002, 8.18614885e-002, 1.35987774e-001,
          8.15919563e-002, 2.30355576e-001, 1.64509818e-001,
          1.71204224e-001, 1.58740431e-001, 1.14711940e-001,
          2.39836246e-001, 2.25815967e-001, 1.78616226e-001,
          1.44612387e-001, 1.58423096e-001, 1.36232227e-001,
          2.39836246e-001, 2.39836246e-001, 2.39836246e-001,
          1.65859938e-001, 3.49620096e-002, 4.45459485e-002,
          1.74033288e-002, 2.29466230e-001, 1.15396880e-001,
          1.55587524e-001, 1.12595916e-001, 1.98565796e-001,
          2.39836246e-001, 1.21179931e-001, 8.18576515e-002,
          2.56213285e-002, 1.91503480e-001, 8.45437869e-002,
          2.39836246e-001, 1.56077549e-001, 2.39836246e-001,
          1.24346554e-001, 8.79965127e-002, 2.53179610e-001,
          2.53179610e-001, 2.53179610e-001, 1.81050733e-001,
          9.45562571e-002, 5.34746796e-002, 4.87276353e-002,
          1.89082637e-001, 1.31206393e-001, 2.11858511e-001,
          2.32238963e-001, 2.53179610e-001, 1.26657918e-001,
          7.80779645e-002, 1.07973352e-001, 1.16446912e-001,
          1.27256557e-001, 1.13799453e-001, 2.53179610e-001,
          2.53179610e-001, 2.53179610e-001, 1.40637562e-001,
          3.95924002e-002, 4.34382148e-002, 5.83534539e-002,
          1.54924318e-001, 1.15172617e-001, 2.49662846e-001,
          2.11140037e-001, 2.53179610e-001, 5.79024255e-002,
          4.22895364e-002, 6.04596026e-002, 8.13051015e-002,
          1.23425663e-001, 2.02922970e-001, 2.12305546e-001,
          1.99329972e-001, 2.41851658e-001, 7.87936747e-002,
          7.95984715e-002, 1.13569625e-001, 1.19492039e-001,
          1.55018181e-001, 1.79601416e-001, 1.68899164e-001,
          1.00351006e-001, 2.05570012e-001, 8.12416673e-002,
          2.13683560e-001, 1.78520352e-001, 1.62326142e-001,
          9.05966610e-002, 1.63279250e-001, 2.35496745e-001,
          2.28394911e-001, 2.42358997e-001, 3.86981964e-002,
          8.77215937e-002, 6.37637973e-002, 5.92903718e-002,
          1.55357838e-001, 2.42358997e-001, 2.42358997e-001,
          2.42358997e-001, 2.37306222e-001, 1.02794021e-001,
          1.11259930e-001, 9.18436423e-002, 6.69055805e-002,
          1.41018525e-001, 7.45917708e-002, 7.31522217e-002,
          1.57113578e-002, 8.65639597e-002, 5.28703183e-002,
          1.87576190e-001, 1.88071832e-001, 1.30526185e-001,
          1.33117080e-001, 4.59914505e-002, 7.58960173e-002,
          8.15225467e-002, 1.61417887e-001, 1.65474817e-001,
          2.72743911e-001, 2.72743911e-001, 2.51361787e-001,
          2.56405890e-001, 2.33637482e-001, 2.66012937e-001,
          1.48889452e-001, 9.38131064e-002, 3.29038538e-002,
          2.52287239e-002, 5.92888072e-002, 2.04584911e-001,
          2.72743911e-001, 1.99684352e-001, 1.45577371e-001,
          1.23115316e-001, 1.07439309e-001, 7.09294006e-002,
          1.09506689e-001, 2.19053328e-001, 2.72743911e-001,
          9.98845324e-003, 4.74056788e-003, 1.41830519e-002,
          3.37280184e-002, 5.92519194e-002, 1.09930202e-001,
          3.18322450e-001, 2.19919786e-001, 3.59856896e-002,
          3.86057422e-003, 2.62417458e-003, 5.08565549e-003,
          1.81271601e-002, 9.07605067e-002, 4.12845284e-001,
          4.12845284e-001, 2.53195107e-001, 8.58501252e-003,
          7.99916536e-002, 5.52547909e-002, 3.11279576e-002,
          4.66007739e-002, 4.56011035e-002, 4.43399362e-002,
          7.32528418e-002, 9.86907929e-002, 5.18579036e-002,
          2.52041314e-002, 3.55942026e-002, 2.50032134e-002,
          3.45895626e-002, 8.94876644e-002, 4.12845284e-001,
          4.12845284e-001, 1.59771487e-001, 3.97321694e-002,
          1.84967101e-003, 1.26795552e-003, 3.81618302e-004,
          1.99088850e-003, 4.92121354e-002, 3.20328891e-001,
          3.20328891e-001, 1.05569914e-001, 1.22925472e-002,
          1.72599684e-002, 8.81602801e-003, 1.64239050e-003,
          1.13933068e-003, 3.26994993e-002, 2.09657863e-001,
          2.42758438e-001, 1.63240358e-001, 7.05597773e-002,
          6.61615888e-003, 2.81034037e-003, 1.35192624e-003,
          2.85092136e-003, 2.55456083e-002, 3.20328891e-001,
          3.20328891e-001, 3.20328891e-001, 5.77590987e-002,
          4.96033877e-002, 1.49185285e-002, 1.34403899e-003,
          7.40554649e-004, 9.17512178e-003, 1.39299855e-001,
          3.20328891e-001, 3.20328891e-001, 3.20328891e-001,
          4.75604795e-002, 3.00143361e-002, 6.08832994e-003,
          6.73804199e-004, 9.56906751e-003, 9.15196352e-003,
          4.17744815e-002, 1.23054929e-001, 1.49278194e-001,
          4.35679145e-002, 1.84582919e-002, 5.84378233e-003,
          2.17373506e-003, 1.86818745e-002, 8.05342104e-003,
          2.39941142e-002, 3.68001387e-002, 8.64110366e-002,
          1.17220677e-001, 4.91705686e-002, 5.33838104e-003,
          4.55201138e-004, 5.36572747e-003, 1.04527278e-002,
          1.79785565e-001, 4.38221276e-001, 4.38221276e-001,
          1.33422479e-001, 2.58689433e-001, 6.36241883e-002,
          6.97490619e-003, 1.59460437e-002, 1.53977340e-002,
          1.86755344e-001, 4.38221276e-001, 4.38221276e-001,
          5.59377857e-002, 1.74555313e-002, 7.53799314e-003,
          2.07902445e-003, 1.70471538e-002, 9.10803396e-003,
          2.51435339e-002, 3.63014862e-002, 4.95956652e-002,
          1.10503547e-001, 2.06873622e-002, 1.02020111e-002,
          5.89617295e-003, 1.12424660e-002, 6.25521084e-003,
          1.74076986e-002, 2.40836963e-002, 1.11968338e-001,
          3.82053405e-001, 3.82053405e-001, 1.31890297e-001,
          7.86243286e-003, 1.21629527e-002, 1.47381211e-002,
          6.63858801e-002, 2.67240912e-001, 2.43827999e-001,
          3.82053405e-001, 3.82053405e-001, 1.35561779e-001,
          1.56305097e-002, 1.04077309e-002, 6.37668325e-003,
          1.49882333e-002, 2.44179666e-001, 3.82053405e-001,
          1.10942759e-001, 1.42681748e-001, 2.59340465e-001,
          1.99222341e-001, 2.59340465e-001, 1.00915112e-001,
          4.71031368e-002, 3.90967801e-002, 9.15759057e-002,
          1.26388386e-001, 1.00838386e-001, 2.31153890e-001,
          1.62861317e-001, 2.59340465e-001, 7.42847845e-002,
          5.28065413e-002, 5.57724386e-002, 1.10213317e-001,
          1.42052308e-001, 1.71444237e-001, 2.59340465e-001,
          2.59340465e-001, 2.13741481e-001, 8.39838311e-002,
          6.22889921e-002, 5.45116588e-002, 1.36083782e-001,
          1.74110532e-001, 1.92867994e-001, 2.59340465e-001,
          2.41791144e-001, 2.59340465e-001, 1.10429399e-001,
          5.38272038e-002, 9.68644395e-002, 1.55367702e-001,
          6.31029159e-002, 6.70506731e-002, 1.31356418e-001,
          1.23861171e-001, 2.74782389e-001, 9.28005725e-002,
          7.36022741e-002, 4.77386937e-002, 5.66849373e-002,
          6.06594570e-002, 1.70467362e-001, 2.74782389e-001,
          2.74782389e-001, 2.74782389e-001, 2.74782389e-001,
          1.01153553e-001, 5.57509288e-002, 3.11710685e-002,
          8.21209326e-002, 8.21902975e-002, 9.99529064e-002,
          7.42682889e-002, 2.74782389e-001, 1.62493423e-001,
          1.23803534e-001, 1.01940244e-001, 7.87452459e-002,
          6.53225556e-002, 5.46539724e-002, 8.04011747e-002,
          1.52673826e-001, 2.74782389e-001, 2.74782389e-001,
          2.74782389e-001, 2.74782389e-001, 1.00982152e-001,
          1.05678052e-001, 1.12994872e-001, 1.73300952e-001,
          1.99126139e-001, 1.98151425e-001, 1.97822914e-001,
          3.27583998e-002, 3.32692079e-002, 1.15986392e-001,
          2.42481336e-001, 2.40627840e-001, 1.31204024e-001,
          1.45064428e-001, 8.12236145e-002, 8.01743492e-002,
          4.71831597e-002, 1.00047335e-001, 2.42481336e-001,
          9.19098556e-002, 5.45758344e-002, 4.49854359e-002,
          7.27420002e-002, 1.85699031e-001, 2.42481336e-001,
          2.42481336e-001, 2.42002442e-001, 1.45235002e-001,
          2.42481336e-001, 2.42481336e-001, 2.42481336e-001,
          1.22727543e-001, 8.21522102e-002, 1.34234175e-001,
          1.34029120e-001, 1.65681452e-001, 2.42481336e-001,
          2.49414682e-001, 2.46655643e-001, 9.77023691e-002,
          9.72655490e-002, 5.95417283e-002, 4.73478138e-002,
          6.00012094e-002, 1.14837259e-001, 1.32826999e-001,
          2.10593566e-001, 1.69832289e-001, 5.84120825e-002,
          6.30335212e-002, 1.35778427e-001, 2.49414682e-001,
          2.49414682e-001, 2.49414682e-001, 1.75896361e-001,
          2.49414682e-001, 2.49414682e-001, 2.10252106e-001,
          9.69217867e-002, 6.20796904e-002, 3.18888836e-002,
          3.20613384e-002, 8.17264840e-002, 1.75207302e-001,
          2.49414682e-001, 1.88408181e-001, 4.68340404e-002,
          3.80554721e-002, 1.79652870e-001, 8.00057054e-002,
          1.21964157e-001, 2.45486900e-001, 2.49414682e-001,
          3.72730121e-002, 1.33916251e-002, 2.45707436e-003,
          9.50476434e-003, 3.15538682e-002, 1.71550632e-001,
          3.53318393e-001, 3.53318393e-001, 1.09830372e-001,
          1.41309842e-001, 4.36991267e-002, 4.62095160e-003,
          4.34556883e-003, 5.66688972e-003, 7.07564577e-002,
          3.53318393e-001, 3.53318393e-001, 3.53318393e-001,
          5.29177897e-002, 2.95506287e-002, 5.17782383e-003,
          4.42050071e-003, 3.94257940e-002, 4.32154834e-002,
          1.52509719e-001, 1.73561171e-001, 8.23203176e-002,
          1.01914324e-001, 4.15852070e-002, 1.12990942e-002,
          7.74285011e-003, 9.81330406e-003, 4.38456833e-002,
          2.91278958e-001, 3.05555224e-001, 2.03371286e-001,
          8.26139152e-002, 2.65336391e-002, 2.79382360e-003,
          9.54547722e-004, 2.93475157e-003, 4.60698316e-003,
          1.26785338e-001, 3.48991901e-001, 3.48991901e-001,
          1.20375656e-001, 2.29770720e-001, 6.62649497e-002,
          2.62178713e-003, 4.86394018e-003, 1.16421869e-002,
          1.67231202e-001, 3.48991901e-001, 3.48991901e-001,
          8.26015621e-002, 2.11741868e-002, 6.42549247e-003,
          7.40530668e-003, 1.81445535e-002, 1.61867142e-002,
          8.13177377e-002, 2.38962457e-001, 1.79949671e-001,
          1.19101427e-001, 7.58261904e-002, 3.19932513e-002,
          4.23750421e-003, 1.84239056e-002, 3.70515324e-002,
          1.24683626e-001, 3.48991901e-001, 3.48991901e-001,
          2.68381774e-001, 2.68381774e-001, 1.32429540e-001,
          1.21786268e-002, 1.70600601e-003, 7.28583289e-003,
          4.19626981e-002, 2.68381774e-001, 2.68381774e-001,
          2.68381774e-001, 2.68381774e-001, 1.42591268e-001,
          3.36520858e-002, 6.75391918e-003, 8.69882060e-004,
          3.98579892e-003, 1.55149505e-001, 2.68381774e-001,
          1.88132301e-001, 1.79123580e-001, 1.01561502e-001,
          1.73338223e-002, 2.22991942e-003, 2.00978313e-002,
          6.37679994e-002, 2.43600130e-001, 2.68381774e-001,
          2.68381774e-001, 1.99494362e-001, 1.42083615e-001,
          6.76071569e-002, 1.23899346e-002, 1.00440509e-003,
          1.01575870e-002, 7.21431002e-002, 2.68381774e-001,
          1.32634953e-001, 1.18539423e-001, 2.35402539e-001,
          2.35402539e-001, 1.38141170e-001, 4.89087328e-002,
          4.98120822e-002, 4.85449806e-002, 1.23030685e-001,
          2.35402539e-001, 1.57303363e-001, 2.09196910e-001,
          1.84688836e-001, 1.85841709e-001, 9.69020203e-002,
          9.67160910e-002, 1.07043624e-001, 2.35402539e-001,
          1.25496536e-001, 1.69888943e-001, 2.35402539e-001,
          1.86083868e-001, 1.82017922e-001, 8.62709656e-002,
          6.38801679e-002, 7.19501972e-002, 1.15883730e-001,
          2.35402539e-001, 2.21723348e-001, 2.07304537e-001,
          1.66597307e-001, 1.56686932e-001, 1.32292435e-001,
          1.45976514e-001, 2.08676487e-001, 2.35402539e-001,
          1.66561857e-001, 1.05355866e-001, 1.11206360e-001,
          7.54842684e-002, 1.99861243e-001, 1.65989563e-001,
          1.46906555e-001, 1.15581147e-001, 1.87686890e-001,
          1.31027326e-001, 9.34593752e-002, 1.07117563e-001,
          4.45950441e-002, 1.82300404e-001, 2.39497408e-001,
          2.39497408e-001, 2.39497408e-001, 1.84126899e-001,
          2.39497408e-001, 2.10671201e-001, 1.65259868e-001,
          9.22024399e-002, 1.46191880e-001, 1.36731461e-001,
          1.33174405e-001, 1.59029230e-001, 2.39497408e-001,
          1.83058068e-001, 1.92180142e-001, 2.21099421e-001,
          6.39946610e-002, 2.27589116e-001, 9.77012888e-002,
          9.63000879e-002, 1.58929572e-001, 1.64778709e-001,
          1.47144303e-001, 7.88775161e-002, 8.04955065e-002,
          1.94274448e-002, 7.01882765e-002, 1.29124582e-001,
          2.55822510e-001, 2.55822510e-001, 2.55822510e-001,
          2.55822510e-001, 2.55822510e-001, 2.55822510e-001,
          7.41948783e-002, 4.56978194e-002, 5.33458441e-002,
          1.47373676e-001, 2.47368276e-001, 2.55822510e-001,
          7.70413205e-002, 1.25770777e-001, 1.74545959e-001,
          6.10170327e-002, 1.45436674e-001, 3.19907106e-002,
          7.25848600e-002, 1.10328659e-001, 1.48564547e-001,
          2.33609796e-001, 2.55822510e-001, 2.55822510e-001,
          9.65471715e-002, 1.10766783e-001, 1.89809091e-002,
          7.19611123e-002, 9.95211601e-002, 2.22532243e-001,
          2.44761214e-001, 2.44761214e-001, 2.44761214e-001,
          9.50966701e-002, 7.09217042e-002, 3.99686247e-002,
          4.63237353e-002, 1.08166963e-001, 2.44761214e-001,
          2.44761214e-001, 1.53362229e-001, 1.13221861e-001,
          5.07838130e-002, 1.67378455e-001, 1.05226219e-001,
          1.32459268e-001, 2.44761214e-001, 2.44761214e-001,
          2.03891546e-001, 2.44761214e-001, 2.02778503e-001,
          7.79267177e-002, 5.52034378e-002, 4.30346578e-002,
          7.60879144e-002, 9.87302288e-002, 1.87423378e-001,
          1.50744811e-001, 1.17283672e-001, 1.19489007e-001,
          4.83241938e-002, 5.98430149e-002, 1.32111609e-001,
          2.34415665e-001, 2.44761214e-001, 2.44761214e-001,
          1.71949401e-001, 9.24252123e-002, 3.65336202e-002,
          6.39325287e-003, 7.92116970e-002, 1.04152717e-001,
          1.84088558e-001, 2.82796860e-001, 2.82796860e-001,
          2.01195985e-001, 7.26263970e-002, 2.73145158e-002,
          1.39209265e-002, 2.28363667e-002, 1.27109706e-001,
          2.82796860e-001, 2.82796860e-001, 2.82796860e-001,
          1.43974751e-001, 7.86604211e-002, 3.47107984e-002,
          1.32106394e-002, 3.38263698e-002, 7.12052509e-002,
          1.36548594e-001, 2.33008042e-001, 2.76659459e-001,
          2.45067790e-001, 1.50878891e-001, 4.42218371e-002,
          1.44168148e-002, 1.73032768e-002, 4.06180769e-002,
          1.12087183e-001, 2.82796860e-001, 2.82796860e-001,
          2.83418596e-001, 3.19012925e-002, 1.79598350e-002,
          1.79190710e-002, 3.76548208e-002, 4.48102541e-002,
          1.31957397e-001, 2.94804394e-001, 3.01518947e-001,
          3.01518947e-001, 4.60793376e-002, 2.77684256e-002,
          1.21823680e-002, 3.68959792e-002, 6.01387694e-002,
          1.46017566e-001, 3.01518947e-001, 3.01518947e-001,
          2.20851690e-001, 9.04934555e-002, 5.32578640e-002,
          1.42198764e-002, 1.90677296e-003, 5.68772806e-003,
          5.20711988e-002, 1.77965567e-001, 3.01518947e-001,
          3.01518947e-001, 8.83844420e-002, 6.01760782e-002,
          1.86338220e-002, 1.53013202e-003, 5.41671598e-003,
          4.09149490e-002, 1.83318615e-001, 3.01518947e-001,
          2.85956025e-001, 1.98807180e-001, 1.03297316e-001,
          1.45773739e-002, 4.73156245e-003, 2.54591592e-002,
          1.09140463e-001, 2.85956025e-001, 2.85956025e-001,
          2.85956025e-001, 2.85956025e-001, 1.68678343e-001,
          6.74076378e-002, 2.87377052e-002, 1.85885245e-003,
          5.27226031e-002, 1.20103456e-001, 2.85956025e-001,
          2.32732922e-001, 6.93392679e-002, 1.68781262e-002,
          9.80871730e-003, 2.48962734e-003, 1.02493297e-002,
          5.86931370e-002, 1.93854064e-001, 2.85956025e-001,
          2.85956025e-001, 1.34395719e-001, 2.37653870e-002,
          7.10529555e-003, 2.16072425e-002, 2.07111984e-002,
          8.16891342e-002, 1.43003330e-001, 2.85956025e-001,
          1.37543052e-001, 2.29513511e-001, 2.29513511e-001,
          1.34391621e-001, 1.87815219e-001, 1.04748547e-001,
          6.59776628e-002, 5.08126616e-002, 1.07106619e-001,
          2.09978297e-001, 2.29513511e-001, 1.06216826e-001,
          1.09268107e-001, 1.34374976e-001, 1.01737559e-001,
          1.32169113e-001, 1.55548140e-001, 2.27196455e-001,
          1.80953652e-001, 1.92661658e-001, 1.72404304e-001,
          2.14667082e-001, 2.29513511e-001, 1.45221725e-001,
          1.29737005e-001, 1.42844975e-001, 2.29513511e-001,
          2.19808981e-001, 1.79028824e-001, 9.69501436e-002,
          1.08117342e-001, 2.16145352e-001, 8.06268603e-002,
          1.13091752e-001, 1.39835864e-001, 2.29513511e-001,
          2.45379016e-001, 2.11477384e-001, 1.05684429e-001,
          4.64006625e-002, 1.19578123e-001, 9.76353958e-002,
          1.65019616e-001, 1.70439541e-001, 2.31257901e-001,
          2.23065346e-001, 2.42831185e-001, 2.43325546e-001,
          9.81626287e-002, 2.26268664e-001, 3.79954465e-002,
          8.07384402e-002, 1.00047886e-001, 1.52898714e-001,
          1.57435805e-001, 1.18096560e-001, 7.19879344e-002,
          6.77779242e-002, 2.18848884e-001, 9.03287381e-002,
          1.83196917e-001, 1.39808863e-001, 1.56080350e-001,
          1.60197333e-001, 2.45379016e-001, 2.45379016e-001,
          2.21191287e-001, 2.45379016e-001, 5.71998246e-002,
          1.15928203e-001, 1.12798423e-001, 9.43156034e-002,
          7.93835372e-002, 2.08320946e-001, 2.45607480e-001,
          2.07492009e-001, 2.33985245e-001, 1.36393933e-002,
          4.43990007e-002, 4.17618416e-002, 7.01469183e-002,
          1.23210788e-001, 2.45607480e-001, 2.45607480e-001,
          2.45607480e-001, 2.44769260e-001, 3.09504718e-002,
          8.14893693e-002, 2.82653812e-002, 5.56177460e-002,
          1.07812949e-001, 2.45607480e-001, 2.45607480e-001,
          2.45607480e-001, 2.45607480e-001, 8.12369213e-003,
          3.83409783e-002, 5.66213131e-002, 5.90388030e-002,
          5.97049035e-002, 2.45607480e-001, 2.45607480e-001,
          2.45607480e-001, 2.45607480e-001, 3.38651836e-002,
          5.97927682e-002, 3.19142789e-002, 4.00694869e-002,
          1.64125130e-001, 2.60862172e-001, 2.60862172e-001,
          2.60862172e-001, 2.29064956e-001, 7.95836300e-002,
          1.34245470e-001, 7.97390789e-002, 9.22013372e-002,
          1.99185580e-001, 1.94852173e-001, 1.87311530e-001,
          1.28653795e-001, 1.13618977e-001, 1.69811279e-001,
          2.60862172e-001, 2.60862172e-001, 2.60862172e-001,
          4.37971167e-002, 1.75005615e-001, 2.60862172e-001,
          2.60862172e-001, 2.60862172e-001, 6.56062886e-002,
          4.04584147e-002, 1.31567027e-002, 3.00447233e-002,
          7.89300650e-002, 6.55086488e-002, 1.05828531e-001,
          9.39806700e-002, 1.17142268e-001, 4.83193249e-002,
          5.36613055e-002, 2.29961537e-002, 7.56531209e-002,
          3.16902965e-001, 1.84482113e-001, 4.60592993e-002,
          2.42869835e-002, 3.21861245e-002, 7.80676752e-002,
          2.48717442e-001, 3.16902965e-001, 3.16902965e-001,
          3.16902965e-001, 3.16902965e-001, 1.16562404e-001,
          4.70820144e-002, 3.50475386e-002, 2.11413540e-002,
          1.36621550e-001, 3.13792706e-001, 3.16902965e-001,
          1.24929518e-001, 4.68625389e-002, 1.23975873e-002,
          1.43396121e-003, 1.17609147e-002, 1.94099415e-002,
          3.63236479e-002, 4.07139584e-002, 1.79493487e-001,
          1.69244587e-001, 6.02567904e-002, 3.87544557e-002,
          1.65710319e-002, 1.05912089e-002, 1.42195085e-002,
          3.72065753e-002, 4.61386219e-002, 2.49749705e-001,
          3.13351244e-001, 3.13351244e-001, 2.32173324e-001,
          7.91679695e-002, 2.42328793e-002, 6.33721706e-003,
          1.79267213e-001, 2.44908527e-001, 3.13351244e-001,
          3.13351244e-001, 2.87003934e-001, 2.29926035e-001,
          8.44217390e-002, 2.41839029e-002, 3.15221474e-002,
          2.11760208e-001, 3.13351244e-001, 3.13351244e-001,
          1.14531375e-001, 6.40881509e-002, 5.22620976e-002,
          2.34113280e-002, 1.29177067e-002, 4.92894696e-003,
          3.09932083e-002, 2.28278898e-002, 1.36406362e-001,
          8.58648345e-002, 2.92151049e-002, 2.90288087e-002,
          1.95283815e-002, 1.92843992e-002, 1.07107209e-002,
          4.30946685e-002, 3.40998434e-002, 1.10873416e-001,
          2.75855690e-001, 8.63285586e-002, 2.74316762e-002,
          2.13514231e-002, 3.52774933e-002, 4.43832017e-002,
          1.74153849e-001, 2.75855690e-001, 2.75855690e-001,
          2.75855690e-001, 1.52059227e-001, 1.34581514e-002,
          2.81947237e-002, 1.85497984e-001, 1.77294418e-001,
          2.75855690e-001, 2.66064197e-001, 2.75855690e-001,
          8.93521309e-002, 1.42259877e-002, 2.31020432e-002,
          9.72910039e-003, 8.74160677e-002, 1.81611311e-002,
          5.49479611e-002, 4.49952744e-002, 1.09656431e-001,
          2.45064333e-001, 6.20821752e-002, 6.87755123e-002,
          4.77328189e-002, 2.75855690e-001, 1.80422947e-001,
          1.98092639e-001, 1.36456147e-001, 2.57771194e-001 ]
      - [ 1.09481633e-001, 9.11752656e-002, 2.05854937e-001,
          3.42808664e-002, 2.67136663e-001, 2.82821003e-002,
          9.28779095e-002, 1.53028771e-001, 1.22746497e-001,
          2.27886483e-001, 1.73186943e-001, 1.71141967e-001,
          3.61867249e-002, 2.67136663e-001, 3.97104770e-002,
          1.21620834e-001, 1.19551644e-001, 2.10184306e-001,
          1.86412036e-001, 9.62516963e-002, 2.00678274e-001,
          5.06076925e-002, 2.67136663e-001, 7.13568106e-002,
          1.49374858e-001, 1.58330068e-001, 1.94309130e-001,
          2.67136663e-001, 1.55146763e-001, 1.98116288e-001,
          5.23628928e-002, 2.67136663e-001, 7.43519664e-002,
          1.12426542e-001, 9.34209377e-002, 2.67136663e-001,
          1.93860158e-001, 2.07191154e-001, 1.17232159e-001,
          8.08154866e-002, 2.44085789e-001, 9.82801542e-002,
          1.31736219e-001, 9.48909745e-002, 1.55749381e-001,
          1.43325582e-001, 2.16897860e-001, 1.82190508e-001,
          9.33617726e-002, 2.44085789e-001, 8.64246562e-002,
          1.43342242e-001, 1.27427757e-001, 1.38110548e-001,
          2.09877744e-001, 2.37515479e-001, 1.70993894e-001,
          5.94030209e-002, 2.44085789e-001, 4.62037511e-002,
          5.05245402e-002, 9.20604467e-002, 1.80951416e-001,
          1.86017886e-001, 2.44085789e-001, 2.43764207e-001,
          1.09352365e-001, 2.44085789e-001, 3.54649276e-002,
          1.35081410e-001, 1.68905810e-001, 1.80650562e-001,
          1.61308080e-001, 1.22271419e-001, 2.06218526e-001,
          7.64912367e-002, 2.65831620e-001, 6.35377690e-002,
          1.18011974e-001, 5.29766493e-002, 1.59831256e-001,
          2.02321500e-001, 1.05770253e-001, 2.62206435e-001,
          7.60244429e-002, 2.65831620e-001, 1.50068790e-001,
          2.20187902e-001, 7.38897771e-002, 1.96723044e-001,
          1.38487622e-001, 1.92232668e-001, 2.65831620e-001,
          1.03459969e-001, 2.65831620e-001, 2.96432991e-002,
          1.64107010e-001, 8.08411315e-002, 1.27605379e-001,
          1.18826531e-001, 1.42672017e-001, 2.65831620e-001,
          5.37659489e-002, 2.65831620e-001, 6.01300299e-002,
          1.52592421e-001, 4.11699414e-002, 1.11530863e-001,
          1.88037530e-001, 1.40588939e-001, 2.15403482e-001,
          1.08103286e-002, 2.09912509e-001, 1.38572663e-001,
          1.65812075e-001, 5.96525036e-002, 1.37341022e-001,
          2.39444330e-001, 2.23874673e-001, 1.59862772e-001,
          1.42629566e-002, 1.78128153e-001, 1.73212603e-001,
          1.76203072e-001, 9.80169326e-002, 1.87248528e-001,
          1.32099390e-001, 1.88766241e-001, 2.39444330e-001,
          7.15540629e-003, 2.32698649e-001, 6.57501966e-002,
          1.53849512e-001, 5.42507656e-002, 1.06335722e-001,
          2.39444330e-001, 2.39444330e-001, 1.71801731e-001,
          5.74201252e-003, 1.34257346e-001, 1.26198769e-001,
          2.38987222e-001, 1.40224636e-001, 2.24324033e-001,
          2.02794865e-001, 2.22115010e-001, 1.85473159e-001,
          8.57525691e-002, 1.37715101e-001, 8.60785097e-002,
          1.77219138e-001, 9.14623886e-002, 1.31016076e-001,
          1.87082320e-001, 1.87586904e-001, 2.36259729e-001,
          1.24268241e-001, 2.36259729e-001, 4.85849045e-002,
          2.06598654e-001, 1.11186802e-001, 1.15796648e-001,
          2.26532176e-001, 2.34904036e-001, 1.66473076e-001,
          3.28579731e-002, 1.02991670e-001, 7.79490322e-002,
          2.15332910e-001, 1.19651228e-001, 1.86227113e-001,
          2.21801475e-001, 1.87278181e-001, 1.79297164e-001,
          6.02972806e-002, 2.36259729e-001, 5.61978407e-002,
          2.00364113e-001, 9.27663073e-002, 1.97255880e-001,
          1.36690810e-001, 9.25434157e-002, 1.62651390e-001,
          1.02417037e-001, 2.41251931e-001, 8.89834538e-002,
          1.47881418e-001, 1.33693621e-001, 1.08485654e-001,
          2.17327774e-001, 7.42323026e-002, 1.08190387e-001,
          5.01792543e-002, 2.41251931e-001, 1.49523005e-001,
          2.08740517e-001, 1.74787462e-001, 1.96272090e-001,
          2.11556688e-001, 1.25413209e-001, 2.03505322e-001,
          8.10768753e-002, 2.41251931e-001, 5.28971888e-002,
          1.46525845e-001, 1.07024677e-001, 2.07594559e-001,
          2.41251931e-001, 8.24068412e-002, 1.89303502e-001,
          6.47791475e-002, 2.33120531e-001, 1.36641890e-001,
          2.41251931e-001, 1.25111043e-001, 2.41251931e-001,
          2.33892784e-001, 1.09034136e-001, 6.86376095e-002,
          4.52277660e-002, 2.52326518e-001, 8.61953199e-002,
          1.54471919e-001, 8.47656429e-002, 2.34976813e-001,
          1.97244748e-001, 1.27261341e-001, 1.43109977e-001,
          1.27990037e-001, 2.52326518e-001, 1.15733303e-001,
          1.43263593e-001, 3.79763991e-002, 1.93054765e-001,
          2.23580018e-001, 7.08040968e-002, 1.14447467e-001,
          7.48532936e-002, 2.52326518e-001, 1.23300217e-001,
          2.47043207e-001, 8.01462531e-002, 2.16535479e-001,
          2.00211808e-001, 8.10573995e-002, 1.84552759e-001,
          1.53242260e-001, 2.52326518e-001, 1.54070020e-001,
          1.98716283e-001, 5.35371602e-002, 1.93988919e-001,
          1.68848678e-001, 7.91116953e-002, 1.80630088e-001,
          6.28425479e-002, 2.22286671e-001, 1.00968525e-001,
          1.68435380e-001, 6.77717626e-002, 1.67452231e-001,
          2.28616774e-001, 1.07108258e-001, 1.61897764e-001,
          3.25940996e-002, 2.39698738e-001, 1.02311708e-001,
          1.70011908e-001, 9.60528031e-002, 2.28045464e-001,
          1.79838195e-001, 7.09927529e-002, 1.34252146e-001,
          4.11277451e-002, 2.44685397e-001, 1.20763794e-001,
          2.44685397e-001, 1.31680563e-001, 1.85143694e-001,
          1.88626647e-001, 9.97502804e-002, 1.21571571e-001,
          2.36964040e-002, 2.32514471e-001, 1.63379923e-001,
          2.44685397e-001, 2.44685397e-001, 2.28300333e-001,
          1.41350478e-001, 1.65756077e-001, 1.79449961e-001,
          2.20831800e-002, 2.16111481e-001, 3.76147553e-002,
          1.10785462e-001, 9.49175879e-002, 1.33773789e-001,
          1.49194673e-001, 1.98119104e-001, 2.48233348e-001,
          8.18183720e-002, 2.48233348e-001, 9.12536960e-003,
          1.47304386e-001, 1.54792070e-001, 1.48537114e-001,
          1.34703204e-001, 7.94478431e-002, 1.15735389e-001,
          1.82533748e-002, 2.18832210e-001, 1.36039421e-001,
          2.48233348e-001, 2.48233348e-001, 2.14278385e-001,
          1.89769685e-001, 7.34949410e-002, 1.84056804e-001,
          7.22202510e-002, 2.48233348e-001, 8.66034403e-002,
          1.79433748e-001, 2.33407781e-001, 2.46558234e-001,
          1.20819271e-001, 1.62106469e-001, 2.62366146e-001,
          1.03556320e-001, 2.62366146e-001, 1.81371011e-002,
          1.20301433e-001, 9.03777927e-002, 1.12505987e-001,
          1.04738615e-001, 1.05111264e-001, 2.05283001e-001,
          8.73728022e-002, 2.62366146e-001, 2.57065687e-002,
          1.47310600e-001, 7.64291212e-002, 1.00367688e-001,
          1.89776123e-001, 1.14577286e-001, 2.54826963e-001,
          1.37635618e-001, 2.62366146e-001, 6.94674626e-002,
          1.29802153e-001, 1.05445601e-001, 1.93054885e-001,
          1.88681051e-001, 1.60203278e-001, 2.62366146e-001,
          2.62366146e-001, 2.62366146e-001, 4.15313467e-002,
          1.23239927e-001, 8.55313912e-002, 1.72187641e-001,
          1.21769145e-001, 1.42437801e-001, 1.34723961e-001,
          6.13239929e-002, 2.53912359e-001, 1.19291572e-002,
          1.86253861e-001, 7.82844573e-002, 1.03711173e-001,
          1.75160527e-001, 2.08191916e-001, 1.55448228e-001,
          5.90314306e-002, 2.40761906e-001, 1.87239703e-002,
          2.53912359e-001, 1.34326681e-001, 1.46499872e-001,
          1.86278939e-001, 1.50349841e-001, 2.26463690e-001,
          2.01513261e-001, 2.53912359e-001, 1.97128821e-002,
          1.06519490e-001, 8.33206177e-002, 1.69826671e-001,
          2.18633756e-001, 1.25958383e-001, 2.53912359e-001,
          1.43955529e-001, 2.53912359e-001, 3.75539698e-002,
          1.77058324e-001, 8.78595635e-002, 2.12786600e-001,
          1.54576600e-001, 1.64197609e-001, 1.54111519e-001,
          3.13272588e-002, 2.27856949e-001, 4.39087003e-002,
          2.11733937e-001, 1.13898329e-001, 1.36804402e-001,
          1.78817347e-001, 1.40730172e-001, 1.32797495e-001,
          6.60934299e-002, 2.67791837e-001, 7.76739046e-002,
          1.84390813e-001, 9.91514176e-002, 1.67021126e-001,
          1.59452200e-001, 1.11227706e-001, 2.05179513e-001,
          9.12903324e-002, 2.67791837e-001, 2.49770731e-002,
          1.94625065e-001, 9.99744609e-002, 1.55606329e-001,
          1.42829925e-001, 1.99525654e-001, 2.67791837e-001,
          7.95673653e-002, 2.67791837e-001, 4.35194448e-002,
          2.67791837e-001, 1.85061648e-001, 1.32818028e-001,
          1.67992458e-001, 7.79935718e-002, 1.58662573e-001,
          7.73172230e-002, 2.50955701e-001, 2.29001101e-002,
          1.41499653e-001, 8.92840251e-002, 1.72157720e-001,
          1.52027801e-001, 7.50890002e-002, 1.93179294e-001,
          6.74557313e-002, 2.50955701e-001, 5.54232858e-002,
          2.50955701e-001, 1.34596467e-001, 1.62951484e-001,
          1.48992196e-001, 1.58073023e-001, 2.40284771e-001,
          6.35856837e-002, 2.50955701e-001, 3.41850631e-002,
          2.26175994e-001, 1.20905019e-001, 1.36199653e-001,
          1.27805397e-001, 9.65306982e-002, 1.64358690e-001,
          6.37098551e-002, 2.50955701e-001, 1.96735755e-001,
          2.50955701e-001, 2.50955701e-001, 1.57414094e-001,
          1.07476786e-001, 7.49966502e-002, 1.06732234e-001,
          3.00117005e-002, 2.55141288e-001, 1.11223951e-001,
          2.55141288e-001, 1.45986572e-001, 1.13447398e-001,
          1.36818498e-001, 8.13669413e-002, 1.53376937e-001,
          4.78325039e-002, 2.55141288e-001, 1.29084662e-001,
          1.98167622e-001, 1.22554414e-001, 1.43359050e-001,
          1.20493576e-001, 1.51191622e-001, 1.44931525e-001,
          2.08610371e-002, 1.80911079e-001, 1.95491359e-001,
          2.55141288e-001, 2.55141288e-001, 1.41111016e-001,
          2.08054185e-001, 1.90239117e-001, 1.99155375e-001,
          2.77375598e-002, 2.55141288e-001, 8.49051178e-002,
          1.97230041e-001, 1.74074650e-001, 2.05409303e-001,
          1.69593394e-001, 1.29295453e-001, 8.07472393e-002,
          2.99492422e-002, 2.56405920e-001, 1.13913156e-001,
          1.58085451e-001, 1.22079454e-001, 1.39281064e-001,
          1.60074145e-001, 1.63711995e-001, 1.45341188e-001,
          6.76469579e-002, 2.35515997e-001, 1.74622208e-001,
          2.20686153e-001, 2.26528838e-001, 2.03048214e-001,
          2.40930513e-001, 1.29524097e-001, 1.36246830e-001,
          5.44562899e-002, 2.56405920e-001, 6.17734753e-002,
          9.81542021e-002, 8.54867697e-002, 1.90334693e-001,
          2.37480670e-001, 1.35415450e-001, 1.80721670e-001,
          9.31903198e-002, 2.56405920e-001, 1.24263160e-001,
          9.23944935e-002, 1.33081630e-001, 2.42076293e-001,
          1.24810867e-001, 1.03762880e-001, 1.04688406e-001,
          5.16490936e-002, 1.82288527e-001, 1.32858858e-001,
          1.91217035e-001, 2.40152821e-001, 2.18143106e-001,
          1.66673154e-001, 1.20125063e-001, 1.04982644e-001,
          5.71542829e-002, 2.57492751e-001, 7.80008882e-002,
          1.70876950e-001, 1.55729711e-001, 2.02923670e-001,
          1.47003844e-001, 1.32200882e-001, 1.62937135e-001,
          9.60655585e-002, 2.57492751e-001, 1.25067815e-001,
          1.57785028e-001, 1.32099763e-001, 1.74972922e-001,
          1.90208122e-001, 2.57492751e-001, 2.57492751e-001,
          1.11100152e-001, 2.57492751e-001, 4.80095521e-002,
          1.36956736e-001, 1.02169767e-001, 1.80377260e-001,
          1.23569287e-001, 7.82694295e-002, 1.19559824e-001,
          5.25195636e-002, 1.88472226e-001, 5.02592325e-002,
          8.45725238e-002, 4.22245152e-002, 1.05381832e-001,
          2.20889866e-001, 1.09446518e-001, 1.94495007e-001,
          1.10170029e-001, 2.01489225e-001, 1.18661553e-001,
          1.10188730e-001, 6.97327629e-002, 1.12612642e-001,
          1.78276792e-001, 1.56303167e-001, 1.91052869e-001,
          6.34167269e-002, 1.94999278e-001, 4.38353159e-002,
          9.55136120e-002, 9.36369747e-002, 1.48798808e-001,
          2.59368658e-001, 2.56965339e-001, 2.08536014e-001,
          1.46311969e-001, 2.59368658e-001, 2.59368658e-001,
          2.59368658e-001, 2.59368658e-001, 2.48535424e-001,
          8.03538784e-002, 4.40330729e-002, 7.33776689e-002,
          3.79976444e-002, 7.22020194e-002, 3.54810171e-002,
          5.59742786e-002, 4.03036401e-002, 4.14040536e-002,
          9.16760340e-002, 6.32402450e-002, 8.66506323e-002,
          5.78173213e-002, 9.04561579e-002, 1.29536726e-002,
          5.78064993e-002, 2.44510733e-002, 6.58826008e-002,
          2.78790176e-001, 1.30753949e-001, 9.45091769e-002,
          1.53089628e-001, 2.12908491e-001, 1.82904527e-001,
          2.66156852e-001, 1.88234195e-001, 2.78790176e-001,
          2.78790176e-001, 2.78790176e-001, 1.91518813e-001,
          2.78790176e-001, 2.78790176e-001, 1.97815001e-001,
          2.47178599e-001, 1.16899572e-001, 2.78790176e-001,
          7.01141730e-002, 4.99851219e-002, 7.71566182e-002,
          3.77832986e-002, 7.43360594e-002, 1.90559328e-002,
          4.56394032e-002, 2.38788873e-002, 5.72835691e-002,
          5.04785478e-002, 6.38073161e-002, 1.10412247e-001,
          2.87106801e-002, 6.88214824e-002, 2.54008789e-002,
          5.50291166e-002, 5.63631356e-002, 4.33491059e-002,
          2.62406707e-001, 2.62406707e-001, 2.20985040e-001,
          2.51333296e-001, 2.62406707e-001, 2.17322707e-001,
          1.91012502e-001, 1.00593485e-001, 2.62406707e-001,
          2.62406707e-001, 1.64359808e-001, 1.95660338e-001,
          2.29139701e-001, 2.62406707e-001, 1.35255188e-001,
          2.62406707e-001, 2.11819008e-001, 2.62406707e-001,
          1.02850333e-001, 1.32796586e-001, 2.05874681e-001,
          4.71142642e-002, 1.21664599e-001, 7.64881447e-002,
          1.08046293e-001, 1.09023616e-001, 1.02702521e-001,
          1.02373682e-001, 7.04443157e-002, 1.32146880e-001,
          4.70603742e-002, 1.53194711e-001, 1.51955813e-001,
          1.72672600e-001, 1.16131216e-001, 1.18828930e-001,
          2.55362123e-001, 2.03326687e-001, 2.54897743e-001,
          2.50786215e-001, 2.55362123e-001, 1.85693264e-001,
          2.42211446e-001, 2.40156129e-001, 2.55362123e-001,
          1.60305142e-001, 1.03186376e-001, 1.46982893e-001,
          6.65244684e-002, 2.55362123e-001, 1.46784738e-001,
          1.52398810e-001, 6.67837113e-002, 1.95681378e-001,
          1.16965085e-001, 1.02907792e-001, 1.86379001e-001,
          4.68729809e-002, 2.00863376e-001, 1.43448308e-001,
          2.33034194e-001, 1.58375174e-001, 1.28673643e-001,
          1.67478576e-001, 1.02549821e-001, 1.42773315e-001,
          7.99304172e-002, 2.28013203e-001, 1.32192850e-001,
          1.56928331e-001, 1.81605741e-001, 2.08016440e-001,
          1.32556170e-001, 1.03662789e-001, 1.49216056e-001,
          6.21417835e-002, 2.43284941e-001, 9.45659429e-002,
          2.26576611e-001, 1.34228602e-001, 1.53103337e-001,
          1.14715368e-001, 1.25728056e-001, 1.83227226e-001,
          1.39153063e-001, 2.43284941e-001, 2.26029292e-001,
          2.43284941e-001, 2.12999746e-001, 1.78068340e-001,
          1.87135696e-001, 1.29508287e-001, 1.79651424e-001,
          6.04342744e-002, 1.69268981e-001, 5.24002276e-002,
          1.51540920e-001, 9.88562927e-002, 1.73720345e-001,
          1.96877331e-001, 1.17920123e-001, 2.30115980e-001,
          9.48704258e-002, 2.44057685e-001, 6.62407279e-002,
          1.14932038e-001, 1.68251693e-001, 2.07298175e-001,
          1.73436865e-001, 1.68731168e-001, 1.98203981e-001,
          5.80555424e-002, 2.44057685e-001, 9.13089290e-002,
          1.85956091e-001, 7.47883543e-002, 1.55944735e-001,
          1.94321901e-001, 1.95425853e-001, 2.26549417e-001,
          1.21928021e-001, 2.44057685e-001, 9.98232588e-002,
          2.21464634e-001, 1.54209584e-001, 1.85385227e-001,
          1.40948594e-001, 9.20976177e-002, 1.63609445e-001,
          6.12882785e-002, 2.50902265e-001, 5.15499227e-002,
          8.92259926e-002, 8.62402990e-002, 1.44478247e-001,
          2.12332308e-001, 2.06350550e-001, 2.48058543e-001,
          7.79814124e-002, 2.50902265e-001, 3.78775336e-002,
          1.15910448e-001, 7.17690811e-002, 2.02824309e-001,
          1.98833287e-001, 1.52409002e-001, 1.94404215e-001,
          8.69217589e-002, 2.50902265e-001, 3.68546508e-002,
          1.10138558e-001, 9.77900848e-002, 1.96907699e-001,
          2.50902265e-001, 2.25319982e-001, 2.50902265e-001,
          1.10548094e-001, 2.25065172e-001, 6.66842908e-002,
          8.64838213e-002, 1.00168325e-001, 2.50902265e-001,
          1.05121151e-001, 1.11635879e-001, 1.20596237e-001,
          4.16787155e-002, 1.44215614e-001, 6.49321005e-002,
          1.03945009e-001, 9.19232816e-002, 1.05779409e-001,
          2.52340108e-001, 2.36559957e-001, 1.42291456e-001,
          1.59257725e-001, 2.52340108e-001, 2.52340108e-001,
          2.52340108e-001, 2.52340108e-001, 2.30918333e-001,
          1.22201711e-001, 1.42074227e-001, 1.47936508e-001,
          6.99072704e-002, 1.17833793e-001, 6.66444898e-002,
          6.12595342e-002, 5.94519973e-002, 1.02473371e-001,
          2.52340108e-001, 1.52418077e-001, 1.09706625e-001,
          1.10360608e-001, 2.52340108e-001, 1.99673831e-001,
          2.22595304e-001, 1.79282844e-001, 1.85989574e-001,
          1.41588628e-001, 3.39717604e-002, 3.26072052e-002,
          9.47848931e-002, 1.26716569e-001, 6.97133690e-002,
          1.35295138e-001, 9.73586291e-002, 2.20535308e-001,
          2.38267228e-001, 1.96817815e-001, 1.01512007e-001,
          2.34107196e-001, 2.38267228e-001, 1.66316614e-001,
          1.72913179e-001, 1.33137420e-001, 2.38267228e-001,
          7.56118596e-002, 2.45820936e-002, 3.20918374e-002,
          6.63083643e-002, 8.35816637e-002, 3.72821093e-002,
          1.05172984e-001, 1.01367079e-001, 1.33139282e-001,
          2.38267228e-001, 2.38267228e-001, 2.38267228e-001,
          2.38267228e-001, 2.38267228e-001, 1.70994073e-001,
          2.03161985e-001, 2.21941069e-001, 2.38267228e-001,
          1.43260211e-001, 1.24747299e-001, 6.97079822e-002,
          9.05460343e-002, 9.71979871e-002, 8.24548528e-002,
          6.81892484e-002, 5.38230389e-002, 1.30979732e-001,
          1.29204169e-001, 9.28377733e-002, 5.35504110e-002,
          9.33595821e-002, 8.77265558e-002, 4.89051454e-002,
          1.11273706e-001, 8.71665254e-002, 1.30043045e-001,
          2.17951521e-001, 2.48142913e-001, 2.48142913e-001,
          2.42354527e-001, 1.97379559e-001, 1.17106430e-001,
          1.14891402e-001, 1.10228613e-001, 1.81593284e-001,
          2.48142913e-001, 2.48142913e-001, 2.48142913e-001,
          2.48142913e-001, 1.86731815e-001, 1.31425917e-001,
          2.48142913e-001, 2.48142913e-001, 2.48142913e-001,
          7.90512860e-002, 7.23756701e-002, 2.29534339e-002,
          5.90304919e-002, 9.56918299e-002, 3.81919853e-002,
          5.81568219e-002, 6.00989088e-002, 1.30989090e-001,
          2.55699251e-002, 1.81850288e-002, 9.86141432e-003,
          1.19103957e-002, 3.51557843e-002, 2.24536844e-002,
          2.51063257e-002, 2.21471041e-002, 4.18365486e-002,
          3.28879625e-001, 1.72125697e-001, 9.87628400e-002,
          1.15784690e-001, 1.51962519e-001, 1.07801490e-001,
          3.28879625e-001, 3.28879625e-001, 3.28879625e-001,
          3.28879625e-001, 6.18937686e-002, 5.36883436e-002,
          5.34725115e-002, 7.27816224e-002, 5.75036295e-002,
          2.78930962e-001, 3.28879625e-001, 3.28879625e-001,
          4.32978608e-002, 2.78610177e-002, 1.39522282e-002,
          2.34810226e-002, 4.26492132e-002, 3.24538015e-002,
          6.12587705e-002, 5.16197458e-002, 4.76726480e-002,
          3.03205419e-002, 2.94031464e-002, 2.94978675e-002,
          1.88310724e-002, 4.61754650e-002, 3.99780124e-002,
          4.46051657e-002, 3.91445383e-002, 3.30751054e-002,
          3.53040427e-001, 1.79367512e-001, 1.02862023e-001,
          1.90554276e-001, 3.53040427e-001, 1.78443819e-001,
          3.53040427e-001, 3.53040427e-001, 3.53040427e-001,
          1.63389385e-001, 9.95401442e-002, 3.26539613e-002,
          8.65679532e-002, 2.48565167e-001, 1.93907157e-001,
          9.52624381e-002, 2.31060490e-001, 1.70444921e-001,
          1.63805395e-001, 1.52180091e-001, 1.70403376e-001,
          6.27591386e-002, 2.61550337e-001, 3.03355437e-002,
          8.89069289e-002, 4.37976196e-002, 1.38965026e-001,
          1.75377935e-001, 1.67625740e-001, 1.16581932e-001,
          6.79701194e-002, 2.61550337e-001, 1.27723768e-001,
          2.31236607e-001, 9.32720006e-002, 1.47683144e-001,
          1.86062336e-001, 2.61550337e-001, 2.09919482e-001,
          1.15649678e-001, 2.61550337e-001, 2.27890816e-002,
          1.06214888e-001, 1.16085231e-001, 1.29263356e-001,
          1.59678355e-001, 1.89961419e-001, 1.57019109e-001,
          8.76979753e-002, 2.61550337e-001, 1.36414096e-001,
          2.61550337e-001, 1.83693498e-001, 1.27381176e-001,
          1.40405223e-001, 1.26614869e-001, 1.56785041e-001,
          8.12140182e-002, 2.40676239e-001, 8.60227197e-002,
          2.22779781e-001, 1.23915724e-001, 1.48844883e-001,
          1.87632576e-001, 1.66759938e-001, 2.54278630e-001,
          1.39671788e-001, 1.75326481e-001, 5.21109030e-002,
          1.21040069e-001, 1.13418274e-001, 2.10177466e-001,
          1.16352901e-001, 7.22650364e-002, 1.48666337e-001,
          8.09187889e-002, 2.54278630e-001, 1.14293315e-001,
          2.54278630e-001, 1.66452914e-001, 1.31912768e-001,
          1.75238326e-001, 1.90159380e-001, 2.54278630e-001,
          6.97740465e-002, 2.54278630e-001, 1.00320823e-001,
          1.93675965e-001, 9.72889587e-002, 1.80992886e-001,
          4.88946289e-002, 4.92734313e-002, 7.88455680e-002,
          4.10439409e-002, 3.83366235e-002, 1.24771176e-002,
          1.24145653e-002, 1.69760548e-002, 2.72440463e-002,
          1.65835127e-001, 6.12439960e-002, 1.95800334e-001,
          9.05248970e-002, 1.05638012e-001, 4.13476527e-002,
          3.57391350e-002, 5.99781759e-002, 1.82890788e-001,
          5.26717156e-002, 7.21628517e-002, 1.09866105e-001,
          5.72484881e-002, 6.26071766e-002, 3.38370092e-002,
          3.41695920e-002, 4.63543609e-002, 3.76400054e-002,
          2.58834630e-001, 3.06656569e-001, 3.06656569e-001,
          3.06656569e-001, 3.06656569e-001, 3.06656569e-001,
          3.06656569e-001, 3.06656569e-001, 3.06656569e-001,
          3.66193280e-002, 3.02342158e-002, 6.79318830e-002,
          2.69921124e-002, 2.66270507e-002, 1.31836133e-002,
          8.48660339e-003, 1.61419064e-002, 4.03306670e-002,
          1.00296289e-001, 2.43488044e-001, 2.69016117e-001,
          1.48258761e-001, 1.32488027e-001, 4.34843451e-002,
          6.35939538e-002, 7.23853558e-002, 9.30072442e-002,
          7.55607039e-002, 1.36398166e-001, 2.69016117e-001,
          8.54423791e-002, 1.60821676e-001, 1.50306806e-001,
          1.32098168e-001, 1.28701210e-001, 1.98060393e-001,
          1.88116029e-001, 2.69016117e-001, 2.69016117e-001,
          2.69016117e-001, 2.69016117e-001, 2.49998391e-001,
          2.49271736e-001, 2.15362817e-001, 2.53441483e-001,
          1.29142016e-001, 1.95590764e-001, 2.19965294e-001,
          1.28189147e-001, 1.16732419e-001, 4.70070206e-002,
          7.65265524e-002, 7.04517737e-002, 9.66855362e-002,
          2.19965294e-001, 1.49050146e-001, 1.80516154e-001,
          1.17439911e-001, 1.57610595e-001, 6.64956048e-002,
          1.03609167e-001, 1.24874569e-001, 2.19965294e-001,
          1.44210592e-001, 2.11620644e-001, 2.19965294e-001,
          1.62483543e-001, 2.19965294e-001, 1.72052458e-001,
          2.16158420e-001, 1.13246843e-001, 1.34263426e-001,
          2.19965294e-001, 2.19965294e-001, 1.72972277e-001,
          1.72951102e-001, 2.19965294e-001, 2.15846345e-001,
          1.71919778e-001, 5.93888052e-002, 2.01258495e-001,
          2.45290384e-001, 7.86852017e-002, 4.97448370e-002,
          3.90894562e-002, 1.01007342e-001, 5.07790782e-002,
          1.14765719e-001, 2.01513365e-001, 2.45290384e-001,
          2.45290384e-001, 3.13355885e-002, 2.14492772e-002,
          3.47216018e-002, 1.25256851e-001, 4.62620407e-002,
          1.50085121e-001, 2.28450656e-001, 2.45290384e-001,
          2.45290384e-001, 2.45290384e-001, 1.33259699e-001,
          2.33903229e-001, 1.81717932e-001, 1.64810941e-001,
          1.19311593e-001, 7.53201991e-002, 2.05514655e-001,
          2.45290384e-001, 1.30082846e-001, 1.98737774e-002,
          1.03627861e-001, 2.45290384e-001, 1.40451446e-001,
          1.33989036e-001, 1.53504401e-001, 2.45290384e-001,
          2.49594584e-001, 5.97084053e-002, 2.93899234e-002,
          9.43007246e-002, 2.57273406e-001, 1.73626900e-001,
          1.66341841e-001, 2.52502233e-001, 2.50762016e-001,
          4.32623141e-002, 4.15488891e-002, 1.89815834e-002,
          5.90893105e-002, 1.78478450e-001, 1.21739805e-001,
          4.73735258e-002, 6.42001107e-002, 4.52673212e-002,
          2.57273406e-001, 1.34896621e-001, 3.63389663e-002,
          1.41284510e-001, 2.57273406e-001, 2.57273406e-001,
          2.57273406e-001, 1.73693642e-001, 2.57273406e-001,
          9.40644294e-002, 9.54191685e-002, 5.03811948e-002,
          8.91423598e-002, 2.57273406e-001, 2.38186195e-001,
          2.04033032e-001, 1.00478485e-001, 7.03135356e-002,
          1.30537659e-001, 1.85523823e-001, 1.49535820e-001,
          8.21952298e-002, 2.54719108e-001, 5.98248318e-002,
          1.61053240e-001, 1.62220135e-001, 1.13678917e-001,
          1.09459907e-001, 1.24700032e-001, 1.64411381e-001,
          8.63579437e-002, 2.54719108e-001, 7.78120831e-002,
          2.32761845e-001, 1.76965982e-001, 1.06413707e-001,
          1.40511438e-001, 2.36606628e-001, 1.76094204e-001,
          9.62334499e-002, 2.54719108e-001, 9.55229476e-002,
          1.78871706e-001, 1.87140763e-001, 1.31638765e-001,
          1.52466610e-001, 1.40842631e-001, 2.29327276e-001,
          8.02365169e-002, 2.54719108e-001, 1.00075208e-001,
          2.17003271e-001, 1.72053158e-001, 1.59423500e-001,
          1.13128483e-001, 6.04862869e-002, 1.23974904e-001,
          5.98964654e-002, 2.53896207e-001, 7.27236420e-002,
          2.09475979e-001, 1.08807757e-001, 1.16816744e-001,
          1.85776219e-001, 1.43388808e-001, 2.05641031e-001,
          2.80107949e-002, 2.53896207e-001, 1.19236603e-001,
          1.59586400e-001, 1.15535356e-001, 1.87849149e-001,
          1.62046924e-001, 8.75736102e-002, 1.50136471e-001,
          5.22885360e-002, 2.53896207e-001, 1.17284931e-001,
          2.04553574e-001, 1.28368765e-001, 1.59906179e-001,
          2.53896207e-001, 1.35107979e-001, 1.95407510e-001,
          6.32542148e-002, 2.53896207e-001, 1.75919503e-001,
          1.80801034e-001, 1.82269052e-001, 2.53896207e-001,
          1.91509593e-002, 2.86482275e-002, 2.95658410e-002,
          1.80358570e-002, 4.75449413e-002, 3.04279905e-002,
          3.06296851e-002, 3.80708985e-002, 3.22644114e-002,
          1.29433885e-001, 2.63692260e-001, 2.63692260e-001,
          2.63692260e-001, 2.10837126e-001, 2.63692260e-001,
          2.63692260e-001, 2.63692260e-001, 2.63692260e-001,
          2.37107966e-002, 3.26598771e-002, 2.46064477e-002,
          1.94806177e-002, 6.84469342e-002, 3.53121087e-002,
          3.21779512e-002, 3.66321318e-002, 4.01124172e-002,
          1.52190775e-001, 2.63692260e-001, 1.79864302e-001,
          2.62673676e-001, 1.36778951e-001, 2.19761983e-001,
          2.63692260e-001, 1.71241060e-001, 2.60739505e-001,
          6.36641830e-002, 1.63746744e-001, 1.81339324e-001,
          1.05101086e-001, 8.79450366e-002, 1.17161699e-001,
          1.69991270e-001, 1.54947326e-001, 2.26686105e-001,
          1.55223504e-001, 1.96456000e-001, 2.26686105e-001,
