%YAML:1.0
my_svm: !!opencv-ml-svm
   svm_type: C_SVC
   kernel: { type:RBF, gamma:1. }
   C: 1.
   term_criteria: { epsilon:2.2204460492503131e-016, iterations:2000 }
   var_all: 1764
   var_count: 1764
   class_count: 2
   class_labels: !!opencv-matrix
      rows: 1
      cols: 2
      dt: i
      data: [ -1, 1 ]
   sv_total: 4
   support_vectors:
      - [ 6.14737943e-002, 6.64211344e-003, 9.96121671e-004,
          1.27478112e-002, 2.12723166e-002, 4.49971259e-002,
          2.11182043e-001, 2.84853458e-001, 2.84853458e-001,
          2.28443161e-001, 8.31219479e-002, 1.10702189e-002,
          3.53916474e-002, 9.81229842e-002, 4.39069904e-002,
          1.83492392e-001, 2.84853458e-001, 2.84853458e-001,
          4.87616099e-002, 1.06647508e-002, 4.19300701e-003,
          4.97988006e-003, 1.48619311e-002, 5.37777916e-002,
          2.29896426e-001, 2.84853458e-001, 2.84853458e-001,
          1.54787838e-001, 9.41884294e-002, 4.24834080e-002,
          3.56110409e-002, 1.02817342e-001, 1.27651393e-001,
          2.64565229e-001, 2.84853458e-001, 2.84853458e-001,
          1.69054866e-001, 6.04364164e-002, 2.68376525e-002,
          3.56818363e-002, 1.17771655e-001, 6.87928870e-002,
          1.36113107e-001, 2.58790940e-001, 2.58790940e-001,
          1.02219999e-001, 1.00249439e-001, 1.07295774e-001,
          8.64060894e-002, 1.23927131e-001, 1.10436752e-001,
          2.17573836e-001, 2.58790940e-001, 2.58790940e-001,
          1.35823324e-001, 5.77679500e-002, 4.66808863e-002,
          3.34136002e-002, 1.56965449e-001, 1.42010629e-001,
          1.70016423e-001, 2.58790940e-001, 2.58790940e-001,
          1.55047834e-001, 9.23715457e-002, 1.25634521e-001,
          1.15104578e-001, 1.62100777e-001, 1.82568461e-001,
          2.36436561e-001, 2.58790940e-001, 2.58790940e-001,
          1.44896522e-001, 1.21316381e-001, 1.97955936e-001,
          1.19921952e-001, 8.93906504e-002, 3.63107920e-002,
          6.77664280e-002, 1.23589605e-001, 8.03550035e-002,
          2.49174476e-001, 2.32642800e-001, 2.49174476e-001,
          2.49174476e-001, 1.47517055e-001, 6.45054355e-002,
          2.91248616e-002, 6.97119683e-002, 9.05435011e-002,
          2.36146182e-001, 1.60602629e-001, 2.10897967e-001,
          1.63038224e-001, 1.41335845e-001, 9.69225541e-002,
          6.57912195e-002, 1.37602448e-001, 1.34826884e-001,
          2.49174476e-001, 2.49174476e-001, 2.49174476e-001,
          2.49174476e-001, 2.49174476e-001, 1.30682364e-001,
          6.76337555e-002, 1.05456091e-001, 1.60437554e-001,
          1.47257432e-001, 1.89122960e-001, 2.46010080e-001,
          1.22337766e-001, 6.36541098e-002, 4.57135811e-002,
          3.26380916e-002, 4.10965569e-002, 1.11195348e-001,
          1.72831699e-001, 1.89248502e-001, 2.13146344e-001,
          6.95948303e-002, 3.87598053e-002, 7.56029487e-002,
          1.25834212e-001, 1.06260762e-001, 2.22521096e-001,
          2.44502798e-001, 2.52015918e-001, 2.40021527e-001,
          1.51264563e-001, 9.58059207e-002, 7.57622272e-002,
          9.08787623e-002, 1.56231761e-001, 2.18141153e-001,
          2.52015918e-001, 2.08603039e-001, 1.47782728e-001,
          7.15941265e-002, 3.62095609e-002, 1.36620760e-001,
          2.52015918e-001, 2.52015918e-001, 2.52015918e-001,
          1.00248590e-001, 7.91274905e-002, 7.30018839e-002,
          4.97724302e-002, 3.15058902e-002, 5.48009612e-002,
          1.05332159e-001, 1.24296531e-001, 1.79360360e-001,
          1.83303148e-001, 6.80398494e-002, 4.79317680e-002,
          5.52231669e-002, 3.89604680e-002, 6.07651956e-002,
          1.77751034e-001, 2.74120748e-001, 2.59290636e-001,
          1.51950195e-001, 6.37511984e-002, 6.95621967e-002,
          5.44816740e-002, 6.69581592e-002, 9.22726020e-002,
          2.06926659e-001, 2.98753172e-001, 2.98753172e-001,
          1.52181685e-001, 1.30932242e-001, 2.40297243e-001,
          1.36737019e-001, 1.47139788e-001, 1.09520338e-001,
          2.98753172e-001, 2.98753172e-001, 2.98753172e-001,
          1.64401427e-001, 4.04423513e-002, 1.59997083e-002,
          2.40915883e-002, 1.99318454e-002, 3.56240943e-002,
          1.69501618e-001, 2.48241261e-001, 2.48241261e-001,
          1.47679150e-001, 4.39974666e-002, 1.28566623e-002,
          4.39905841e-003, 1.43228918e-002, 1.44054834e-002,
          8.47917646e-002, 2.48241261e-001, 2.48241261e-001,
          1.82744429e-001, 1.09928250e-001, 2.48241261e-001,
          1.95517674e-001, 1.07935980e-001, 6.86603189e-002,
          2.36950889e-001, 2.48241261e-001, 2.48241261e-001,
          1.89161211e-001, 2.29334712e-001, 2.48241261e-001,
          1.58829585e-001, 6.87178373e-002, 6.53798655e-002,
          1.05053440e-001, 2.48241261e-001, 2.48241261e-001,
          1.29437789e-001, 4.14186306e-002, 2.20184922e-002,
          4.27270960e-003, 1.39832571e-002, 2.07419917e-002,
          5.67435175e-002, 2.63171881e-001, 2.63171881e-001,
          8.10963064e-002, 3.28002274e-002, 1.92046836e-002,
          2.00855769e-002, 4.53927666e-002, 5.53009696e-002,
          1.54573157e-001, 2.63171881e-001, 1.94603175e-001,
          1.88664824e-001, 2.63171881e-001, 2.63171881e-001,
          1.16006568e-001, 8.40248838e-002, 8.62546116e-002,
          9.93913040e-002, 2.63171881e-001, 2.63171881e-001,
          1.60752192e-001, 2.63171881e-001, 2.63171881e-001,
          1.51779115e-001, 1.07711054e-001, 1.18978657e-001,
          1.85143739e-001, 2.63171881e-001, 1.55904114e-001,
          6.80679083e-002, 1.79915112e-002, 8.92306678e-003,
          2.44177500e-004, 5.52392239e-003, 2.39915866e-002,
          1.40332833e-001, 3.25768769e-001, 3.25768769e-001,
          1.01467460e-001, 4.54342701e-002, 2.87141465e-002,
          7.46221980e-003, 1.54960603e-002, 6.01168759e-002,
          1.57219961e-001, 3.25768769e-001, 3.25768769e-001,
          9.40946713e-002, 1.99025106e-002, 8.58709402e-003,
          1.98395061e-003, 3.84215289e-003, 6.30304217e-003,
          1.61747083e-001, 3.25768769e-001, 3.25768769e-001,
          1.31660640e-001, 5.38508110e-002, 5.19060083e-002,
          4.74264808e-002, 3.76962982e-002, 3.14476192e-002,
          1.32145256e-001, 3.25768769e-001, 3.25768769e-001,
          6.32693544e-002, 2.03158744e-002, 3.94205600e-002,
          1.83887538e-002, 5.37956543e-002, 5.59070930e-002,
          9.21393037e-002, 2.74766445e-001, 2.74766445e-001,
          1.66407034e-001, 1.41251385e-001, 2.40000457e-001,
          2.31728718e-001, 1.33958086e-001, 1.09899469e-001,
          1.21720277e-001, 2.47515291e-001, 1.98859885e-001,
          8.54837224e-002, 4.54851016e-002, 9.79301631e-002,
          7.38772154e-002, 7.46953487e-002, 4.13003378e-002,
          7.12880865e-002, 2.74766445e-001, 2.74766445e-001,
          1.57418728e-001, 2.74766445e-001, 2.74766445e-001,
          2.74766445e-001, 1.66926086e-001, 6.48501739e-002,
          9.31720212e-002, 1.39432102e-001, 1.46993846e-001,
          1.28788114e-001, 1.47817045e-001, 1.95293143e-001,
          1.82513162e-001, 9.01941136e-002, 4.78472598e-002,
          2.68671978e-002, 5.08970283e-002, 5.27825505e-002,
          2.31221303e-001, 2.75594175e-001, 2.75594175e-001,
          2.75594175e-001, 1.66938141e-001, 7.49261230e-002,
          3.81859578e-002, 8.16014856e-002, 9.67288986e-002,
          9.70715582e-002, 2.75594175e-001, 2.75594175e-001,
          1.95802182e-001, 6.64787218e-002, 1.53778633e-002,
          4.50851806e-002, 3.41878310e-002, 2.33431533e-002,
          2.75594175e-001, 2.75594175e-001, 2.75594175e-001,
          2.75594175e-001, 1.12631410e-001, 2.50705145e-002,
          4.53714430e-002, 7.39563480e-002, 7.64348581e-002,
          2.01499283e-001, 1.96829468e-001, 1.31281033e-001,
          1.54712409e-001, 5.87128662e-002, 4.41838615e-002,
          4.76615466e-002, 1.16480283e-001, 1.46912903e-001,
          2.48824015e-001, 1.94069728e-001, 1.22419395e-001,
          8.33218917e-002, 3.24220434e-002, 6.45187423e-002,
          1.23930432e-001, 2.49981031e-001, 2.49981031e-001,
          2.49981031e-001, 2.49981031e-001, 2.36657202e-001,
          1.58006474e-001, 4.10403572e-002, 1.59455296e-002,
          2.08044183e-002, 1.12162389e-001, 2.38776952e-001,
          2.49981031e-001, 2.49981031e-001, 1.51065484e-001,
          6.53429255e-002, 2.54323930e-002, 2.99346484e-002,
          1.02911882e-001, 2.49981031e-001, 2.49981031e-001,
          1.24753937e-001, 1.15861230e-001, 1.71163574e-001,
          9.46896076e-002, 1.31757736e-001, 1.02638863e-001,
          1.26566201e-001, 2.51909137e-001, 2.51909137e-001,
          1.22001760e-001, 1.72338068e-001, 2.51909137e-001,
          1.96138188e-001, 2.24081770e-001, 9.70559344e-002,
          1.44467279e-001, 2.51909137e-001, 2.41480261e-001,
          1.19177207e-001, 1.44593090e-001, 1.57894239e-001,
          6.59558177e-002, 1.00811914e-001, 8.02486613e-002,
          1.42704844e-001, 2.51909137e-001, 2.26935729e-001,
          1.83878094e-001, 1.47586197e-001, 2.51909137e-001,
          1.17501833e-001, 1.42693117e-001, 7.31938556e-002,
          5.21212518e-002, 1.32676780e-001, 1.24102183e-001,
          7.81204104e-002, 1.48523837e-001, 2.69948214e-001,
          2.69948214e-001, 1.28193513e-001, 4.13882025e-002,
          8.26239586e-002, 1.30093858e-001, 1.05760440e-001,
          7.51535818e-002, 2.63667166e-001, 2.69948214e-001,
          2.69948214e-001, 9.51528922e-002, 7.99335316e-002,
          7.99686313e-002, 6.20155744e-002, 1.24490388e-001,
          1.32583603e-001, 2.20811993e-001, 2.69948214e-001,
          2.51026124e-001, 8.32365900e-002, 3.75143886e-002,
          2.36560814e-002, 1.17188431e-001, 8.55705291e-002,
          8.82302374e-002, 2.69948214e-001, 2.69948214e-001,
          2.69948214e-001, 8.94416347e-002, 7.24525303e-002,
          7.80920163e-002, 9.88253728e-002, 1.43285424e-001,
          1.13396890e-001, 2.61649817e-001, 2.61649817e-001,
          2.29623571e-001, 1.04157962e-001, 1.04816943e-001,
          1.18460551e-001, 8.82379189e-002, 1.58454403e-001,
          1.09655671e-001, 2.61649817e-001, 2.61649817e-001,
          2.33370483e-001, 7.74199963e-002, 7.83173665e-002,
          6.17644787e-002, 5.22044674e-002, 5.56831136e-002,
          1.01396292e-001, 2.05186710e-001, 2.61649817e-001,
          2.61649817e-001, 1.40790194e-001, 1.16485491e-001,
          1.01067454e-001, 1.04934342e-001, 1.63152635e-001,
          8.46502259e-002, 1.59401610e-001, 2.61649817e-001,
          2.39013374e-001, 1.27256170e-001, 1.31346419e-001,
          1.27723977e-001, 1.01382658e-001, 1.10455602e-001,
          6.96632713e-002, 4.47510183e-002, 2.24336814e-002,
          1.52031956e-002, 7.12297438e-003, 1.18639860e-002,
          4.39187549e-002, 2.32400060e-001, 1.43104151e-001,
          1.02145679e-001, 1.35417238e-001, 1.53074890e-001,
          8.10784400e-002, 4.93764542e-002, 4.82177325e-002,
          6.14587963e-002, 1.94500685e-001, 1.32742926e-001,
          1.80084780e-001, 2.10724130e-001, 2.71032244e-001,
          2.71032244e-001, 1.25184700e-001, 6.50079846e-002,
          1.57816663e-001, 2.54021347e-001, 1.96255133e-001,
          2.71032244e-001, 2.71032244e-001, 2.71032244e-001,
          2.71032244e-001, 1.36264607e-001, 1.43744797e-001,
          1.28992006e-001, 2.25975245e-001, 1.34005696e-001,
          5.20970598e-002, 1.10391527e-001, 1.87878639e-001,
          9.28703621e-002, 6.62467331e-002, 3.90910767e-002,
          3.50180082e-002, 7.66035542e-002, 5.80999143e-002,
          1.61477014e-001, 2.46990532e-001, 2.90498257e-001,
          1.35808825e-001, 1.24142110e-001, 6.27916008e-002,
          9.24175084e-002, 1.08663909e-001, 9.35597047e-002,
          9.65365320e-002, 2.90498257e-001, 2.90498257e-001,
          2.48506889e-001, 7.86780789e-002, 1.16246745e-001,
          7.57772326e-002, 8.79993364e-002, 6.91790432e-002,
          2.90498257e-001, 2.90498257e-001, 2.90498257e-001,
          2.26682320e-001, 1.29324645e-001, 1.34271517e-001,
          1.32725552e-001, 1.24822140e-001, 1.82171002e-001,
          1.30712599e-001, 1.63735449e-001, 2.30640680e-001,
          8.95201862e-002, 7.20309392e-002, 5.80001436e-002,
          9.21151638e-002, 5.75944558e-002, 4.87998091e-002,
          1.45786926e-001, 2.30640680e-001, 2.30640680e-001,
          2.24655136e-001, 1.64719686e-001, 1.63029626e-001,
          2.00487450e-001, 1.07159793e-001, 4.85920683e-002,
          1.87690333e-001, 2.13812009e-001, 2.30640680e-001,
          1.68705463e-001, 1.33639500e-001, 1.17703065e-001,
          8.96490887e-002, 4.83508259e-002, 8.03624392e-002,
          8.34319890e-002, 1.81493253e-001, 2.30640680e-001,
          2.27852747e-001, 2.30640680e-001, 2.30640680e-001,
          2.30640680e-001, 2.30640680e-001, 1.22679293e-001,
          1.88633144e-001, 2.36115977e-001, 2.25200579e-001,
          9.46191028e-002, 5.52105159e-002, 4.77136523e-002,
          1.20334677e-001, 1.85180813e-001, 1.59674302e-001,
          2.25975990e-001, 1.81321874e-001, 1.16755791e-001,
          5.89846969e-002, 3.60355638e-002, 2.64552590e-002,
          1.58949122e-001, 2.49168709e-001, 2.49168709e-001,
          9.27894935e-002, 8.20992962e-002, 1.02768898e-001,
          7.95705914e-002, 6.22546785e-002, 8.33377615e-002,
          2.29524106e-001, 2.49168709e-001, 2.31988341e-001,
          2.49168709e-001, 2.49168709e-001, 1.70421734e-001,
          7.68788755e-002, 4.00338210e-002, 2.73892488e-002,
          1.30890742e-001, 2.49168709e-001, 2.49168709e-001,
          9.06756669e-002, 1.05412930e-001, 1.45784333e-001,
          1.28719151e-001, 1.13157846e-001, 1.02352858e-001,
          2.63075650e-001, 2.63075650e-001, 1.86868936e-001,
          6.81985468e-002, 1.54599398e-001, 2.23901019e-001,
          1.07184827e-001, 8.73116180e-002, 8.12874734e-002,
          8.56032744e-002, 1.22659683e-001, 4.51480635e-002,
          2.49579445e-001, 2.63075650e-001, 2.63075650e-001,
          2.19726443e-001, 1.22680984e-001, 7.40968361e-002,
          1.51561439e-001, 1.91446349e-001, 1.63908660e-001,
          1.03791602e-001, 2.63075650e-001, 2.63075650e-001,
          2.63075650e-001, 1.17952555e-001, 7.55881295e-002,
          1.18547469e-001, 5.78729101e-002, 5.77654466e-002,
          9.00924131e-002, 2.89700300e-001, 2.89700300e-001,
          9.51876491e-002, 3.33395675e-002, 4.07867953e-002,
          3.14840861e-002, 1.04689397e-001, 8.23600292e-002,
          1.40750825e-001, 2.89700300e-001, 2.57219672e-001,
          1.18740007e-001, 8.47795680e-002, 1.28519714e-001,
          1.44495890e-001, 7.23318234e-002, 1.17134169e-001,
          1.08342081e-001, 2.89700300e-001, 2.89700300e-001,
          1.88350052e-001, 8.26256275e-002, 5.74809276e-002,
          1.05376899e-001, 3.77988853e-002, 1.01131298e-001,
          1.41098514e-001, 2.89700300e-001, 2.89700300e-001,
          2.20522374e-001, 9.17441994e-002, 1.35789841e-001,
          1.55391887e-001, 2.45580338e-002, 8.41224864e-002,
          2.18702257e-001, 2.28641972e-001, 2.28641972e-001,
          2.18373045e-001, 2.28641972e-001, 2.28641972e-001,
          1.80100828e-001, 1.10439003e-001, 1.27590582e-001,
          1.70290902e-001, 1.32107615e-001, 1.38744056e-001,
          1.44039944e-001, 1.89233229e-001, 1.35303095e-001,
          1.67743340e-001, 1.72618255e-001, 1.45558715e-001,
          2.06340536e-001, 2.28641972e-001, 2.28641972e-001,
          1.79136604e-001, 2.28641972e-001, 2.28641972e-001,
          1.96259543e-001, 6.12531416e-002, 5.99969178e-002,
          1.20516151e-001, 1.10374317e-001, 5.80483451e-002,
          3.33610289e-002, 1.15111940e-001, 1.13572627e-001,
          1.07826374e-001, 9.82561857e-002, 6.50032088e-002,
          1.30217776e-001, 1.53899089e-001, 2.72297680e-001,
          2.24732801e-001, 9.74979326e-002, 4.95547280e-002,
          1.09030999e-001, 1.14220746e-001, 7.98770934e-002,
          1.11593924e-001, 2.72297680e-001, 2.72297680e-001,
          2.68460333e-001, 1.10676482e-001, 1.20614260e-001,
          8.41025189e-002, 8.93274024e-002, 7.70056397e-002,
          2.02442035e-001, 2.31533259e-001, 2.72297680e-001,
          1.49182379e-001, 6.85440525e-002, 4.42413613e-002,
          5.16750216e-002, 8.42584968e-002, 6.94085434e-002,
          2.11851209e-001, 2.61626989e-001, 2.72297680e-001,
          1.60175577e-001, 1.06677309e-001, 1.06098540e-001,
          1.06410898e-001, 1.64788380e-001, 1.47080898e-001,
          4.58674133e-002, 2.29718477e-001, 2.35851318e-001,
          1.24870315e-001, 1.03633776e-001, 1.66788816e-001,
          1.35610893e-001, 5.44981137e-002, 6.15645200e-002,
          1.19358048e-001, 2.35851318e-001, 2.35851318e-001,
          1.11350536e-001, 1.12725429e-001, 1.42348021e-001,
          1.35468826e-001, 7.53245354e-002, 1.19109422e-001,
          9.06003863e-002, 1.42512441e-001, 2.35851318e-001,
          9.98475030e-002, 1.64089292e-001, 1.72612220e-001,
          2.07461685e-001, 1.68073848e-001, 1.54745996e-001,
          1.73962742e-001, 1.50525391e-001, 2.35851318e-001,
          1.05440594e-001, 1.93097770e-001, 1.69891834e-001,
          2.35851318e-001, 2.35851318e-001, 2.35851318e-001,
          1.31600022e-001, 2.19894648e-001, 2.19894648e-001,
          1.62717834e-001, 1.14482179e-001, 1.13065116e-001,
          5.79700582e-002, 4.72222753e-002, 6.87125549e-002,
          1.50178134e-001, 2.19894648e-001, 2.19894648e-001,
          1.77362263e-001, 1.12314649e-001, 1.81190625e-001,
          1.19912401e-001, 1.81453407e-001, 1.43411726e-001,
          1.92318469e-001, 1.53639078e-001, 1.42002836e-001,
          1.00899801e-001, 1.27334222e-001, 1.23130538e-001,
          1.68298885e-001, 2.19894648e-001, 2.19894648e-001,
          2.18196332e-001, 2.06616893e-001, 1.32997453e-001,
          1.08420745e-001, 1.44009560e-001, 2.19894648e-001,
          1.55486673e-001, 2.19894648e-001, 2.19894648e-001,
          1.50782421e-001, 1.03393033e-001, 9.39516500e-002,
          8.94622505e-002, 4.42397632e-002, 1.03654221e-001,
          1.40337721e-001, 2.54304260e-001, 2.54304260e-001,
          2.54304260e-001, 2.32546613e-001, 1.37216717e-001,
          6.90606087e-002, 2.33195350e-002, 3.99051383e-002,
          8.90434086e-002, 2.54304260e-001, 2.54304260e-001,
          1.58985645e-001, 9.73693356e-002, 6.83560073e-002,
          6.88529462e-002, 7.62750879e-002, 1.84903160e-001,
          1.73552513e-001, 2.54304260e-001, 2.39765361e-001,
          2.31630355e-001, 1.07971542e-001, 8.48509967e-002,
          7.25195408e-002, 3.58797424e-002, 9.58618000e-002,
          2.22865939e-001, 2.54304260e-001, 2.54304260e-001,
          2.45022997e-001, 2.45022997e-001, 2.45022997e-001,
          9.93303657e-002, 2.43641883e-002, 2.51711924e-002,
          4.30360213e-002, 1.22930743e-001, 2.45022997e-001,
          2.45022997e-001, 2.10128874e-001, 2.45022997e-001,
          1.90262094e-001, 6.16996326e-002, 6.78899139e-002,
          1.86180457e-001, 1.21687755e-001, 2.14403853e-001,
          1.83602035e-001, 6.76016510e-002, 4.85940836e-002,
          3.58531736e-002, 2.46838331e-002, 6.13120198e-002,
          1.54671296e-001, 2.45022997e-001, 2.45022997e-001,
          2.45022997e-001, 8.81701112e-002, 7.86867812e-002,
          5.83281294e-002, 3.46320383e-002, 6.28694370e-002,
          1.79295346e-001, 2.45022997e-001, 2.45022997e-001,
          2.61180878e-001, 2.61180878e-001, 2.61180878e-001,
          1.59439504e-001, 8.29017237e-002, 5.69212064e-002,
          2.26854295e-001, 9.19498727e-002, 2.05419362e-001,
          1.54892147e-001, 2.61180878e-001, 2.61180878e-001,
          2.45023787e-001, 6.83234185e-002, 5.40540889e-002,
          9.42013189e-002, 3.93762439e-002, 9.43998918e-002,
          2.61180878e-001, 1.63045481e-001, 1.67375162e-001,
          7.78239220e-002, 3.37485448e-002, 5.82546368e-002,
          1.44512624e-001, 1.60318553e-001, 2.37130895e-001,
          2.47247100e-001, 1.38869092e-001, 1.69377387e-001,
          9.96171683e-002, 9.60780084e-002, 8.26206431e-002,
          7.48875439e-002, 7.06018507e-002, 1.60662636e-001,
          1.47110477e-001, 2.18409106e-001, 2.55752295e-001,
          1.78657085e-001, 1.09747298e-001, 1.01703689e-001,
          1.03672564e-001, 5.20721190e-002, 7.10516125e-002,
          1.01283729e-001, 4.21344414e-002, 5.82999177e-002,
          5.56431785e-002, 9.09413919e-002, 9.46775228e-002,
          9.51044038e-002, 4.81379405e-002, 9.80991721e-002,
          2.55752295e-001, 1.94245040e-001, 2.35260576e-001,
          1.68355495e-001, 1.93050146e-001, 2.09028885e-001,
          1.75758004e-001, 9.62243676e-002, 2.55752295e-001,
          2.55752295e-001, 1.27938151e-001, 2.21820593e-001,
          1.93186983e-001, 1.62888348e-001, 2.27299884e-001,
          2.10799560e-001, 5.85608184e-002, 2.55752295e-001,
          1.45790294e-001, 2.32043788e-001, 1.84517816e-001,
          1.40360206e-001, 6.94294125e-002, 4.34407555e-002,
          2.43880861e-002, 6.07993491e-002, 4.90443185e-002,
          2.16055930e-001, 2.32043788e-001, 2.32043788e-001,
          1.65330634e-001, 1.00794859e-001, 1.02584146e-001,
          1.15520447e-001, 2.25273028e-001, 1.82224751e-001,
          1.71725586e-001, 2.32043788e-001, 1.57042265e-001,
          1.57726347e-001, 1.40874371e-001, 9.18241590e-002,
          9.20571089e-002, 7.88491070e-002, 1.38368726e-001,
          2.32043788e-001, 2.32043788e-001, 2.12848350e-001,
          1.56684369e-001, 1.70398980e-001, 1.48273960e-001,
          1.82756498e-001, 2.12008804e-001, 2.32043788e-001,
          6.03628419e-002, 1.28987640e-001, 1.68134317e-001,
          5.17360941e-002, 1.02840155e-001, 1.13081239e-001,
          1.23116985e-001, 1.95023149e-001, 1.61481977e-001,
          7.84325302e-002, 7.60403946e-002, 1.36056125e-001,
          3.84793952e-002, 1.32475346e-001, 1.30191654e-001,
          2.66236663e-001, 2.66236663e-001, 2.66236663e-001,
          7.88392201e-002, 1.29099697e-001, 6.97353482e-002,
          4.80141751e-002, 1.39898941e-001, 1.74810126e-001,
          2.35931292e-001, 2.33441517e-001, 2.34445199e-001,
          1.33843005e-001, 9.00240093e-002, 6.85791075e-002,
          6.17238656e-002, 1.51118398e-001, 2.21565574e-001,
          2.66236663e-001, 2.66236663e-001, 2.66236663e-001,
          9.22818333e-002, 2.95357239e-002, 2.85114925e-002,
          2.00911686e-002, 7.25779161e-002, 9.04420018e-002,
          2.62379169e-001, 2.62379169e-001, 2.38534600e-001,
          9.52017531e-002, 3.53391171e-002, 2.02938188e-002,
          9.11051501e-003, 7.56237060e-002, 1.33769035e-001,
          2.00436428e-001, 2.62379169e-001, 2.31368080e-001,
          1.79845095e-001, 7.93797448e-002, 7.86209255e-002,
          4.05985676e-002, 1.01919085e-001, 1.82750776e-001,
          2.62379169e-001, 2.62379169e-001, 2.62379169e-001,
          1.66626900e-001, 9.05916244e-002, 1.33643448e-001,
          6.20694794e-002, 1.17104493e-001, 1.77002683e-001,
          2.11116016e-001, 2.62379169e-001, 2.62379169e-001,
          1.81308284e-001, 5.33373281e-002, 4.75813262e-002,
          2.52578054e-002, 7.73421898e-002, 1.36867121e-001,
          1.80676445e-001, 2.24236831e-001, 2.24236831e-001,
          2.24236831e-001, 1.55022278e-001, 1.13926359e-001,
          7.29886219e-002, 7.45314136e-002, 9.14358273e-002,
          2.05140248e-001, 2.24236831e-001, 2.24236831e-001,
          1.68241918e-001, 1.29841462e-001, 2.07160711e-001,
          1.09632589e-001, 1.18330993e-001, 1.13855451e-001,
          1.49549529e-001, 1.69000372e-001, 1.97837114e-001,
          2.24236831e-001, 2.24236831e-001, 2.24236831e-001,
          1.44054949e-001, 1.79392040e-001, 1.30930811e-001,
          2.13436648e-001, 1.62768945e-001, 2.04773128e-001,
          1.37782723e-001, 1.48490489e-001, 7.72312433e-002,
          5.09048700e-002, 7.97364190e-002, 7.27963448e-002,
          2.00198397e-001, 2.28564784e-001, 2.23946795e-001,
          1.44214272e-001, 1.11913204e-001, 4.68281806e-002,
          5.82771637e-002, 1.10586643e-001, 8.28839242e-002,
          2.28564784e-001, 2.28564784e-001, 1.41140401e-001,
          1.54190153e-001, 2.28564784e-001, 2.14078531e-001,
          1.37971118e-001, 1.84766278e-001, 1.01196788e-001,
          1.92789540e-001, 2.05161259e-001, 1.29281431e-001,
          2.28564784e-001, 2.28564784e-001, 1.11605823e-001,
          9.37567502e-002, 1.92217678e-001, 1.04609355e-001,
          2.28564784e-001, 2.28564784e-001, 2.28564784e-001,
          2.38119438e-001, 1.23276263e-001, 1.08789124e-001,
          1.13709711e-001, 1.49322838e-001, 1.25104263e-001,
          1.79579064e-001, 2.38119438e-001, 2.26882800e-001,
          2.38119438e-001, 1.25605240e-001, 1.19701959e-001,
          1.12577438e-001, 1.81523696e-001, 1.33858323e-001,
          7.22847208e-002, 9.54031795e-002, 2.15179399e-001,
          2.38119438e-001, 2.38119438e-001, 1.02194026e-001,
          9.82787609e-002, 1.96231410e-001, 1.98793158e-001,
          2.37488791e-001, 2.38119438e-001, 2.38119438e-001,
          1.43008888e-001, 1.87150687e-001, 1.34444624e-001,
          7.98215121e-002, 9.26442295e-002, 1.22103654e-001,
          8.03708285e-002, 6.93469197e-002, 1.24857932e-001,
          2.42540225e-001, 2.26886690e-001, 2.31494680e-001,
          1.40283942e-001, 1.60943404e-001, 1.74981043e-001,
          1.47754595e-001, 1.09455146e-001, 2.42540225e-001,
          2.42540225e-001, 2.07235023e-001, 2.42540225e-001,
          1.81584015e-001, 9.68960524e-002, 1.76652431e-001,
          1.54277399e-001, 5.61912879e-002, 2.42540225e-001,
          1.72237843e-001, 2.14811042e-001, 1.65692106e-001,
          9.69710499e-002, 5.57331182e-002, 5.30284792e-002,
          4.68943641e-002, 4.20835093e-002, 1.15644626e-001,
          2.37575442e-001, 2.11373642e-001, 2.42540225e-001,
          1.58700764e-001, 9.57278460e-002, 5.27044311e-002,
          4.12882380e-002, 2.34861355e-002, 9.81576443e-002,
          1.13083392e-001, 2.08580390e-001, 2.50119567e-001,
          9.90236625e-002, 5.31945154e-002, 3.55571099e-002,
          4.98751327e-002, 5.15725426e-002, 9.86063480e-002,
          2.12677121e-001, 1.94850460e-001, 1.86861321e-001,
          7.09517002e-002, 5.15752733e-002, 4.92603593e-002,
          1.07740708e-001, 2.50119567e-001, 2.50119567e-001,
          1.37094557e-001, 2.37937391e-001, 2.50119567e-001,
          1.85662568e-001, 5.09406477e-002, 6.11382686e-002,
          1.17029004e-001, 9.38633978e-002, 1.00173093e-001,
          2.50119567e-001, 2.50119567e-001, 2.50119567e-001,
          1.98953673e-001, 1.20485477e-001, 7.80334771e-002,
          1.14515603e-001, 2.50119567e-001, 2.23737493e-001,
          1.32495031e-001, 7.02513829e-002, 4.94291037e-002,
          4.78695892e-002, 8.71593431e-002, 1.14630066e-001,
          2.18747199e-001, 2.44434029e-001, 2.04907566e-001,
          1.77360743e-001, 1.28370076e-001, 9.05482918e-002,
          8.71184319e-002, 9.21997204e-002, 1.79765090e-001,
          2.11710498e-001, 2.25847051e-001, 2.44434029e-001,
          1.73803046e-001, 1.87556535e-001, 2.44434029e-001,
          1.55332863e-001, 1.54676765e-001, 8.89546126e-002,
          1.50102958e-001, 2.44434029e-001, 1.67930633e-001,
          1.02846675e-001, 2.18386352e-001, 2.44434029e-001,
          1.54627442e-001, 1.01394653e-001, 1.04390636e-001,
          1.62007958e-001, 2.19414458e-001, 1.04016408e-001,
          2.20730096e-001, 2.49361023e-001, 1.79884613e-001,
          1.10153385e-001, 6.94422424e-002, 1.56779200e-001,
          1.10372916e-001, 1.48805335e-001, 2.49361023e-001,
          2.16569960e-001, 2.49361023e-001, 2.47805089e-001,
          1.95837840e-001, 9.37778577e-002, 1.28573775e-001,
          8.51297006e-002, 1.10600479e-001, 2.02902839e-001,
          1.02560177e-001, 2.49361023e-001, 2.49361023e-001,
          1.37911692e-001, 4.66954000e-002, 7.33995587e-002,
          1.10716522e-001, 5.98134808e-002, 8.57752711e-002,
          1.65055424e-001, 2.49361023e-001, 2.49361023e-001,
          2.45684847e-001, 6.98784962e-002, 5.82626276e-002,
          9.02908370e-002, 5.61247915e-002, 7.19699264e-002,
          1.69368610e-001, 1.78875819e-001, 2.24653050e-001,
          2.24632993e-001, 7.88425654e-002, 9.43620875e-002,
          9.89651009e-002, 6.34886101e-002, 1.16981357e-001,
          1.96058765e-001, 2.16374546e-001, 2.24653050e-001,
          1.85560420e-001, 1.22529529e-001, 1.74493447e-001,
          1.98434114e-001, 1.32572562e-001, 1.31901339e-001,
          1.87789559e-001, 2.24653050e-001, 2.08612859e-001,
          2.24653050e-001, 7.47802928e-002, 8.57728347e-002,
          9.33396816e-002, 5.37502468e-002, 9.41097289e-002,
          2.24653050e-001, 2.24653050e-001, 2.24653050e-001,
          2.01455802e-001, 1.09877735e-001, 1.66269019e-001,
          1.37813747e-001, 9.27072763e-002, 1.76401049e-001,
          1.27044678e-001, 2.18226820e-001, 2.18226820e-001,
          1.71700940e-001, 1.59408346e-001, 1.22769132e-001,
          1.37398705e-001, 1.69731990e-001, 9.09428298e-002,
          2.18226820e-001, 1.99118197e-001, 2.05955148e-001,
          1.19841449e-001, 1.55316770e-001, 8.48504007e-002,
          1.62115067e-001, 2.18226820e-001, 2.18226820e-001,
          2.10859433e-001, 2.18226820e-001, 2.18226820e-001,
          2.17171609e-001, 1.93773836e-001, 1.43430829e-001,
          8.47709626e-002, 8.81632343e-002, 1.00918710e-001,
          1.83216155e-001, 1.04830854e-001, 1.53395876e-001,
          1.53258473e-001, 2.04458788e-001, 9.52246711e-002,
          7.59583563e-002, 1.05606504e-001, 1.84674844e-001,
          2.58960307e-001, 2.34528378e-001, 1.34737656e-001,
          1.15458310e-001, 1.33396298e-001, 1.64797619e-001,
          2.35965312e-001, 2.58960307e-001, 2.58960307e-001,
          8.93578753e-002, 2.58960307e-001, 2.07037315e-001,
          5.19479476e-002, 5.61179891e-002, 9.93826315e-002,
          8.59229192e-002, 6.03149645e-002, 8.53475928e-002,
          2.58960307e-001, 2.21879885e-001, 1.75195068e-001,
          1.18586749e-001, 1.74491495e-001, 5.40077575e-002,
          1.27906546e-001, 1.29285738e-001, 2.58960307e-001,
          1.03344142e-001, 2.58960307e-001, 2.58960307e-001,
          5.97281940e-002, 5.30567728e-002, 1.94624364e-002,
          6.79597855e-002, 3.86141948e-002, 7.03700930e-002,
          6.68807402e-002, 2.96650022e-001, 2.96650022e-001,
          1.13565728e-001, 3.34847271e-002, 2.64923740e-002,
          1.57459546e-002, 1.13269147e-002, 1.98714286e-002,
          2.40355372e-001, 2.96650022e-001, 2.96650022e-001,
          2.39701331e-001, 1.31402671e-001, 3.85653600e-002,
          1.95786767e-002, 4.02944051e-002, 5.95049821e-002,
          3.31988335e-002, 2.96650022e-001, 2.96650022e-001,
          1.20193191e-001, 2.34020315e-002, 8.05104431e-003,
          5.06362505e-003, 4.10744315e-003, 2.85409787e-003,
          1.61379963e-001, 2.96650022e-001, 2.96650022e-001,
          2.46905789e-001, 1.32310733e-001, 4.37771492e-002,
          2.25004945e-002, 9.55152214e-002, 3.55318747e-002,
          1.59054443e-001, 1.65111333e-001, 2.67255396e-001,
          1.33974910e-001, 6.65262118e-002, 9.50265825e-002,
          2.45238841e-001, 2.56249338e-001, 1.64803550e-001,
          2.67255396e-001, 2.67255396e-001, 2.67255396e-001,
          2.48566300e-001, 2.55094409e-001, 1.03685997e-001,
          1.30077437e-001, 2.67255396e-001, 2.67255396e-001,
          2.26444174e-002, 5.93191478e-003, 5.43820253e-003,
          1.12082134e-003, 1.29708378e-002, 1.04411263e-002,
          9.52072665e-002, 2.01531604e-001, 6.88635781e-002,
          1.51233435e-001, 3.90278175e-002, 6.65219724e-002,
          2.42755059e-002, 6.07836358e-002, 2.85088923e-002,
          5.51130213e-002, 1.87357143e-001, 2.23565921e-001,
          2.53579289e-001, 2.86868036e-001, 2.95709163e-001,
          2.07542717e-001, 1.89593941e-001, 6.20413646e-002,
          7.97030553e-002, 2.09976181e-001, 1.75430059e-001,
          1.51195705e-001, 2.95709163e-001, 2.95709163e-001,
          2.34701380e-001, 9.89772379e-002, 5.80753461e-002,
          1.10262938e-001, 1.01752922e-001, 8.57956111e-002,
          1.91416711e-001, 7.32627213e-002, 1.30410194e-001,
          4.00076509e-002, 3.43110301e-002, 1.98196452e-002,
          2.85255630e-002, 6.23300932e-002, 1.66462615e-001,
          2.33268946e-001, 1.81327477e-001, 2.84524888e-001,
          9.18284059e-002, 1.72006264e-002, 2.48410497e-002,
          5.50256222e-002, 3.84969674e-002, 1.62315339e-001,
          1.30474508e-001, 2.90942878e-001, 2.90942878e-001,
          1.86881050e-001, 5.02534099e-002, 4.50209342e-002,
          1.54870227e-001, 5.67509085e-002, 6.82383329e-002,
          1.48017749e-001, 2.90942878e-001, 2.90942878e-001,
          2.90942878e-001, 1.02795839e-001, 5.81804588e-002,
          1.43598109e-001, 6.38716668e-002, 8.66191834e-002,
          2.07826376e-001, 2.34344631e-001, 2.90942878e-001,
          1.22890115e-001, 2.95677502e-002, 1.70040429e-002,
          1.20534703e-001, 5.65182827e-002, 1.45774677e-001,
          1.39669776e-001, 1.69201121e-001, 1.87804163e-001,
          2.25008920e-001, 9.56571698e-002, 4.49601822e-002,
          1.06733605e-001, 5.73832169e-002, 1.39783055e-001,
          2.16886818e-001, 2.51190603e-001, 2.51190603e-001,
          2.51190603e-001, 1.45311490e-001, 1.52530342e-001,
          1.04257517e-001, 1.04202323e-001, 1.78881854e-001,
          2.51190603e-001, 2.51190603e-001, 1.77914172e-001,
          1.68697387e-001, 1.65113598e-001, 2.16885895e-001,
          9.71322134e-002, 1.80579573e-001, 2.51190603e-001,
          1.55521840e-001, 1.23976976e-001, 1.01912394e-001,
          1.45453557e-001, 1.30360425e-001, 1.09078526e-001,
          7.31797814e-002, 1.00582622e-001, 2.16944575e-001,
          2.51190603e-001, 9.89590064e-002, 3.24881673e-002,
          2.75426675e-002, 5.74753322e-002, 7.05010518e-002,
          4.37003560e-002, 9.04069096e-002, 2.04240248e-001,
          2.35028893e-001, 2.35028893e-001, 2.17517644e-001,
          2.35028893e-001, 2.11880371e-001, 1.74724936e-001,
          7.49468729e-002, 1.56662330e-001, 2.22300395e-001,
          2.35028893e-001, 2.18174532e-001, 2.13818893e-001,
          2.29043946e-001, 2.35028893e-001, 1.17432989e-001,
          9.22625363e-002, 1.28373772e-001, 2.24847779e-001,
          2.35028893e-001, 1.47355974e-001, 7.72418827e-002,
          4.44211923e-002, 3.39844897e-002, 2.30429154e-002,
          9.59903002e-003, 3.85087468e-002, 1.41423255e-001,
          2.35028893e-001, 2.35028893e-001, 1.60154864e-001,
          1.17679581e-001, 9.94986668e-002, 3.37850973e-002,
          1.06787439e-002, 5.48422635e-002, 1.08323090e-001,
          2.52301842e-001, 2.25933582e-001, 1.87460914e-001,
          1.68313816e-001, 2.48676792e-001, 4.87143695e-002,
          1.07243977e-001, 9.46724713e-002, 2.52301842e-001,
          1.46861225e-001, 2.52301842e-001, 2.52301842e-001,
          1.04029752e-001, 9.27092731e-002, 1.43909315e-002,
          6.34987131e-002, 2.77362559e-002, 9.85365957e-002,
          2.38019228e-001, 2.52301842e-001, 1.92018092e-001,
          1.52981713e-001, 1.99417681e-001, 5.98122813e-002,
          2.96605416e-002, 9.81417969e-002, 1.42943829e-001,
          1.91228792e-001, 2.52301842e-001, 2.52301842e-001,
          1.20662585e-001, 1.56921551e-001, 6.95815980e-002,
          3.72409075e-002, 7.65130892e-002, 1.33922353e-001,
          2.02377792e-002, 3.36356491e-001, 3.36356491e-001,
          9.15446430e-002, 9.99550708e-003, 4.92338510e-003,
          7.40875211e-003, 1.83749921e-003, 1.08942846e-002,
          1.01628847e-001, 3.36356491e-001, 3.36356491e-001,
          1.49105117e-001, 1.08330518e-001, 4.43657488e-002,
          3.64381745e-002, 6.79037794e-002, 3.90580446e-002,
          7.30906650e-002, 3.36356491e-001, 3.36356491e-001,
          6.23297840e-002, 3.56846452e-002, 2.79352535e-002,
          2.13240720e-002, 2.09994018e-002, 5.40318973e-002,
          8.07554349e-002, 3.29109371e-001, 3.36356491e-001,
          5.59521914e-002, 6.40575215e-002, 3.25980410e-002,
          3.25942673e-002, 1.16084842e-002, 4.94504943e-002 ]
      - [ 1.09481633e-001, 9.11752656e-002, 2.05854937e-001,
          3.42808664e-002, 2.67136663e-001, 2.82821003e-002,
          9.28779095e-002, 1.53028771e-001, 1.22746497e-001,
          2.27886483e-001, 1.73186943e-001, 1.71141967e-001,
          3.61867249e-002, 2.67136663e-001, 3.97104770e-002,
          1.21620834e-001, 1.19551644e-001, 2.10184306e-001,
          1.86412036e-001, 9.62516963e-002, 2.00678274e-001,
          5.06076925e-002, 2.67136663e-001, 7.13568106e-002,
          1.49374858e-001, 1.58330068e-001, 1.94309130e-001,
          2.67136663e-001, 1.55146763e-001, 1.98116288e-001,
          5.23628928e-002, 2.67136663e-001, 7.43519664e-002,
          1.12426542e-001, 9.34209377e-002, 2.67136663e-001,
          1.93860158e-001, 2.07191154e-001, 1.17232159e-001,
          8.08154866e-002, 2.44085789e-001, 9.82801542e-002,
          1.31736219e-001, 9.48909745e-002, 1.55749381e-001,
          1.43325582e-001, 2.16897860e-001, 1.82190508e-001,
          9.33617726e-002, 2.44085789e-001, 8.64246562e-002,
          1.43342242e-001, 1.27427757e-001, 1.38110548e-001,
          2.09877744e-001, 2.37515479e-001, 1.70993894e-001,
          5.94030209e-002, 2.44085789e-001, 4.62037511e-002,
          5.05245402e-002, 9.20604467e-002, 1.80951416e-001,
          1.86017886e-001, 2.44085789e-001, 2.43764207e-001,
          1.09352365e-001, 2.44085789e-001, 3.54649276e-002,
          1.35081410e-001, 1.68905810e-001, 1.80650562e-001,
          1.61308080e-001, 1.22271419e-001, 2.06218526e-001,
          7.64912367e-002, 2.65831620e-001, 6.35377690e-002,
          1.18011974e-001, 5.29766493e-002, 1.59831256e-001,
          2.02321500e-001, 1.05770253e-001, 2.62206435e-001,
          7.60244429e-002, 2.65831620e-001, 1.50068790e-001,
          2.20187902e-001, 7.38897771e-002, 1.96723044e-001,
          1.38487622e-001, 1.92232668e-001, 2.65831620e-001,
          1.03459969e-001, 2.65831620e-001, 2.96432991e-002,
          1.64107010e-001, 8.08411315e-002, 1.27605379e-001,
          1.18826531e-001, 1.42672017e-001, 2.65831620e-001,
          5.37659489e-002, 2.65831620e-001, 6.01300299e-002,
          1.52592421e-001, 4.11699414e-002, 1.11530863e-001,
          1.88037530e-001, 1.40588939e-001, 2.15403482e-001,
          1.08103286e-002, 2.09912509e-001, 1.38572663e-001,
          1.65812075e-001, 5.96525036e-002, 1.37341022e-001,
          2.39444330e-001, 2.23874673e-001, 1.59862772e-001,
          1.42629566e-002, 1.78128153e-001, 1.73212603e-001,
          1.76203072e-001, 9.80169326e-002, 1.87248528e-001,
          1.32099390e-001, 1.88766241e-001, 2.39444330e-001,
          7.15540629e-003, 2.32698649e-001, 6.57501966e-002,
          1.53849512e-001, 5.42507656e-002, 1.06335722e-001,
          2.39444330e-001, 2.39444330e-001, 1.71801731e-001,
          5.74201252e-003, 1.34257346e-001, 1.26198769e-001,
          2.38987222e-001, 1.40224636e-001, 2.24324033e-001,
          2.02794865e-001, 2.22115010e-001, 1.85473159e-001,
          8.57525691e-002, 1.37715101e-001, 8.60785097e-002,
          1.77219138e-001, 9.14623886e-002, 1.31016076e-001,
          1.87082320e-001, 1.87586904e-001, 2.36259729e-001,
          1.24268241e-001, 2.36259729e-001, 4.85849045e-002,
          2.06598654e-001, 1.11186802e-001, 1.15796648e-001,
          2.26532176e-001, 2.34904036e-001, 1.66473076e-001,
          3.28579731e-002, 1.02991670e-001, 7.79490322e-002,
          2.15332910e-001, 1.19651228e-001, 1.86227113e-001,
          2.21801475e-001, 1.87278181e-001, 1.79297164e-001,
          6.02972806e-002, 2.36259729e-001, 5.61978407e-002,
          2.00364113e-001, 9.27663073e-002, 1.97255880e-001,
          1.36690810e-001, 9.25434157e-002, 1.62651390e-001,
          1.02417037e-001, 2.41251931e-001, 8.89834538e-002,
          1.47881418e-001, 1.33693621e-001, 1.08485654e-001,
          2.17327774e-001, 7.42323026e-002, 1.08190387e-001,
          5.01792543e-002, 2.41251931e-001, 1.49523005e-001,
          2.08740517e-001, 1.74787462e-001, 1.96272090e-001,
          2.11556688e-001, 1.25413209e-001, 2.03505322e-001,
          8.10768753e-002, 2.41251931e-001, 5.28971888e-002,
          1.46525845e-001, 1.07024677e-001, 2.07594559e-001,
          2.41251931e-001, 8.24068412e-002, 1.89303502e-001,
          6.47791475e-002, 2.33120531e-001, 1.36641890e-001,
          2.41251931e-001, 1.25111043e-001, 2.41251931e-001,
          2.33892784e-001, 1.09034136e-001, 6.86376095e-002,
          4.52277660e-002, 2.52326518e-001, 8.61953199e-002,
          1.54471919e-001, 8.47656429e-002, 2.34976813e-001,
          1.97244748e-001, 1.27261341e-001, 1.43109977e-001,
          1.27990037e-001, 2.52326518e-001, 1.15733303e-001,
          1.43263593e-001, 3.79763991e-002, 1.93054765e-001,
          2.23580018e-001, 7.08040968e-002, 1.14447467e-001,
          7.48532936e-002, 2.52326518e-001, 1.23300217e-001,
          2.47043207e-001, 8.01462531e-002, 2.16535479e-001,
          2.00211808e-001, 8.10573995e-002, 1.84552759e-001,
          1.53242260e-001, 2.52326518e-001, 1.54070020e-001,
          1.98716283e-001, 5.35371602e-002, 1.93988919e-001,
          1.68848678e-001, 7.91116953e-002, 1.80630088e-001,
          6.28425479e-002, 2.22286671e-001, 1.00968525e-001,
          1.68435380e-001, 6.77717626e-002, 1.67452231e-001,
          2.28616774e-001, 1.07108258e-001, 1.61897764e-001,
          3.25940996e-002, 2.39698738e-001, 1.02311708e-001,
          1.70011908e-001, 9.60528031e-002, 2.28045464e-001,
          1.79838195e-001, 7.09927529e-002, 1.34252146e-001,
          4.11277451e-002, 2.44685397e-001, 1.20763794e-001,
          2.44685397e-001, 1.31680563e-001, 1.85143694e-001,
          1.88626647e-001, 9.97502804e-002, 1.21571571e-001,
          2.36964040e-002, 2.32514471e-001, 1.63379923e-001,
          2.44685397e-001, 2.44685397e-001, 2.28300333e-001,
          1.41350478e-001, 1.65756077e-001, 1.79449961e-001,
          2.20831800e-002, 2.16111481e-001, 3.76147553e-002,
          1.10785462e-001, 9.49175879e-002, 1.33773789e-001,
          1.49194673e-001, 1.98119104e-001, 2.48233348e-001,
          8.18183720e-002, 2.48233348e-001, 9.12536960e-003,
          1.47304386e-001, 1.54792070e-001, 1.48537114e-001,
          1.34703204e-001, 7.94478431e-002, 1.15735389e-001,
          1.82533748e-002, 2.18832210e-001, 1.36039421e-001,
          2.48233348e-001, 2.48233348e-001, 2.14278385e-001,
          1.89769685e-001, 7.34949410e-002, 1.84056804e-001,
          7.22202510e-002, 2.48233348e-001, 8.66034403e-002,
          1.79433748e-001, 2.33407781e-001, 2.46558234e-001,
          1.20819271e-001, 1.62106469e-001, 2.62366146e-001,
          1.03556320e-001, 2.62366146e-001, 1.81371011e-002,
          1.20301433e-001, 9.03777927e-002, 1.12505987e-001,
          1.04738615e-001, 1.05111264e-001, 2.05283001e-001,
          8.73728022e-002, 2.62366146e-001, 2.57065687e-002,
          1.47310600e-001, 7.64291212e-002, 1.00367688e-001,
          1.89776123e-001, 1.14577286e-001, 2.54826963e-001,
          1.37635618e-001, 2.62366146e-001, 6.94674626e-002,
          1.29802153e-001, 1.05445601e-001, 1.93054885e-001,
          1.88681051e-001, 1.60203278e-001, 2.62366146e-001,
          2.62366146e-001, 2.62366146e-001, 4.15313467e-002,
          1.23239927e-001, 8.55313912e-002, 1.72187641e-001,
          1.21769145e-001, 1.42437801e-001, 1.34723961e-001,
          6.13239929e-002, 2.53912359e-001, 1.19291572e-002,
          1.86253861e-001, 7.82844573e-002, 1.03711173e-001,
          1.75160527e-001, 2.08191916e-001, 1.55448228e-001,
          5.90314306e-002, 2.40761906e-001, 1.87239703e-002,
          2.53912359e-001, 1.34326681e-001, 1.46499872e-001,
          1.86278939e-001, 1.50349841e-001, 2.26463690e-001,
          2.01513261e-001, 2.53912359e-001, 1.97128821e-002,
          1.06519490e-001, 8.33206177e-002, 1.69826671e-001,
          2.18633756e-001, 1.25958383e-001, 2.53912359e-001,
          1.43955529e-001, 2.53912359e-001, 3.75539698e-002,
          1.77058324e-001, 8.78595635e-002, 2.12786600e-001,
          1.54576600e-001, 1.64197609e-001, 1.54111519e-001,
          3.13272588e-002, 2.27856949e-001, 4.39087003e-002,
          2.11733937e-001, 1.13898329e-001, 1.36804402e-001,
          1.78817347e-001, 1.40730172e-001, 1.32797495e-001,
          6.60934299e-002, 2.67791837e-001, 7.76739046e-002,
          1.84390813e-001, 9.91514176e-002, 1.67021126e-001,
          1.59452200e-001, 1.11227706e-001, 2.05179513e-001,
          9.12903324e-002, 2.67791837e-001, 2.49770731e-002,
          1.94625065e-001, 9.99744609e-002, 1.55606329e-001,
          1.42829925e-001, 1.99525654e-001, 2.67791837e-001,
          7.95673653e-002, 2.67791837e-001, 4.35194448e-002,
          2.67791837e-001, 1.85061648e-001, 1.32818028e-001,
          1.67992458e-001, 7.79935718e-002, 1.58662573e-001,
          7.73172230e-002, 2.50955701e-001, 2.29001101e-002,
          1.41499653e-001, 8.92840251e-002, 1.72157720e-001,
          1.52027801e-001, 7.50890002e-002, 1.93179294e-001,
          6.74557313e-002, 2.50955701e-001, 5.54232858e-002,
          2.50955701e-001, 1.34596467e-001, 1.62951484e-001,
          1.48992196e-001, 1.58073023e-001, 2.40284771e-001,
          6.35856837e-002, 2.50955701e-001, 3.41850631e-002,
          2.26175994e-001, 1.20905019e-001, 1.36199653e-001,
          1.27805397e-001, 9.65306982e-002, 1.64358690e-001,
          6.37098551e-002, 2.50955701e-001, 1.96735755e-001,
          2.50955701e-001, 2.50955701e-001, 1.57414094e-001,
          1.07476786e-001, 7.49966502e-002, 1.06732234e-001,
          3.00117005e-002, 2.55141288e-001, 1.11223951e-001,
          2.55141288e-001, 1.45986572e-001, 1.13447398e-001,
          1.36818498e-001, 8.13669413e-002, 1.53376937e-001,
          4.78325039e-002, 2.55141288e-001, 1.29084662e-001,
          1.98167622e-001, 1.22554414e-001, 1.43359050e-001,
          1.20493576e-001, 1.51191622e-001, 1.44931525e-001,
          2.08610371e-002, 1.80911079e-001, 1.95491359e-001,
          2.55141288e-001, 2.55141288e-001, 1.41111016e-001,
          2.08054185e-001, 1.90239117e-001, 1.99155375e-001,
          2.77375598e-002, 2.55141288e-001, 8.49051178e-002,
          1.97230041e-001, 1.74074650e-001, 2.05409303e-001,
          1.69593394e-001, 1.29295453e-001, 8.07472393e-002,
          2.99492422e-002, 2.56405920e-001, 1.13913156e-001,
          1.58085451e-001, 1.22079454e-001, 1.39281064e-001,
          1.60074145e-001, 1.63711995e-001, 1.45341188e-001,
          6.76469579e-002, 2.35515997e-001, 1.74622208e-001,
          2.20686153e-001, 2.26528838e-001, 2.03048214e-001,
          2.40930513e-001, 1.29524097e-001, 1.36246830e-001,
          5.44562899e-002, 2.56405920e-001, 6.17734753e-002,
          9.81542021e-002, 8.54867697e-002, 1.90334693e-001,
          2.37480670e-001, 1.35415450e-001, 1.80721670e-001,
          9.31903198e-002, 2.56405920e-001, 1.24263160e-001,
          9.23944935e-002, 1.33081630e-001, 2.42076293e-001,
          1.24810867e-001, 1.03762880e-001, 1.04688406e-001,
          5.16490936e-002, 1.82288527e-001, 1.32858858e-001,
          1.91217035e-001, 2.40152821e-001, 2.18143106e-001,
          1.66673154e-001, 1.20125063e-001, 1.04982644e-001,
          5.71542829e-002, 2.57492751e-001, 7.80008882e-002,
          1.70876950e-001, 1.55729711e-001, 2.02923670e-001,
          1.47003844e-001, 1.32200882e-001, 1.62937135e-001,
          9.60655585e-002, 2.57492751e-001, 1.25067815e-001,
          1.57785028e-001, 1.32099763e-001, 1.74972922e-001,
          1.90208122e-001, 2.57492751e-001, 2.57492751e-001,
          1.11100152e-001, 2.57492751e-001, 4.80095521e-002,
          1.36956736e-001, 1.02169767e-001, 1.80377260e-001,
          1.23569287e-001, 7.82694295e-002, 1.19559824e-001,
          5.25195636e-002, 1.88472226e-001, 5.02592325e-002,
          8.45725238e-002, 4.22245152e-002, 1.05381832e-001,
          2.20889866e-001, 1.09446518e-001, 1.94495007e-001,
          1.10170029e-001, 2.01489225e-001, 1.18661553e-001,
          1.10188730e-001, 6.97327629e-002, 1.12612642e-001,
          1.78276792e-001, 1.56303167e-001, 1.91052869e-001,
          6.34167269e-002, 1.94999278e-001, 4.38353159e-002,
          9.55136120e-002, 9.36369747e-002, 1.48798808e-001,
          2.59368658e-001, 2.56965339e-001, 2.08536014e-001,
          1.46311969e-001, 2.59368658e-001, 2.59368658e-001,
          2.59368658e-001, 2.59368658e-001, 2.48535424e-001,
          8.03538784e-002, 4.40330729e-002, 7.33776689e-002,
          3.79976444e-002, 7.22020194e-002, 3.54810171e-002,
          5.59742786e-002, 4.03036401e-002, 4.14040536e-002,
          9.16760340e-002, 6.32402450e-002, 8.66506323e-002,
          5.78173213e-002, 9.04561579e-002, 1.29536726e-002,
          5.78064993e-002, 2.44510733e-002, 6.58826008e-002,
          2.78790176e-001, 1.30753949e-001, 9.45091769e-002,
          1.53089628e-001, 2.12908491e-001, 1.82904527e-001,
          2.66156852e-001, 1.88234195e-001, 2.78790176e-001,
          2.78790176e-001, 2.78790176e-001, 1.91518813e-001,
          2.78790176e-001, 2.78790176e-001, 1.97815001e-001,
          2.47178599e-001, 1.16899572e-001, 2.78790176e-001,
          7.01141730e-002, 4.99851219e-002, 7.71566182e-002,
          3.77832986e-002, 7.43360594e-002, 1.90559328e-002,
          4.56394032e-002, 2.38788873e-002, 5.72835691e-002,
          5.04785478e-002, 6.38073161e-002, 1.10412247e-001,
          2.87106801e-002, 6.88214824e-002, 2.54008789e-002,
          5.50291166e-002, 5.63631356e-002, 4.33491059e-002,
          2.62406707e-001, 2.62406707e-001, 2.20985040e-001,
          2.51333296e-001, 2.62406707e-001, 2.17322707e-001,
          1.91012502e-001, 1.00593485e-001, 2.62406707e-001,
          2.62406707e-001, 1.64359808e-001, 1.95660338e-001,
          2.29139701e-001, 2.62406707e-001, 1.35255188e-001,
          2.62406707e-001, 2.11819008e-001, 2.62406707e-001,
          1.02850333e-001, 1.32796586e-001, 2.05874681e-001,
          4.71142642e-002, 1.21664599e-001, 7.64881447e-002,
          1.08046293e-001, 1.09023616e-001, 1.02702521e-001,
          1.02373682e-001, 7.04443157e-002, 1.32146880e-001,
          4.70603742e-002, 1.53194711e-001, 1.51955813e-001,
          1.72672600e-001, 1.16131216e-001, 1.18828930e-001,
          2.55362123e-001, 2.03326687e-001, 2.54897743e-001,
          2.50786215e-001, 2.55362123e-001, 1.85693264e-001,
          2.42211446e-001, 2.40156129e-001, 2.55362123e-001,
          1.60305142e-001, 1.03186376e-001, 1.46982893e-001,
          6.65244684e-002, 2.55362123e-001, 1.46784738e-001,
          1.52398810e-001, 6.67837113e-002, 1.95681378e-001,
          1.16965085e-001, 1.02907792e-001, 1.86379001e-001,
          4.68729809e-002, 2.00863376e-001, 1.43448308e-001,
          2.33034194e-001, 1.58375174e-001, 1.28673643e-001,
          1.67478576e-001, 1.02549821e-001, 1.42773315e-001,
          7.99304172e-002, 2.28013203e-001, 1.32192850e-001,
          1.56928331e-001, 1.81605741e-001, 2.08016440e-001,
          1.32556170e-001, 1.03662789e-001, 1.49216056e-001,
          6.21417835e-002, 2.43284941e-001, 9.45659429e-002,
          2.26576611e-001, 1.34228602e-001, 1.53103337e-001,
          1.14715368e-001, 1.25728056e-001, 1.83227226e-001,
          1.39153063e-001, 2.43284941e-001, 2.26029292e-001,
          2.43284941e-001, 2.12999746e-001, 1.78068340e-001,
          1.87135696e-001, 1.29508287e-001, 1.79651424e-001,
          6.04342744e-002, 1.69268981e-001, 5.24002276e-002,
          1.51540920e-001, 9.88562927e-002, 1.73720345e-001,
          1.96877331e-001, 1.17920123e-001, 2.30115980e-001,
          9.48704258e-002, 2.44057685e-001, 6.62407279e-002,
          1.14932038e-001, 1.68251693e-001, 2.07298175e-001,
          1.73436865e-001, 1.68731168e-001, 1.98203981e-001,
          5.80555424e-002, 2.44057685e-001, 9.13089290e-002,
          1.85956091e-001, 7.47883543e-002, 1.55944735e-001,
          1.94321901e-001, 1.95425853e-001, 2.26549417e-001,
          1.21928021e-001, 2.44057685e-001, 9.98232588e-002,
          2.21464634e-001, 1.54209584e-001, 1.85385227e-001,
          1.40948594e-001, 9.20976177e-002, 1.63609445e-001,
          6.12882785e-002, 2.50902265e-001, 5.15499227e-002,
          8.92259926e-002, 8.62402990e-002, 1.44478247e-001,
          2.12332308e-001, 2.06350550e-001, 2.48058543e-001,
          7.79814124e-002, 2.50902265e-001, 3.78775336e-002,
          1.15910448e-001, 7.17690811e-002, 2.02824309e-001,
          1.98833287e-001, 1.52409002e-001, 1.94404215e-001,
          8.69217589e-002, 2.50902265e-001, 3.68546508e-002,
          1.10138558e-001, 9.77900848e-002, 1.96907699e-001,
          2.50902265e-001, 2.25319982e-001, 2.50902265e-001,
          1.10548094e-001, 2.25065172e-001, 6.66842908e-002,
          8.64838213e-002, 1.00168325e-001, 2.50902265e-001,
          1.05121151e-001, 1.11635879e-001, 1.20596237e-001,
          4.16787155e-002, 1.44215614e-001, 6.49321005e-002,
          1.03945009e-001, 9.19232816e-002, 1.05779409e-001,
          2.52340108e-001, 2.36559957e-001, 1.42291456e-001,
          1.59257725e-001, 2.52340108e-001, 2.52340108e-001,
          2.52340108e-001, 2.52340108e-001, 2.30918333e-001,
          1.22201711e-001, 1.42074227e-001, 1.47936508e-001,
          6.99072704e-002, 1.17833793e-001, 6.66444898e-002,
          6.12595342e-002, 5.94519973e-002, 1.02473371e-001,
          2.52340108e-001, 1.52418077e-001, 1.09706625e-001,
          1.10360608e-001, 2.52340108e-001, 1.99673831e-001,
          2.22595304e-001, 1.79282844e-001, 1.85989574e-001,
          1.41588628e-001, 3.39717604e-002, 3.26072052e-002,
          9.47848931e-002, 1.26716569e-001, 6.97133690e-002,
          1.35295138e-001, 9.73586291e-002, 2.20535308e-001,
          2.38267228e-001, 1.96817815e-001, 1.01512007e-001,
          2.34107196e-001, 2.38267228e-001, 1.66316614e-001,
          1.72913179e-001, 1.33137420e-001, 2.38267228e-001,
          7.56118596e-002, 2.45820936e-002, 3.20918374e-002,
          6.63083643e-002, 8.35816637e-002, 3.72821093e-002,
          1.05172984e-001, 1.01367079e-001, 1.33139282e-001,
          2.38267228e-001, 2.38267228e-001, 2.38267228e-001,
          2.38267228e-001, 2.38267228e-001, 1.70994073e-001,
          2.03161985e-001, 2.21941069e-001, 2.38267228e-001,
          1.43260211e-001, 1.24747299e-001, 6.97079822e-002,
          9.05460343e-002, 9.71979871e-002, 8.24548528e-002,
          6.81892484e-002, 5.38230389e-002, 1.30979732e-001,
          1.29204169e-001, 9.28377733e-002, 5.35504110e-002,
          9.33595821e-002, 8.77265558e-002, 4.89051454e-002,
          1.11273706e-001, 8.71665254e-002, 1.30043045e-001,
          2.17951521e-001, 2.48142913e-001, 2.48142913e-001,
          2.42354527e-001, 1.97379559e-001, 1.17106430e-001,
          1.14891402e-001, 1.10228613e-001, 1.81593284e-001,
          2.48142913e-001, 2.48142913e-001, 2.48142913e-001,
          2.48142913e-001, 1.86731815e-001, 1.31425917e-001,
          2.48142913e-001, 2.48142913e-001, 2.48142913e-001,
          7.90512860e-002, 7.23756701e-002, 2.29534339e-002,
          5.90304919e-002, 9.56918299e-002, 3.81919853e-002,
          5.81568219e-002, 6.00989088e-002, 1.30989090e-001,
          2.55699251e-002, 1.81850288e-002, 9.86141432e-003,
          1.19103957e-002, 3.51557843e-002, 2.24536844e-002,
          2.51063257e-002, 2.21471041e-002, 4.18365486e-002,
          3.28879625e-001, 1.72125697e-001, 9.87628400e-002,
          1.15784690e-001, 1.51962519e-001, 1.07801490e-001,
          3.28879625e-001, 3.28879625e-001, 3.28879625e-001,
          3.28879625e-001, 6.18937686e-002, 5.36883436e-002,
          5.34725115e-002, 7.27816224e-002, 5.75036295e-002,
          2.78930962e-001, 3.28879625e-001, 3.28879625e-001,
          4.32978608e-002, 2.78610177e-002, 1.39522282e-002,
          2.34810226e-002, 4.26492132e-002, 3.24538015e-002,
          6.12587705e-002, 5.16197458e-002, 4.76726480e-002,
          3.03205419e-002, 2.94031464e-002, 2.94978675e-002,
          1.88310724e-002, 4.61754650e-002, 3.99780124e-002,
          4.46051657e-002, 3.91445383e-002, 3.30751054e-002,
          3.53040427e-001, 1.79367512e-001, 1.02862023e-001,
          1.90554276e-001, 3.53040427e-001, 1.78443819e-001,
          3.53040427e-001, 3.53040427e-001, 3.53040427e-001,
          1.63389385e-001, 9.95401442e-002, 3.26539613e-002,
          8.65679532e-002, 2.48565167e-001, 1.93907157e-001,
          9.52624381e-002, 2.31060490e-001, 1.70444921e-001,
          1.63805395e-001, 1.52180091e-001, 1.70403376e-001,
          6.27591386e-002, 2.61550337e-001, 3.03355437e-002,
          8.89069289e-002, 4.37976196e-002, 1.38965026e-001,
          1.75377935e-001, 1.67625740e-001, 1.16581932e-001,
          6.79701194e-002, 2.61550337e-001, 1.27723768e-001,
          2.31236607e-001, 9.32720006e-002, 1.47683144e-001,
          1.86062336e-001, 2.61550337e-001, 2.09919482e-001,
          1.15649678e-001, 2.61550337e-001, 2.27890816e-002,
          1.06214888e-001, 1.16085231e-001, 1.29263356e-001,
          1.59678355e-001, 1.89961419e-001, 1.57019109e-001,
          8.76979753e-002, 2.61550337e-001, 1.36414096e-001,
          2.61550337e-001, 1.83693498e-001, 1.27381176e-001,
          1.40405223e-001, 1.26614869e-001, 1.56785041e-001,
          8.12140182e-002, 2.40676239e-001, 8.60227197e-002,
          2.22779781e-001, 1.23915724e-001, 1.48844883e-001,
          1.87632576e-001, 1.66759938e-001, 2.54278630e-001,
          1.39671788e-001, 1.75326481e-001, 5.21109030e-002,
          1.21040069e-001, 1.13418274e-001, 2.10177466e-001,
          1.16352901e-001, 7.22650364e-002, 1.48666337e-001,
          8.09187889e-002, 2.54278630e-001, 1.14293315e-001,
          2.54278630e-001, 1.66452914e-001, 1.31912768e-001,
          1.75238326e-001, 1.90159380e-001, 2.54278630e-001,
          6.97740465e-002, 2.54278630e-001, 1.00320823e-001,
          1.93675965e-001, 9.72889587e-002, 1.80992886e-001,
          4.88946289e-002, 4.92734313e-002, 7.88455680e-002,
          4.10439409e-002, 3.83366235e-002, 1.24771176e-002,
          1.24145653e-002, 1.69760548e-002, 2.72440463e-002,
          1.65835127e-001, 6.12439960e-002, 1.95800334e-001,
          9.05248970e-002, 1.05638012e-001, 4.13476527e-002,
          3.57391350e-002, 5.99781759e-002, 1.82890788e-001,
          5.26717156e-002, 7.21628517e-002, 1.09866105e-001,
          5.72484881e-002, 6.26071766e-002, 3.38370092e-002,
          3.41695920e-002, 4.63543609e-002, 3.76400054e-002,
          2.58834630e-001, 3.06656569e-001, 3.06656569e-001,
          3.06656569e-001, 3.06656569e-001, 3.06656569e-001,
          3.06656569e-001, 3.06656569e-001, 3.06656569e-001,
          3.66193280e-002, 3.02342158e-002, 6.79318830e-002,
          2.69921124e-002, 2.66270507e-002, 1.31836133e-002,
          8.48660339e-003, 1.61419064e-002, 4.03306670e-002,
          1.00296289e-001, 2.43488044e-001, 2.69016117e-001,
          1.48258761e-001, 1.32488027e-001, 4.34843451e-002,
          6.35939538e-002, 7.23853558e-002, 9.30072442e-002,
          7.55607039e-002, 1.36398166e-001, 2.69016117e-001,
          8.54423791e-002, 1.60821676e-001, 1.50306806e-001,
          1.32098168e-001, 1.28701210e-001, 1.98060393e-001,
          1.88116029e-001, 2.69016117e-001, 2.69016117e-001,
          2.69016117e-001, 2.69016117e-001, 2.49998391e-001,
          2.49271736e-001, 2.15362817e-001, 2.53441483e-001,
          1.29142016e-001, 1.95590764e-001, 2.19965294e-001,
          1.28189147e-001, 1.16732419e-001, 4.70070206e-002,
          7.65265524e-002, 7.04517737e-002, 9.66855362e-002,
          2.19965294e-001, 1.49050146e-001, 1.80516154e-001,
          1.17439911e-001, 1.57610595e-001, 6.64956048e-002,
          1.03609167e-001, 1.24874569e-001, 2.19965294e-001,
          1.44210592e-001, 2.11620644e-001, 2.19965294e-001,
          1.62483543e-001, 2.19965294e-001, 1.72052458e-001,
          2.16158420e-001, 1.13246843e-001, 1.34263426e-001,
          2.19965294e-001, 2.19965294e-001, 1.72972277e-001,
          1.72951102e-001, 2.19965294e-001, 2.15846345e-001,
          1.71919778e-001, 5.93888052e-002, 2.01258495e-001,
          2.45290384e-001, 7.86852017e-002, 4.97448370e-002,
          3.90894562e-002, 1.01007342e-001, 5.07790782e-002,
          1.14765719e-001, 2.01513365e-001, 2.45290384e-001,
          2.45290384e-001, 3.13355885e-002, 2.14492772e-002,
          3.47216018e-002, 1.25256851e-001, 4.62620407e-002,
          1.50085121e-001, 2.28450656e-001, 2.45290384e-001,
          2.45290384e-001, 2.45290384e-001, 1.33259699e-001,
          2.33903229e-001, 1.81717932e-001, 1.64810941e-001,
          1.19311593e-001, 7.53201991e-002, 2.05514655e-001,
          2.45290384e-001, 1.30082846e-001, 1.98737774e-002,
          1.03627861e-001, 2.45290384e-001, 1.40451446e-001,
          1.33989036e-001, 1.53504401e-001, 2.45290384e-001,
          2.49594584e-001, 5.97084053e-002, 2.93899234e-002,
          9.43007246e-002, 2.57273406e-001, 1.73626900e-001,
          1.66341841e-001, 2.52502233e-001, 2.50762016e-001,
          4.32623141e-002, 4.15488891e-002, 1.89815834e-002,
          5.90893105e-002, 1.78478450e-001, 1.21739805e-001,
          4.73735258e-002, 6.42001107e-002, 4.52673212e-002,
          2.57273406e-001, 1.34896621e-001, 3.63389663e-002,
          1.41284510e-001, 2.57273406e-001, 2.57273406e-001,
          2.57273406e-001, 1.73693642e-001, 2.57273406e-001,
          9.40644294e-002, 9.54191685e-002, 5.03811948e-002,
          8.91423598e-002, 2.57273406e-001, 2.38186195e-001,
          2.04033032e-001, 1.00478485e-001, 7.03135356e-002,
          1.30537659e-001, 1.85523823e-001, 1.49535820e-001,
          8.21952298e-002, 2.54719108e-001, 5.98248318e-002,
          1.61053240e-001, 1.62220135e-001, 1.13678917e-001,
          1.09459907e-001, 1.24700032e-001, 1.64411381e-001,
          8.63579437e-002, 2.54719108e-001, 7.78120831e-002,
          2.32761845e-001, 1.76965982e-001, 1.06413707e-001,
          1.40511438e-001, 2.36606628e-001, 1.76094204e-001,
          9.62334499e-002, 2.54719108e-001, 9.55229476e-002,
          1.78871706e-001, 1.87140763e-001, 1.31638765e-001,
          1.52466610e-001, 1.40842631e-001, 2.29327276e-001,
          8.02365169e-002, 2.54719108e-001, 1.00075208e-001,
          2.17003271e-001, 1.72053158e-001, 1.59423500e-001,
          1.13128483e-001, 6.04862869e-002, 1.23974904e-001,
          5.98964654e-002, 2.53896207e-001, 7.27236420e-002,
          2.09475979e-001, 1.08807757e-001, 1.16816744e-001,
          1.85776219e-001, 1.43388808e-001, 2.05641031e-001,
          2.80107949e-002, 2.53896207e-001, 1.19236603e-001,
          1.59586400e-001, 1.15535356e-001, 1.87849149e-001,
          1.62046924e-001, 8.75736102e-002, 1.50136471e-001,
          5.22885360e-002, 2.53896207e-001, 1.17284931e-001,
          2.04553574e-001, 1.28368765e-001, 1.59906179e-001,
          2.53896207e-001, 1.35107979e-001, 1.95407510e-001,
          6.32542148e-002, 2.53896207e-001, 1.75919503e-001,
          1.80801034e-001, 1.82269052e-001, 2.53896207e-001,
          1.91509593e-002, 2.86482275e-002, 2.95658410e-002,
          1.80358570e-002, 4.75449413e-002, 3.04279905e-002,
          3.06296851e-002, 3.80708985e-002, 3.22644114e-002,
          1.29433885e-001, 2.63692260e-001, 2.63692260e-001,
          2.63692260e-001, 2.10837126e-001, 2.63692260e-001,
          2.63692260e-001, 2.63692260e-001, 2.63692260e-001,
          2.37107966e-002, 3.26598771e-002, 2.46064477e-002,
          1.94806177e-002, 6.84469342e-002, 3.53121087e-002,
          3.21779512e-002, 3.66321318e-002, 4.01124172e-002,
          1.52190775e-001, 2.63692260e-001, 1.79864302e-001,
          2.62673676e-001, 1.36778951e-001, 2.19761983e-001,
          2.63692260e-001, 1.71241060e-001, 2.60739505e-001,
          6.36641830e-002, 1.63746744e-001, 1.81339324e-001,
          1.05101086e-001, 8.79450366e-002, 1.17161699e-001,
          1.69991270e-001, 1.54947326e-001, 2.26686105e-001,
          1.55223504e-001, 1.96456000e-001, 2.26686105e-001,
          2.26686105e-001, 2.26686105e-001, 2.17888862e-001,
          2.26686105e-001, 2.26686105e-001, 2.26686105e-001,
          6.90172613e-002, 9.42414925e-002, 8.72043595e-002,
          7.69253746e-002, 1.95173770e-002, 5.00688478e-002,
          9.52446386e-002, 8.58851448e-002, 1.60293937e-001,
          1.67706683e-001, 1.14874586e-001, 1.39791861e-001,
          2.12680489e-001, 1.72550112e-001, 1.43428788e-001,
          2.17459247e-001, 2.26686105e-001, 2.26686105e-001,
          9.70309526e-002, 8.18941668e-002, 1.09093197e-001,
          1.94724575e-001, 2.20700219e-001, 2.05363348e-001,
          2.06779018e-001, 1.36632547e-001, 1.82268873e-001,
          1.25381306e-001, 1.33165196e-001, 1.25129327e-001,
          2.20700219e-001, 2.20700219e-001, 2.20700219e-001,
          1.87402681e-001, 6.81436062e-002, 1.33051008e-001,
          9.60906297e-002, 7.67332911e-002, 1.13815524e-001,
          1.47252515e-001, 2.20700219e-001, 1.58698007e-001,
          2.20700219e-001, 2.20700219e-001, 1.68363348e-001,
          8.43332559e-002, 6.59157559e-002, 1.16893589e-001,
          1.37122810e-001, 2.20700219e-001, 2.20700219e-001,
          2.20700219e-001, 2.14460760e-001, 9.03422162e-002,
          2.29440376e-001, 2.29440376e-001, 1.60278410e-001,
          2.29440376e-001, 2.08776101e-001, 2.19612047e-001,
          1.88677818e-001, 1.29011691e-001, 1.13843739e-001,
          2.29440376e-001, 1.63704693e-001, 3.58700976e-002,
          1.39634684e-001, 2.29440376e-001, 1.37941331e-001,
          1.37362272e-001, 1.53864533e-001, 2.29440376e-001,
          8.64967331e-002, 1.40835047e-001, 1.44169614e-001,
          2.21313909e-001, 2.29440376e-001, 2.29440376e-001,
          2.12759897e-001, 1.71666518e-001, 7.80022368e-002,
          1.00700065e-001, 9.06962454e-002, 4.05928977e-002,
          1.06165811e-001, 1.77854210e-001, 1.16091006e-001,
          6.52835369e-002, 8.95654485e-002, 1.34609997e-001,
          2.77950287e-001, 2.52161771e-001, 7.58473948e-002,
          2.38687173e-001, 2.77950287e-001, 2.77950287e-001,
          2.77950287e-001, 2.09181204e-001, 2.77950287e-001,
          1.79004490e-001, 1.53997168e-001, 6.32542074e-002,
          9.70663875e-002, 2.42319077e-001, 2.01809138e-001,
          1.97596610e-001, 1.29555568e-001, 1.22998573e-001,
          2.01682419e-001, 1.02876492e-001, 5.15574105e-002,
          1.35529310e-001, 1.98434785e-001, 1.16923064e-001,
          4.74476665e-002, 1.03018090e-001, 2.14351177e-001,
          5.90723418e-002, 4.47002091e-002, 3.05259228e-002,
          4.57670577e-002, 4.88108844e-002, 3.79463173e-002,
          2.19399203e-002, 3.46409567e-002, 5.59324361e-002,
          1.15564525e-001, 1.55150414e-001, 1.59953937e-001,
          7.61478096e-002, 2.69097447e-001, 1.02624521e-001,
          1.61416635e-001, 1.01020917e-001, 1.06838331e-001,
          1.42376393e-001, 1.26482114e-001, 1.79569110e-001,
          7.65997916e-002, 2.69097447e-001, 9.95443165e-002,
          2.17602253e-001, 1.47747040e-001, 1.50057122e-001,
          1.04534298e-001, 1.08214252e-001, 1.63501054e-001,
          2.99232379e-002, 2.69097447e-001, 1.28274545e-001,
          2.69097447e-001, 1.21481359e-001, 9.72566232e-002,
          1.39209256e-001, 1.09076783e-001, 1.30002648e-001,
          5.18563837e-002, 2.69097447e-001, 1.26356408e-001,
          2.69097447e-001, 2.69097447e-001, 1.72171071e-001,
          1.44316971e-001, 1.77607208e-001, 1.40416056e-001,
          5.55969030e-002, 2.39548281e-001, 7.03735948e-002,
          1.27805039e-001, 1.07455827e-001, 1.16515808e-001,
          2.25891992e-001, 1.98301807e-001, 2.03387231e-001,
          6.57906756e-002, 2.39548281e-001, 1.12650059e-001,
          1.06767163e-001, 1.18939988e-001, 1.83669999e-001,
          1.97249427e-001, 2.11860031e-001, 1.49361506e-001,
          9.76692662e-002, 2.30927855e-001, 6.05273098e-002,
          1.49182156e-001, 1.63206428e-001, 2.03033119e-001,
          2.39548281e-001, 2.21423596e-001, 1.80211499e-001,
          1.14352301e-001, 2.14093998e-001, 5.74308522e-002,
          1.06767602e-001, 1.43551260e-001, 2.39548281e-001,
          1.23506360e-001, 9.55047905e-002, 9.77769643e-002,
          4.82243933e-002, 2.29435831e-001, 1.67249843e-001,
          1.39778689e-001, 1.57184064e-001, 1.76876068e-001,
          2.46289611e-001, 2.46289611e-001, 1.89086944e-001,
          1.74416527e-001, 2.46289611e-001, 2.46289611e-001,
          2.46289611e-001, 2.46289611e-001, 2.46289611e-001,
          1.57912359e-001, 7.15633556e-002, 7.51077384e-002,
          2.44298317e-002, 1.41883478e-001, 8.96257609e-002,
          1.28377557e-001, 1.19020544e-001, 1.85738280e-001,
          1.82269439e-001, 1.10764205e-001, 1.62368670e-001,
          4.83818352e-002, 1.95885271e-001, 1.16012767e-001,
          1.53846219e-001, 1.13508515e-001, 1.48885071e-001,
          1.49406195e-001, 1.10758580e-001, 1.08486921e-001,
          1.02522053e-001, 5.97715750e-002, 8.01330060e-002,
          9.13779512e-002, 9.57169235e-002, 1.44183904e-001,
          3.07115525e-001, 3.05084348e-001, 3.07115525e-001,
          3.07115525e-001, 3.07115525e-001, 2.56560385e-001,
          3.07115525e-001, 3.07115525e-001, 3.07115525e-001,
          4.27778289e-002, 2.70249881e-002, 3.69733945e-002,
          2.59215608e-002, 3.40700485e-002, 1.16284136e-002,
          3.08702011e-002, 3.33392806e-002, 3.08246557e-002,
          1.14568070e-001, 4.86198589e-002, 3.83031927e-002,
          4.90409434e-002, 5.63800447e-002, 1.67678427e-002,
          5.32037877e-002, 1.15971632e-001, 1.56894624e-001,
          1.88085482e-001, 1.34025857e-001, 2.17972979e-001,
          1.14014119e-001, 1.83626056e-001, 1.23794444e-001,
          2.76290387e-001, 2.76290387e-001, 2.67325401e-001,
          2.76290387e-001, 1.80343896e-001, 2.69068688e-001,
          1.61228284e-001, 2.20760971e-001, 2.22296223e-001,
          2.76290387e-001, 2.76290387e-001, 2.74690568e-001,
          5.53966165e-002, 2.26668827e-002, 1.93365756e-002,
          1.11407619e-002, 1.90987196e-002, 7.22295884e-003,
          4.91369255e-002, 6.89644516e-002, 7.55629241e-002,
          1.45484537e-001, 5.29719591e-002, 5.04177697e-002,
          1.52318012e-002, 1.70433503e-002, 9.56014451e-003,
          8.38919729e-002, 1.11618936e-001, 1.12587124e-001,
          2.74037451e-001, 2.74037451e-001, 2.74037451e-001,
          2.74037451e-001, 2.74037451e-001, 2.74037451e-001,
          2.74037451e-001, 2.74037451e-001, 2.74037451e-001,
          6.08371608e-002, 1.63032159e-001, 1.14800014e-001,
          1.32601067e-001, 1.85503125e-001, 2.17725575e-001,
          1.10955536e-001, 1.71019703e-001, 1.53730512e-001,
          1.59333780e-001, 1.13137394e-001, 1.01997443e-001,
          3.40081528e-002, 3.28503400e-002, 1.99548397e-002,
          7.48441145e-002, 1.09899260e-001, 1.60471484e-001,
          4.23304178e-002, 5.68316840e-002, 4.29337285e-002,
          2.01696306e-002, 2.75601652e-002, 2.75738444e-002,
          2.61434056e-002, 4.41862121e-002, 8.52024183e-002,
          2.54951775e-001, 2.54951775e-001, 1.79392606e-001,
          1.79037496e-001, 2.45586261e-001, 2.54951775e-001,
          1.97844282e-001, 2.54951775e-001, 2.54951775e-001,
          1.46561578e-001, 1.10355780e-001, 1.44843772e-001,
          1.15995564e-001, 1.09543867e-001, 1.76304772e-001,
          1.33896187e-001, 1.83817789e-001, 1.76893309e-001,
          2.07831785e-001, 1.48625344e-001, 1.14241563e-001,
          4.29966226e-002, 1.31310478e-001, 1.43682972e-001,
          8.26435313e-002, 1.28623769e-001, 2.35402152e-001,
          1.57623142e-001, 1.37826458e-001, 1.12456165e-001,
          5.57410344e-002, 1.36372671e-001, 1.00534461e-001,
          7.74564147e-002, 5.99733032e-002, 1.40782297e-001 ]
      - [ 1.82224798e-003, 3.71719856e-004, 1.42503623e-003,
          2.57926702e-004, 4.08782903e-003, 0., 0., 0., 1.82224798e-003,
          7.32087810e-003, 1.24286935e-001, 3.40706706e-001,
          1.45929024e-001, 5.94057254e-002, 1.09494263e-002,
          2.97202823e-005, 9.93202138e-006, 6.26832573e-003,
          8.26610718e-003, 8.36982206e-002, 2.15417802e-001,
          1.48864277e-002, 1.38419652e-002, 0., 0., 0., 2.00263783e-003,
          4.45345640e-002, 5.26565373e-001, 5.26565373e-001,
          4.28815424e-001, 1.99488059e-001, 5.41517772e-002,
          1.17692640e-002, 2.92349197e-002, 1.11916168e-002,
          3.62275317e-002, 3.03070962e-001, 3.26490015e-001,
          1.35164499e-001, 3.77287678e-002, 1.89611036e-002,
          3.93403490e-004, 6.75802585e-004, 6.93447236e-003,
          2.48539060e-001, 3.26490015e-001, 3.26490015e-001,
          9.55919176e-002, 2.31938995e-002, 4.62519862e-002,
          6.60631340e-003, 1.85419582e-002, 6.73690885e-002,
          3.76285389e-002, 3.26490015e-001, 3.26490015e-001,
          2.33149186e-001, 1.13667853e-001, 6.49187937e-002,
          7.47372862e-003, 1.39015513e-002, 1.07816691e-002,
          6.66858554e-002, 2.58625060e-001, 3.26490015e-001,
          9.68437940e-002, 6.33261725e-002, 6.83102757e-002,
          1.69608574e-002, 2.31148005e-002, 4.35841866e-002,
          3.12272042e-001, 3.12272042e-001, 2.07322910e-001,
          4.28721122e-002, 3.70318890e-002, 7.26732463e-002,
          8.38177800e-002, 8.50078240e-002, 1.68038666e-001,
          1.82933435e-001, 1.35887623e-001, 3.34551372e-002,
          6.82054535e-002, 2.59367466e-001, 3.12272042e-001,
          3.12272042e-001, 1.33540109e-001, 1.50638759e-001,
          5.19913062e-002, 6.47350177e-002, 5.77886291e-002,
          3.17570791e-002, 4.10750099e-002, 6.16589524e-002,
          7.17902035e-002, 6.61982894e-002, 6.54415786e-002,
          2.01040152e-002, 1.56454165e-002, 2.61847563e-002,
          1.06180124e-001, 3.12272042e-001, 3.12272042e-001,
          3.12272042e-001, 1.02500185e-001, 3.40364762e-002,
          2.39335503e-002, 1.43361464e-002, 1.31807541e-002,
          3.50815915e-002, 3.39630604e-001, 3.94284517e-001,
          3.94284517e-001, 4.44566309e-002, 3.78959849e-002,
          3.40106606e-004, 1.50892753e-004, 4.51528642e-004,
          4.80685587e-004, 5.34809567e-002, 5.60739487e-002,
          1.33631127e-002, 6.99981902e-005, 3.40106606e-004,
          8.02473444e-003, 8.29603989e-003, 1.77904777e-002,
          1.06493399e-001, 3.94284517e-001, 3.94284517e-001,
          3.33052814e-001, 4.40796651e-002, 7.58541096e-003,
          6.02270244e-004, 1.00595162e-005, 4.78190050e-004,
          7.08277617e-003, 2.04365224e-001, 2.82550722e-001,
          2.69344542e-002, 0., 6.02270244e-004, 0., 0., 0., 0., 0., 0.,
          0., 0., 0., 0., 0., 0., 0., 0., 0., 0., 0., 0.,
          5.45871854e-001, 0., 0., 0., 4.18880403e-001, 0., 0., 0.,
          5.45871854e-001, 2.48123586e-001, 0., 0., 0., 0., 0., 0., 0.,
          2.48123586e-001, 0., 0., 0., 0., 0., 0., 0., 0., 0., 0., 0.,
          0., 0., 0., 0., 0., 0., 0., 0., 0., 0., 0., 0., 0., 0., 0., 0.,
          0., 0., 0., 0., 0., 0., 0., 0., 0., 0., 0., 0., 0., 0., 0., 0.,
          0., 0., 0., 0., 0., 0., 0., 0., 0., 0., 0., 0., 0., 0., 0., 0.,
          0., 0., 0., 0., 0., 0., 0., 0., 0., 0., 0., 0., 0.,
          3.33996862e-002, 1.26992121e-001, 3.61869544e-001,
          2.62754634e-002, 6.47535026e-002, 1.04872212e-002,
          1.08342606e-003, 1.78426411e-003, 1.28077399e-002,
          5.07540442e-002, 3.46924365e-001, 3.61869544e-001,
          9.70770419e-002, 9.58889276e-002, 3.69433351e-002,
          1.09062856e-002, 2.34940965e-002, 1.65857505e-002,
          1.53658375e-001, 2.80105472e-001, 3.61869544e-001,
          1.38469905e-001, 2.46615559e-001, 4.78318259e-002,
          9.22891218e-003, 3.34954821e-002, 1.06112003e-001,
          1.20139159e-001, 2.26995200e-001, 3.61869544e-001,
          5.48785292e-002, 1.47383392e-001, 9.52899829e-002,
          2.50005294e-002, 5.36726452e-002, 7.88840428e-002,
          1.16667233e-001, 4.13750887e-001, 4.13750887e-001,
          2.40869716e-001, 2.25065142e-001, 1.58083990e-001,
          5.33939861e-002, 8.88364911e-002, 8.43610317e-002,
          1.01851426e-001, 1.53203055e-001, 1.86213985e-001,
          5.32650352e-002, 1.14622653e-001, 1.54542327e-001,
          9.45639387e-002, 8.12749565e-002, 1.06963418e-001,
          1.31498307e-001, 1.68007731e-001, 3.72163177e-001,
          5.43624535e-002, 1.23185717e-001, 1.74244121e-001,
          8.72186944e-002, 1.38871759e-001, 1.29845157e-001,
          8.52814689e-002, 7.00597912e-002, 4.58813272e-002,
          4.63175699e-002, 9.51197073e-002, 1.26096159e-001,
          1.07955486e-001, 1.14731953e-001, 1.02568105e-001,
          6.93850368e-002, 6.01499751e-002, 5.10978289e-002,
          1.79106183e-002, 4.43113633e-002, 1.28149629e-001,
          1.31060600e-001, 9.21600461e-002, 6.91770837e-002,
          6.29462004e-002, 6.61550015e-002, 6.44462258e-002,
          2.06058130e-001, 3.83322328e-001, 3.83322328e-001,
          3.12839568e-001, 1.39116541e-001, 4.45993282e-002,
          4.58557606e-002, 7.24499151e-002, 5.68492487e-002,
          3.21853831e-002, 6.26202747e-002, 1.07413158e-001,
          8.21227580e-002, 7.69206882e-002, 5.46360649e-002,
          6.36058524e-002, 6.41689748e-002, 7.03938231e-002,
          1.76808685e-001, 3.83322328e-001, 3.83322328e-001,
          2.64085472e-001, 1.22204401e-001, 4.77280356e-002,
          1.41208395e-002, 8.98329355e-003, 8.44173692e-003,
          7.55363032e-002, 3.39860499e-001, 3.39860499e-001,
          1.24317661e-001, 2.09690779e-002, 5.58491470e-003,
          2.35094666e-003, 3.71452625e-004, 8.09832884e-004,
          8.35515093e-003, 2.01865628e-001, 3.11984181e-001,
          4.01976071e-002, 8.24424904e-004, 4.08996217e-004,
          2.20127273e-002, 7.28747854e-003, 1.75299868e-002,
          9.49131399e-002, 3.39860499e-001, 3.39860499e-001,
          2.93486655e-001, 3.63732316e-002, 7.13655818e-003,
          6.10819878e-003, 8.64712463e-004, 5.86010050e-003,
          2.78549939e-002, 3.39860499e-001, 3.39860499e-001,
          2.08645329e-001, 8.15894082e-003, 2.05850648e-003,
          3.20649147e-002, 2.22680178e-002, 6.66342452e-002, 0.,
          1.28218114e-001, 0., 0., 0., 3.20649147e-002, 1.25459051e-002,
          7.16429250e-003, 2.14382615e-002, 0., 2.73930021e-002, 0., 0.,
          0., 1.25459051e-002, 1.65120617e-001, 3.98059636e-002,
          1.19114414e-001, 1.32179372e-002, 5.67962408e-001,
          5.67962408e-001, 4.85297143e-001, 0., 1.65120617e-001,
          4.91542257e-002, 1.29729118e-002, 3.88198569e-002, 0.,
          1.07979886e-001, 0., 0., 0., 4.91542257e-002, 0., 0., 0., 0.,
          0., 0., 0., 0., 0., 0., 0., 0., 0., 0., 0., 0., 0., 0., 0., 0.,
          0., 0., 8.86425018e-001, 0., 0., 0., 0., 0., 0., 0., 0., 0.,
          0., 0., 0., 0., 0., 0., 0., 0., 0., 0., 0., 0., 0., 0., 0., 0.,
          0., 0., 0., 0., 0., 0., 0., 0., 0., 0., 0., 0., 0., 0., 0., 0.,
          0., 0., 0., 0., 0., 0., 0., 0., 9.00930539e-002,
          1.83592722e-001, 3.03042144e-001, 2.04477414e-001,
          2.39729658e-001, 8.81814733e-002, 6.90147504e-002,
          9.26836655e-002, 1.08646564e-001, 8.01251233e-002,
          6.30919114e-002, 1.20920718e-001, 4.00970317e-002,
          6.68015778e-002, 6.64055496e-002, 2.37360876e-002,
          5.20646609e-002, 8.03326890e-002, 3.03042144e-001,
          7.09285215e-002, 8.61442387e-002, 8.75856280e-002,
          1.37689516e-001, 1.15895256e-001, 2.41480097e-001,
          3.03042144e-001, 3.03042144e-001, 3.03042144e-001,
          4.94657420e-002, 6.52481914e-002, 3.17405388e-002,
          4.65521254e-002, 7.50112087e-002, 9.23671052e-002,
          3.03042144e-001, 3.03042144e-001, 1.52329981e-001,
          6.52625561e-002, 9.03099999e-002, 4.96835113e-002,
          7.46928081e-002, 1.62392020e-001, 1.22856647e-001,
          1.91498369e-001, 1.58201113e-001, 1.12867475e-001,
          8.98540840e-002, 6.65909648e-002, 5.11415042e-002,
          7.48879537e-002, 1.03743047e-001, 1.15175635e-001,
          1.62156001e-001, 1.24771684e-001, 3.05411458e-001,
          9.50039923e-002, 1.87249169e-001, 9.20006335e-002,
          2.26975396e-001, 3.05411458e-001, 3.05411458e-001,
          3.05411458e-001, 3.05411458e-001, 1.81160107e-001,
          8.97175595e-002, 6.39634430e-002, 6.41523376e-002,
          1.15566984e-001, 1.65801227e-001, 1.57300502e-001,
          2.01695874e-001, 1.57985643e-001, 1.01429872e-001,
          1.36216834e-001, 7.29602054e-002, 6.90013468e-002,
          1.36088446e-001, 1.19956292e-001, 1.16053335e-001,
          1.65687159e-001, 1.34679690e-001, 1.04169600e-001,
          9.19906572e-002, 9.37227309e-002, 2.61680394e-001,
          2.61680394e-001, 2.61680394e-001, 2.61680394e-001,
          2.61680394e-001, 1.27548620e-001, 1.16982922e-001,
          1.16416961e-001, 9.12737027e-002, 7.25025013e-002,
          9.14280266e-002, 9.76875573e-002, 1.54311165e-001,
          2.61680394e-001, 2.01858699e-001, 1.46441743e-001,
          1.23648964e-001, 8.22839662e-002, 1.27871513e-001,
          1.85225993e-001, 1.60331398e-001, 2.61680394e-001,
          2.61680394e-001, 1.76500320e-001, 7.15889176e-003,
          3.45651200e-003, 2.18134392e-002, 8.37663710e-002,
          2.35001713e-001, 3.28774422e-001, 3.28774422e-001,
          4.32004668e-002, 1.06434505e-002, 2.67169042e-003,
          5.21771901e-004, 1.18195983e-002, 5.00407927e-002,
          2.46297523e-001, 3.28774422e-001, 3.28774422e-001,
          1.76750161e-002, 2.84282677e-003, 1.97826531e-002,
          1.37793301e-002, 1.89114474e-002, 8.05453956e-002,
          9.38362852e-002, 2.02101469e-001, 3.28774422e-001,
          6.44552931e-002, 1.31571991e-002, 7.86397886e-003,
          6.67915307e-003, 1.88040175e-002, 9.19083133e-002,
          1.34189099e-001, 3.28774422e-001, 3.28774422e-001,
          1.52725965e-001, 5.28439414e-003, 8.05670209e-003,
          6.81023521e-004, 2.51430320e-003, 1.53009444e-002,
          1.63610250e-001, 2.82590687e-001, 2.85437375e-001,
          7.15643214e-003, 8.05670209e-003, 2.38000881e-003,
          1.18752519e-004, 3.55352560e-004, 0., 5.36094420e-003, 0.,
          2.51116959e-004, 8.39188942e-005, 2.38000881e-003,
          5.75606758e-003, 4.03353851e-003, 1.28693655e-002,
          6.02371655e-002, 1.54077932e-001, 5.22883117e-001,
          5.22883117e-001, 4.52353716e-001, 7.01098237e-003,
          2.06636731e-003, 0., 0., 0., 5.06408280e-003, 1.37019763e-002,
          1.57050610e-001, 4.75249887e-002, 2.06636731e-003, 0., 0., 0.,
          0., 3.18115950e-001, 0., 0., 0., 0., 0., 0., 0., 0., 0., 0.,
          0., 0., 0., 8.81270915e-002, 0., 0., 0., 3.68349850e-001, 0.,
          0., 0., 8.81270915e-002, 5.90437055e-001, 0., 0., 0., 0., 0.,
          0., 0., 5.90437055e-001, 0., 0., 0., 0., 0., 0., 0., 0., 0.,
          0., 0., 0., 0., 0., 0., 0., 0., 0., 6.66207314e-001, 0., 0.,
          0., 0., 0., 0., 0., 6.66207314e-001, 0., 0., 0., 0., 0., 0.,
          0., 0., 0., 3.11205119e-001, 5.05888127e-002, 9.29464847e-002,
          1.40029872e-002, 6.08071499e-002, 2.72454452e-002,
          8.35239738e-002, 3.11205119e-001, 3.11205119e-001,
          3.11205119e-001, 3.58963646e-002, 7.20080212e-002,
          3.31593864e-002, 4.48185354e-002, 6.23126812e-002,
          9.69316959e-002, 3.11205119e-001, 3.11205119e-001,
          3.11205119e-001, 3.84847596e-002, 9.68611836e-002,
          3.44694369e-002, 2.24228695e-001, 8.00626725e-002,
          6.34326562e-002, 2.13222224e-002, 1.73350036e-001,
          3.11205119e-001, 1.69339236e-002, 3.73323075e-002,
          2.54270453e-002, 3.40290815e-002, 3.61867882e-002,
          5.15324920e-002, 6.68367594e-002, 2.47476727e-001,
          3.02661866e-001, 6.75777420e-002, 2.26528510e-001,
          1.32695019e-001, 2.41393983e-001, 2.99513042e-001,
          3.02661866e-001, 3.02661866e-001, 3.02661866e-001,
          1.02897830e-001, 3.04094702e-002, 5.33272512e-002,
          5.38860746e-002, 9.48668942e-002, 1.04006529e-001,
          8.37135762e-002, 1.02124363e-001, 1.16307892e-001,
          3.02661866e-001, 5.45355566e-002, 1.42596751e-001,
          1.16772555e-001, 1.14583902e-001, 1.04272932e-001,
          1.27815828e-001, 1.44692406e-001, 3.02661866e-001,
          1.12146646e-001, 7.98633844e-002, 1.04083039e-001,
          8.17615539e-002, 7.27697164e-002, 4.70485575e-002,
          6.27221316e-002, 6.78894445e-002, 8.42336193e-002,
          1.10447727e-001, 9.96073857e-002, 8.96470547e-002,
          6.30393103e-002, 6.48858845e-002, 8.32159817e-002,
          1.60972178e-001, 2.22572312e-001, 2.22572312e-001,
          1.74102783e-001, 1.83722988e-001, 1.13882013e-001,
          8.27012137e-002, 9.91894603e-002, 1.04823835e-001,
          2.22572312e-001, 2.22572312e-001, 1.87822059e-001,
          1.25242874e-001, 2.22572312e-001, 2.10642740e-001,
          1.18574180e-001, 1.09543100e-001, 1.07059546e-001,
          1.46053508e-001, 2.15428904e-001, 1.79113179e-001,
          9.70226750e-002, 2.22572312e-001, 2.22572312e-001,
          1.92643374e-001, 1.52115673e-001, 1.88597202e-001,
          2.05765054e-001, 2.22572312e-001, 2.12930501e-001,
          4.27641869e-002, 3.32541913e-002, 2.36244574e-002,
          4.79590334e-002, 4.02963385e-002, 5.91693334e-002,
          2.06500858e-001, 6.91586435e-002, 2.82082502e-002,
          3.03330440e-002, 2.77923662e-002, 3.77795845e-002,
          6.04647510e-002, 5.02155386e-002, 3.00292730e-001,
          3.70304763e-001, 3.70304763e-001, 4.42427993e-002,
          4.07055803e-002, 7.43582845e-002, 1.09337516e-001,
          4.88691926e-002, 2.87488047e-002, 3.13105807e-002,
          4.25658375e-002, 3.10124196e-002, 5.09327166e-002,
          2.34829694e-001, 3.70304763e-001, 3.70304763e-001,
          8.17463920e-002, 2.84904055e-002, 6.88636377e-002,
          3.70304763e-001, 1.86952278e-001, 1.38082862e-001,
          1.48794735e-002, 4.21579648e-003, 1.28732622e-002,
          8.04106239e-003, 7.97585584e-003, 7.95767158e-002,
          2.97516197e-001, 2.37300187e-001, 2.55757682e-002,
          2.35487726e-002, 2.48785887e-004, 4.20928048e-003,
          1.40596332e-003, 1.00512861e-003, 4.84380778e-003,
          2.32143417e-001, 1.21017352e-001, 5.07951491e-002,
          2.79282868e-001, 2.97516197e-001, 1.72999039e-001,
          3.01683228e-002, 8.13710596e-003, 2.40531452e-002,
          2.97516197e-001, 2.81043649e-001, 1.98264301e-001,
          2.97516197e-001, 9.39652249e-002, 4.04519998e-002,
          7.54526723e-003, 2.04524584e-003, 5.97206131e-002,
          2.97516197e-001, 2.97516197e-001, 2.97516197e-001,
          3.11372131e-002, 1.74641653e-004, 5.22592920e-004, 0.,
          1.71173713e-003, 1.96563499e-003, 4.76706475e-002,
          4.64592353e-002, 6.61213174e-002, 3.84902046e-003,
          5.76425809e-004, 1.72488287e-003, 0., 3.85531154e-003, 0.,
          1.46717229e-003, 2.95038894e-003, 6.38186280e-003,
          2.66029507e-001, 5.82856708e-004, 1.32041133e-003, 0.,
          4.77278372e-003, 2.23573908e-001, 4.01945204e-001,
          4.01945204e-001, 4.01945204e-001, 5.36707565e-002,
          1.85122120e-003, 5.53955091e-003, 0., 1.00550391e-002,
          1.13055088e-001, 4.01945204e-001, 4.01945204e-001,
          2.04307050e-001, 1.14998380e-002, 4.78774961e-003,
          1.43267578e-002, 0., 3.96769680e-002, 0., 1.49105247e-002,
          4.98283468e-003, 1.14998380e-002, 1.88778125e-004,
          1.25638078e-004, 3.75957025e-004, 0., 2.42395909e-003, 0.,
          9.94034926e-004, 3.32188996e-004, 1.88778125e-004,
          1.10898547e-001, 1.95645653e-002, 5.85445873e-002, 0.,
          1.07994087e-001, 1.96006045e-001, 5.96489429e-001,
          5.96489429e-001, 4.62026089e-001, 8.06562975e-003,
          5.44431619e-004, 1.62914710e-003, 0., 1.41997412e-002, 0.,
          1.27804489e-003, 1.03698922e-002, 9.32013802e-003,
          6.05799779e-002, 3.45569216e-002, 8.21135044e-002,
          9.58589762e-002, 3.52462620e-001, 3.52462620e-001,
          3.52462620e-001, 7.94949010e-002, 2.17381995e-002,
          5.59854582e-002, 3.44695523e-002, 3.57592143e-002,
          4.11753058e-002, 5.31631373e-002, 6.06528372e-002,
          9.93047804e-002, 5.31987175e-002, 6.22539483e-002,
          5.78748509e-002, 4.86698747e-002, 9.67158750e-002,
          1.57726869e-001, 3.52462620e-001, 3.52462620e-001,
          3.52462620e-001, 1.27450660e-001, 5.93221709e-002,
          4.51841429e-002, 4.83852327e-002, 6.17050752e-002,
          1.26549691e-001, 1.39865026e-001, 1.83554068e-001,
          2.08472118e-001, 7.87090063e-002, 7.94641897e-002,
          1.43495321e-001, 1.36576384e-001, 1.85619622e-001,
          1.56313092e-001, 1.12726204e-001, 8.42124596e-002,
          1.37395799e-001, 1.14796966e-001, 1.48487478e-001,
          2.09543377e-001, 2.25502878e-001, 2.25502878e-001,
          1.74438521e-001, 1.72570869e-001, 7.76747614e-002,
          7.17693269e-002, 7.17682987e-002, 9.94123071e-002,
          8.27296004e-002, 1.28433421e-001, 1.98205501e-001,
          2.25502878e-001, 2.07527518e-001, 1.87663466e-001,
          1.70853630e-001, 1.62782460e-001, 1.77455693e-001,
          1.49372667e-001, 2.25502878e-001, 2.25502878e-001,
          1.90492943e-001, 2.20448837e-001, 1.73427209e-001,
          1.04403526e-001, 1.71207562e-001, 1.88522801e-001,
          8.66319090e-002, 1.40050441e-001, 1.23261347e-001,
          9.56017599e-002, 1.07097656e-001, 7.43698180e-002,
          6.45538792e-002, 5.34216762e-002, 5.78680411e-002,
          6.41220212e-002, 1.08620077e-001, 2.30910465e-001,
          2.33744621e-001, 1.15749381e-001, 1.51714548e-001,
          1.15067631e-001, 5.83914593e-002, 1.04829229e-001,
          7.39723295e-002, 1.38751030e-001, 1.21223740e-001,
          1.24972723e-001, 1.70430422e-001, 1.13559306e-001,
          7.50008672e-002, 9.47659090e-002, 7.72033632e-002,
          1.17905505e-001, 2.40264386e-001, 4.52629864e-001,
          4.52629864e-001, 2.47106329e-001, 1.94903791e-001,
          1.01467408e-001, 9.16984230e-002, 1.09819345e-001,
          3.21674757e-002, 1.27267838e-001, 3.57814342e-001,
          8.40781704e-002, 2.92309634e-002, 2.72767544e-002,
          1.38547104e-002, 7.53223384e-003, 2.42123734e-002,
          1.87562168e-001, 3.57814342e-001, 3.57814342e-001,
          8.01584497e-002, 1.89688057e-002, 2.34057419e-002,
          1.51008032e-002, 8.28260649e-003, 6.52213320e-002,
          2.21509039e-002, 1.53051242e-001, 3.57814342e-001,
          3.57814342e-001, 7.12873191e-002, 2.65115183e-002,
          8.25880282e-003, 1.11084431e-002, 1.75269116e-002,
          5.27903736e-002, 3.10934424e-001, 3.57814342e-001,
          1.50544763e-001, 4.30158675e-002, 8.63469858e-003,
          8.86260474e-004, 1.30227767e-003, 1.35639897e-002,
          3.27656478e-001, 3.27656478e-001, 3.27656478e-001,
          3.66490074e-002, 8.41258746e-003, 1.47259058e-002,
          1.46600470e-001, 1.20957889e-001, 2.77412385e-001,
          3.27656478e-001, 1.86773270e-001, 5.82383014e-002,
          6.13671634e-003, 3.30447685e-003, 1.04109131e-001,
          3.27656478e-001, 3.27656478e-001, 3.27656478e-001,
          6.46656826e-002, 1.83315665e-001, 1.75049260e-001,
          7.00133480e-003, 6.30516140e-003, 1.67850428e-003,
          9.77542601e-004, 1.93455908e-003, 2.39808876e-002,
          3.48467939e-002, 1.72643084e-002, 4.83656907e-003, 0.,
          2.03080685e-003, 9.95371118e-003, 5.76081946e-002,
          4.41072062e-002, 7.30585232e-002, 7.49460310e-002,
          2.63804221e-004, 5.33950923e-004, 0., 9.41824459e-004,
          1.18002936e-001, 3.68305892e-001, 3.68305892e-001,
          2.51975358e-001, 2.18697563e-002, 4.62182652e-004,
          1.38302427e-003, 0., 1.29547087e-003, 1.02218404e-001,
          3.68305892e-001, 3.68305892e-001, 1.02554016e-001,
          1.30329328e-002, 2.12413128e-004, 5.76669874e-004, 0.,
          1.03667693e-003, 3.06648333e-002, 2.20901906e-001,
          1.43967837e-001, 5.22386655e-002, 7.53317401e-003,
          6.30663242e-004, 1.88718084e-003, 0., 1.46242743e-003,
          5.98403439e-002, 3.68305892e-001, 3.68305892e-001,
          3.05615589e-002, 4.62448178e-003, 4.35091788e-004,
          1.30195857e-003, 0., 1.44503335e-003, 2.85606347e-002,
          4.50839251e-001, 2.74071813e-001, 2.05069352e-002,
          8.54938116e-004, 2.62334623e-004, 7.85003591e-004, 0.,
          1.65459618e-003, 2.64692772e-003, 6.18024729e-002,
          2.12738495e-002, 9.96901654e-004, 2.33983062e-003,
          6.35137723e-004, 1.90057047e-003, 0., 2.39224639e-003,
          7.12093711e-002, 4.50839251e-001, 4.50839251e-001,
          7.41405366e-003, 1.69571908e-003, 4.40672069e-004,
          1.31865672e-003, 0., 6.33983128e-003, 6.59509897e-002,
          4.50839251e-001, 3.03764015e-001, 1.80613506e-003,
          2.47491132e-002, 1.60827227e-002, 1.82361621e-002,
          5.53580485e-002, 3.07988614e-001, 3.07988614e-001,
          3.07988614e-001, 1.12692527e-001, 2.65353695e-002,
          3.43759581e-002, 1.85820330e-002, 3.79487015e-002,
          8.62794966e-002, 1.51267156e-001, 2.05236018e-001,
          2.33864367e-001, 9.04245302e-002, 4.27500047e-002,
          1.57699287e-002, 1.06829368e-002, 1.31089671e-003,
          2.59099603e-002, 2.66673654e-001, 3.07988614e-001,
          3.07988614e-001, 1.53607070e-001, 6.49747625e-003,
          5.56032248e-002, 2.62124445e-002, 4.18152474e-002,
          1.04153626e-001, 1.95400909e-001, 3.07988614e-001,
          3.07988614e-001, 1.53119192e-001, 3.67410593e-002,
          1.21878482e-001, 7.35100210e-002, 1.49242401e-001,
          2.45614752e-001, 1.63430050e-001, 1.40119269e-001,
          1.05643094e-001, 8.96461830e-002, 1.54424056e-001,
          1.02167204e-001, 1.34950042e-001, 1.06161982e-001,
          1.91500798e-001, 1.45282239e-001, 1.22627750e-001,
          7.35402033e-002, 1.17564000e-001, 1.18709400e-001,
          2.45614752e-001, 1.35432273e-001, 2.11456627e-001,
          2.45614752e-001, 2.04595387e-001, 2.45614752e-001,
          2.45614752e-001, 1.48901790e-001, 1.85206339e-001,
          2.45614752e-001, 1.77095056e-001, 1.66110367e-001,
          2.45614752e-001, 1.37573645e-001, 1.09679684e-001,
          7.25741908e-002, 1.17755897e-001, 1.63858399e-001,
          1.13587109e-002, 4.15640958e-002, 7.72794858e-002,
          5.05493283e-002, 5.74293658e-002, 3.09227630e-002,
          1.68323908e-002, 2.93014832e-002, 1.41897611e-002,
          1.80672035e-002, 1.00305840e-001, 3.97442490e-001,
          3.97442490e-001, 1.40519425e-001, 7.00361729e-002,
          2.58589610e-002, 2.57368516e-002, 1.69595964e-002,
          4.00950350e-002, 5.99806644e-002, 3.61426860e-001,
          2.13817045e-001, 1.01942934e-001, 8.06739554e-002,
          1.46354623e-002, 2.58812942e-002, 2.64212210e-002,
          2.00644955e-002, 1.13852486e-001, 3.97442490e-001,
          3.97442490e-001, 2.91780859e-001, 1.12156607e-001,
          1.74362175e-002, 8.62866174e-003, 7.40008103e-003,
          1.18170250e-002, 1.14926890e-001, 4.16696548e-001,
          4.16696548e-001, 1.77962542e-001, 4.34829146e-002,
          1.35004809e-002, 1.70141049e-002, 1.81420241e-002,
          2.75936234e-003, 3.66933048e-002, 4.16696548e-001,
          1.69764355e-001, 5.78567348e-002, 2.51845806e-003,
          2.04264163e-003, 1.41990639e-003, 3.32586560e-003,
          4.87878174e-003, 5.76889031e-002, 4.16696548e-001,
          4.16696548e-001, 1.99803799e-001, 3.37212756e-002,
          8.32935423e-003, 2.43912055e-003, 3.34598846e-003,
          8.13659804e-004, 9.26660839e-004, 3.09298597e-002,
          2.66028158e-002, 1.53896166e-002, 6.41525548e-005,
          1.14407251e-003, 4.31770197e-004, 8.79349944e-004,
          2.21274897e-001, 1.80331260e-001, 5.48139095e-001,
          2.19770655e-001, 5.48139095e-001, 0., 2.25180760e-001,
          7.52516463e-002, 2.21274897e-001, 6.86248764e-002, 0., 0., 0.,
          2.67301142e-001, 0., 3.31995524e-002, 1.10947359e-002,
          6.86248764e-002, 7.09778592e-002, 0., 0., 0., 1.71106711e-001,
          0., 1.38178751e-001, 4.61770333e-002, 7.09778592e-002,
          2.90205553e-002, 0., 0., 0., 1.16348304e-001, 0.,
          2.33577490e-002, 7.80577026e-003, 2.90205553e-002,
          5.88819431e-003, 1.90209376e-003, 5.69177559e-003, 0.,
          1.12926736e-002, 1.11783354e-003, 7.46484622e-002,
          8.34529772e-002, 5.88819431e-003, 1.30270943e-002,
          8.31085443e-003, 2.48691924e-002, 0., 2.31098402e-002,
          1.18682519e-001, 6.82708204e-001, 6.82708204e-001,
          1.30270943e-002, 1.96935888e-003, 9.53064533e-004,
          2.85192672e-003, 0., 3.89189250e-003, 0., 0., 0.,
          1.96935888e-003, 5.71162486e-003, 3.47059756e-003,
          1.03853345e-002, 0., 1.03885932e-002, 2.44506039e-002,
          1.76453546e-001, 2.29673367e-002, 5.71162486e-003,
          6.80646219e-004, 4.65967780e-004, 1.39435043e-003,
          2.05180750e-005, 5.61498711e-003, 5.33061773e-002,
          3.84222716e-001, 3.05641711e-001, 6.80646219e-004,
          6.69147819e-004, 1.37531577e-004, 4.11545974e-004,
          8.89116563e-005, 1.85749084e-002, 1.31999552e-001,
          3.84222716e-001, 3.84222716e-001, 1.02855812e-003,
          6.66876673e-004, 3.41721665e-004, 1.02255959e-003,
          3.07771115e-004, 9.46746860e-003, 3.96379679e-002,
          2.63314396e-001, 8.30354691e-002, 6.66876673e-004,
          4.54951869e-003, 3.31918127e-004, 9.93223628e-004,
          1.33367488e-003, 4.64805253e-002, 2.52478302e-001,
          3.84222716e-001, 3.84222716e-001, 1.18670557e-002,
          5.51988697e-003, 3.38869006e-003, 1.04672636e-003,
          1.52360685e-002, 1.10610925e-001, 2.58597732e-001,
          3.91080827e-001, 5.88096343e-002, 3.84355732e-003,
          3.68999504e-002, 3.03548891e-002, 2.88168155e-002,
          6.58808723e-002, 1.41419649e-001, 3.91080827e-001,
          3.91080827e-001, 2.88694650e-001, 4.40838151e-002,
          1.56166311e-003, 7.51525455e-004, 1.91303407e-004,
          2.75387603e-004, 1.96220335e-002, 3.83502841e-002,
          1.16406575e-001, 1.08315395e-002, 3.62812122e-003,
          5.69750974e-003, 1.05349589e-002, 8.12139641e-003,
          5.71639929e-003, 4.76517454e-002, 1.13720953e-001,
          3.91080827e-001, 3.91080827e-001, 6.92062899e-002,
          6.17116354e-002, 2.62556281e-002, 2.99940929e-002,
          4.56443429e-002, 5.16293421e-002, 1.02870852e-001,
          3.24162871e-001, 2.10124001e-001, 5.54024093e-002,
          9.88033190e-002, 6.59230351e-002, 1.18879542e-001,
          6.95622638e-002, 4.47197594e-002, 3.86736952e-002,
          7.41217807e-002, 7.00079277e-002, 6.31197989e-002,
          3.02427970e-002, 1.96158290e-002, 2.19280887e-002,
          9.41288844e-003, 3.65585424e-002, 3.84053960e-002,
          3.24162871e-001, 3.24162871e-001, 1.65162936e-001,
          2.05414221e-001, 2.50027567e-001, 3.24162871e-001,
          1.45018622e-001, 4.89502326e-002, 2.05068663e-002,
          3.10748547e-001, 3.24162871e-001, 3.08819413e-001,
          4.82215248e-002, 9.73325893e-002, 3.40026110e-001,
          3.04796457e-001, 1.00324757e-001, 8.47699344e-002,
          1.50620388e-002, 2.16473304e-002, 2.80251335e-002,
          1.34371985e-002, 7.28879720e-002, 3.40026110e-001,
          3.40026110e-001, 1.87567130e-001, 7.33888149e-002,
          5.02980174e-003, 2.78335693e-003, 4.82949708e-003,
          1.08708158e-001, 2.58472562e-001, 3.40026110e-001,
          3.06270808e-001, 7.38919824e-002, 2.76782140e-002,
